weight: 0.0047826 -4.12116e-05 0.0032504 -7.07903e-06 -8.17892e-05 -0.000223891 0.00833619 -0.000657364 0.0103979 -0.00080889 -0.000194772 -0.000548674 -0.000206265 -0.000675505 -3.34466e-05 0.0045893 0.00287747 -0.000802067 0.000679312 0.00268051 0.00131015 0.00247135 0.00632461 0.00953275 0.00241485 0.00556669 0.0112277 0.00697458 0.0107768 -0.000737507 0.0115365 0.00240963 -0.000787481 0.00238741 0.00250313 -0.000798633 0.00488134 -0.000747801 0.00174352 -0.139914 -0.0627495 -0.0153172 -0.0869812 -0.046043 -0.0634126 -0.100876 0.100187 0.103796 -0.00303258 0.0444437 0.0149056 0.16519 0.0993783 -0.092468 0.247401 -0.00211037 0.0603984 0.00892522 0.0614263 0.0323906 0.0124845 -0.0183516 0.00759351 -0.000547114 2.69837e-05 -0.0008077 0.00113966 -0.000116333 0.00427079 0.0118972 0.00333969 -0.000718273 0.00387061 -0.00080956 -0.000755804 4.66348e-05 -0.000125771 0.0104512 0.00885992 0.00936102 0.0117963 0.00737999 0.00742474 0.00482543 -0.000519383 0.00114624 0.00942315 0.00546674
weight: 0.00477071 -1.96912e-05 0.00327517 -3.31734e-06 -4.09895e-05 -0.000134042 0.00826817 -0.000495568 0.0103207 -0.000634011 -0.000113077 -0.000399559 -6.39971e-05 -0.000512115 0.000100889 0.00458186 0.00291261 -0.000627759 0.000784996 0.00272111 0.0013928 0.00251775 0.00628351 0.00945662 0.00246296 0.00553911 0.0111565 0.00692331 0.0107014 -0.00056787 0.0114697 0.00245781 -0.000613972 0.00243652 0.00254861 -0.000624565 0.00486768 -0.00057726 0.00181234 -0.135037 -0.0925726 -0.0314514 -0.0857104 -0.0454819 -0.0635922 -0.0618406 0.0928203 0.0977273 0.00539198 0.0422986 0.0301226 0.199211 0.118935 -0.0741235 0.243856 -0.0112913 0.0460136 0.0569336 0.0481959 0.028152 -0.00233233 -0.0243371 0.0075338 -0.000398069 0.000158672 -0.000632822 0.00122845 -6.11507e-05 0.00427057 0.0118377 0.00336242 -0.000550358 0.00387986 -0.000634654 -0.000584818 0.000177814 1.29449e-05 0.0103744 0.00878739 0.00928531 0.0117342 0.00732302 0.00736688 0.0048129 -0.000361876 0.00123485 0.00934739 0.00544094
weight: 0.00564969 -1.20489e-05 0.00404511 -2.00305e-06 -2.5851e-05 -9.25428e-05 0.00938313 -0.000352069 0.0115764 -0.000383505 -7.70813e-05 -0.000287747 0.000371294 -0.000362114 0.000562244 0.00544773 0.00365431 -0.000363077 0.00133325 0.00344761 0.00200383 0.00322817 0.00726616 0.0106519 0.00316881 0.00647131 0.0124723 0.0079487 0.0119837 -0.000392859 0.0128096 0.0031633 -0.000408347 0.00314004 0.0032616 -0.00035557 0.00575346 -0.000272831 0.00246236 -0.046725 -0.0516789 -0.0503587 -0.116017 -0.011251 -0.0368471 -0.0750821 0.0642826 0.124066 -0.00867729 -0.00493028 0.010505 0.08225 0.105869 -0.0553333 0.200572 0.00709998 0.0496674 0.00169382 0.0607463 0.0293969 0.0287026 0.0339704 0.00859995 -0.000286831 0.000628512 -0.000378963 0.00182336 -3.96614e-05 0.00511394 0.0132066 0.00413909 -0.000384059 0.00469478 -0.000389296 -0.000400263 0.000650271 0.000460634 0.011634 0.0099372 0.0104691 0.0130947 0.00837505 0.00842176 0.00569471 1.40808e-05 0.00183052 0.0105352 0.00636635
weight: 0.00499451 5.03059e-05 0.00364529 8.89806e-06 9.22552e-05 0.000165586 0.00811209 9.27665e-05 0.00987763 6.11922e-05 0.00015803 0.000128773 0.000621199 8.61184e-05 0.000771564 0.00482437 0.00331743 7.39658e-05 0.00139268 0.00314475 0.00194293 0.00296061 0.00635203 0.00914488 0.00291114 0.00568535 0.0105626 0.00692283 0.0101937 6.44569e-05 0.01081 0.00290644 5.04347e-05 0.00288701 0.00298843 7.88057e-05 0.00508171 0.000134897 0.00232235 -0.0132168 -0.0726293 -0.0759688 -0.0921263 -0.0102988 0.00266324 -0.00899968 0.0762072 0.0829055 0.0101123 0.00862507 0.0114636 0.0737019 0.0967729 -0.0366554 0.153295 -0.0046383 0.0312597 0.0614053 0.00860896 -0.00515145 0.00782709 0.0323896 0.00746483 0.000129297 0.00082413 6.40267e-05 0.00179424 0.000119785 0.00454351 0.0110907 0.00372418 7.1036e-05 0.00419111 5.80658e-05 5.87179e-05 0.000841556 0.00069117 0.0099226 0.00856602 0.00899747 0.0110133 0.00727823 0.0073172 0.00503233 0.000345406 0.00179997 0.00905085 0.00559728
weight: 0.00465668 0.00013101 0.00352948 2.29993e-05 0.000245291 0.000502954 0.00727402 0.000698312 0.00871787 0.000705378 0.000464752 0.0006886 0.0011009 0.000698475 0.00121412 0.004514 0.00325789 0.000713876 0.00169562 0.00311473 0.00213425 0.00296334 0.00579848 0.0081264 0.0029225 0.00523742 0.0092509 0.00627865 0.00896653 0.000696994 0.00943557 0.00291884 0.000695574 0.00290309 0.00298632 0.000716886 0.00473001 0.00075366 0.00244147 0.0440054 -0.0995891 -0.0733436 -0.05084 0.0508251 0.0562515 0.00993398 0.011954 0.0928856 0.0307474 -0.0271414 -0.0200574 -0.0811284 0.161951 -0.0521066 -0.0376198 0.00227973 0.00986512 0.0990973 0.0319237 -0.0620533 0.0361739 0.078656 0.00673352 0.000688214 0.0012543 0.000707219 0.0020148 0.000326815 0.00427877 0.00963585 0.00359502 0.000697871 0.00398424 0.000703321 0.00069626 0.0012674 0.00115345 0.00875336 0.0076506 0.00800611 0.00958132 0.00657663 0.00660955 0.00468855 0.000899324 0.00201973 0.00804948 0.00516342
weight: -0.00233145 -0.000128758 -0.00297385 -2.22325e-05 -0.000251949 -0.000652832 -0.000762904 -0.00192035 6.59868e-05 -0.00290386 -0.000573206 -0.00156155 -0.00375504 -0.00198774 -0.00378915 -0.00241521 -0.0031192 -0.00300699 -0.00376737 -0.00319327 -0.0036363 -0.00327002 -0.00164886 -0.000265406 -0.00328999 -0.00198614 0.000346851 -0.00135919 0.000199941 -0.0022449 0.000437678 -0.0032923 -0.00253197 -0.0032998 -0.00325819 -0.00303933 -0.00228811 -0.00326648 -0.00351387 0.240765 -0.00434422 0.307443 -0.0386605 0.0811184 0.0163085 0.123554 0.0256808 0.0987586 0.110546 -0.093462 -0.0875095 -0.215753 0.131092 -0.0892151 -0.164987 -0.00450779 -0.083791 0.181283 -0.0782668 -0.118688 -0.0645867 0.105359 -0.0010855 -0.00155645 -0.00379636 -0.00292984 -0.00367832 -0.000353146 -0.00255199 0.000529803 -0.00293806 -0.002159 -0.00272092 -0.00286397 -0.00233691 -0.00379783 -0.00377384 8.54783e-05 -0.00054048 -0.000334334 0.000505261 -0.00117943 -0.00116006 -0.00231268 -0.00360063 -0.00367694 -0.000309387 -0.00203074
weight: -0.00790866 -0.000726039 -0.0091063 -0.000126509 -0.00138707 -0.00319009 -0.00477713 -0.00691112 -0.0028418 -0.00902476 -0.0028717 -0.00602307 -0.010589 -0.00706921 -0.0106424 -0.00806699 -0.009374 -0.0092268 -0.0105777 -0.00951054 -0.0103278 -0.00965129 -0.00659411 -0.00366039 -0.0096886 -0.00725125 -0.00205438 -0.00601764 -0.00248267 -0.00765242 -0.00176186 -0.00969201 -0.00826931 -0.00970622 -0.00963007 -0.00928972 -0.00782717 -0.00972085 -0.0101002 0.00831334 0.281692 0.264246 0.113525 0.00736484 0.0557191 0.085178 -0.393641 0.186767 -0.262721 -0.114788 -0.111761 0.0650844 -0.201209 -0.307737 -0.350176 0.0864041 -0.0109975 0.129592 -0.178184 -0.00337213 -0.0495995 -0.0908519 -0.00545835 -0.00600992 -0.0106526 -0.00907599 -0.0104066 -0.00189256 -0.0083234 -0.00142277 -0.00904048 -0.0074611 -0.00863832 -0.0089462 -0.00785346 -0.0106547 -0.0106197 -0.00279151 -0.00429053 -0.00382171 -0.00151747 -0.00565246 -0.00561196 -0.0078731 -0.010327 -0.0104035 -0.00376323 -0.00733613
weight: 0.0532429 0.00307605 0.0531788 0.000536329 0.00586601 0.0133684 0.0506787 0.0283795 0.0472596 0.0373111 0.0120573 0.0248098 0.0467645 0.0290197 0.0476844 0.0532792 0.0530229 0.0382506 0.0501691 0.0529133 0.0514612 0.0527743 0.0525638 0.0489322 0.0527326 0.0529815 0.0451648 0.0520807 0.046378 0.0314037 0.0442015 0.0527288 0.0339874 0.052712 0.0527973 0.0385467 0.0532199 0.0406959 0.0520777 -0.10624 -0.475241 -0.0170121 -0.0544591 0.0891916 0.0601553 -0.100245 0.0019891 -0.155386 -0.0434068 -0.139158 0.128562 -0.343152 0.195261 -0.21361 -0.222668 -0.0830883 0.00361794 -0.0564367 0.101359 0.0132571 0.152089 0.273151 0.0515118 0.0247576 0.0479671 0.0375468 0.0511663 0.00798765 0.0533126 0.0428912 0.0532066 0.0306165 0.0533065 0.0369541 0.0322362 0.0480549 0.0472182 0.047142 0.0499822 0.0492187 0.0432824 0.0517204 0.0516775 0.0532331 0.0443413 0.0511783 0.0491163 0.0530244
weight: 0.0375478 0.00349569 0.0404151 0.000609949 0.00665298 0.0149879 0.0286605 0.0302382 0.0213391 0.0377099 0.0135541 0.0268544 0.0430102 0.0308244 0.043257 0.0379401 0.0410209 0.038389 0.0434282 0.0413233 0.0430205 0.041632 0.0341035 0.0247107 0.0417123 0.0358662 0.0174641 0.0324764 0.0196678 0.0329465 0.0157782 0.0417196 0.0351253 0.041751 0.0415859 0.0385981 0.0373441 0.04003 0.0425761 0.157663 -0.0606493 0.158077 0.0731388 0.117886 0.0471158 0.11985 -0.0262255 -0.273489 -0.0341626 0.137021 -0.178757 -0.21782 -0.132398 0.227996 -0.0293698 -0.0583342 -0.00470462 0.112836 0.0571651 0.14073 -0.10753 0.0269322 0.0308167 0.0268035 0.043317 0.037883 0.0431629 0.00903795 0.0385678 0.0135634 0.0402632 0.0322572 0.0393238 0.0374457 0.0336631 0.0433341 0.043142 0.0211128 0.0270144 0.0253221 0.0142163 0.0314014 0.03128 0.0374589 0.0420548 0.0431576 0.0251024 0.0360878
weight: -0.0689196 -0.00397917 -0.0700328 -0.000693421 -0.00759925 -0.0174532 -0.062907 -0.037982 -0.0572919 -0.050611 -0.015715 -0.0329989 -0.0636693 -0.0388812 -0.0648546 -0.0691195 -0.0701137 -0.0519406 -0.0678454 -0.0701191 -0.0691768 -0.0700927 -0.0668312 -0.0598883 -0.0700798 -0.0679631 -0.0543369 -0.0657092 -0.056013 -0.0422415 -0.0530697 -0.0700783 -0.045899 -0.0700724 -0.0700988 -0.0523592 -0.0688122 -0.0553857 -0.0696988 -0.258539 -0.313957 -0.242663 0.122386 -0.038029 0.0489033 0.454964 -0.121163 -0.156309 0.103955 -0.194495 -0.146017 0.0016026 0.0715836 0.213821 0.166859 0.00237786 -0.0638617 0.094192 -0.219324 -0.0395003 0.135156 0.303396 -0.0645123 -0.032926 -0.0652124 -0.0509447 -0.0688947 -0.0103649 -0.0694134 -0.0514268 -0.0700003 -0.0411303 -0.0697192 -0.0501053 -0.0434189 -0.0653231 -0.0642587 -0.0571186 -0.0616563 -0.0603582 -0.0519083 -0.0649391 -0.0648507 -0.0688731 -0.0604341 -0.0689074 -0.06019 -0.0680973
weight: 0.0741368 0.00352108 0.0705646 0.000614053 0.00671113 0.0152539 0.0801083 0.0322647 0.0825133 0.0427352 0.0137655 0.0282024 0.0554237 0.0329971 0.0568944 0.0737303 0.0695509 0.0438858 0.0613849 0.0689862 0.064276 0.0683598 0.0770432 0.0815982 0.0681877 0.0756853 0.0832302 0.078114 0.0828628 0.035743 0.0834444 0.0681715 0.0387594 0.068103 0.0684577 0.0442516 0.0743416 0.0469587 0.0659468 0.184007 -0.0696601 0.29159 -0.0770485 -0.0569981 -0.179459 0.0231571 0.188273 -0.217862 0.0802487 -0.0162034 0.0982102 -0.0789309 -0.0156109 -0.0791113 0.518792 0.107303 0.140472 0.0391414 0.145965 0.103238 -0.282237 -0.089741 0.0790596 0.0281429 0.057362 0.0430225 0.063559 0.00913288 0.0730344 0.0836445 0.0707985 0.0348332 0.0721134 0.0423013 0.0367094 0.0575089 0.0561389 0.0825653 0.0807915 0.0814001 0.083596 0.0787419 0.0788084 0.0742265 0.0518441 0.0635874 0.0814735 0.075497
weight: 0.000373868 -0.000975355 0.000169225 -0.000170783 -0.00183869 -0.00391709 -0.000225905 -0.00604918 -0.000810019 -0.00547456 -0.00358865 -0.005858 -0.0029723 -0.0060595 -0.00261054 0.00036964 5.13459e-05 -0.00531905 -0.00151226 -2.3152e-05 -0.000862693 -0.000113483 0.000248945 -0.000580666 -0.000139431 0.000345361 -0.000934614 0.000125171 -0.000884249 -0.00603088 -0.000930851 -0.000141617 -0.00587544 -0.000153 -9.92608e-05 -0.00526557 0.000374683 -0.00482067 -0.000526591 -0.421039 0.125651 -0.407692 0.139231 0.0161523 0.122591 -0.036623 -0.0695653 0.13449 0.0630736 -0.139375 0.155515 0.18313 -0.212595 0.608342 -0.199958 -0.0397208 -0.161793 -0.0478182 0.0672317 0.130884 0.0947112 -0.0893661 -2.24436e-05 -0.00585362 -0.0024936 -0.00543731 -0.00101667 -0.00246984 0.000348867 -0.000865675 0.000191892 -0.00605232 0.000300081 -0.00552912 -0.00599508 -0.00245805 -0.00279617 -0.000822202 -0.000381289 -0.000530197 -0.000893071 3.15426e-05 2.05735e-05 0.000374093 -0.00381949 -0.00101025 -0.000549335 0.000352241
weight: -0.0699009 -0.00113249 -0.0630838 -0.000196297 -0.00219398 -0.00543903 -0.0834835 -0.0152709 -0.0906848 -0.02452 -0.00481532 -0.0123938 -0.0395159 -0.0158299 -0.0415214 -0.069087 -0.0612654 -0.0257071 -0.0479932 -0.0602727 -0.0524502 -0.0591872 -0.0760597 -0.0876978 -0.0588907 -0.0730989 -0.0935115 -0.0785189 -0.0919772 -0.0180407 -0.0945558 -0.058863 -0.0206828 -0.058745 -0.0593554 -0.0260908 -0.0703133 -0.0290469 -0.055137 -0.358535 -0.204442 0.22875 0.258013 0.0426732 0.129553 -0.060516 0.00402027 -0.10073 -0.115466 -0.0660119 -0.0440828 -0.128904 0.00656647 -0.0122947 -0.4399 0.0783865 -0.0257893 -0.249374 0.0603919 -0.106355 -0.22866 -0.0409559 -0.0808023 -0.0123543 -0.0421697 -0.0248136 -0.0513221 -0.0030419 -0.0677205 -0.0957667 -0.0635089 -0.0172875 -0.0659534 -0.0240822 -0.0188623 -0.0423767 -0.0404844 -0.090867 -0.0853423 -0.0871002 -0.0954276 -0.0800201 -0.0801836 -0.0700807 -0.0348625 -0.0513661 -0.0873161 -0.0727002
weight: 0.015178 -0.000551286 0.00967628 -9.63105e-05 -0.00104551 -0.00230981 0.0292381 -0.00421704 0.0387434 -0.00442886 -0.0020986 -0.00387875 -0.00207234 -0.00426663 -0.0014801 0.014469 0.00837617 -0.00436635 0.00091942 0.00769362 0.00303194 0.00697391 0.0210179 0.0345766 0.00677927 0.018104 0.0430967 0.0235886 0.0406764 -0.00441363 0.0448436 0.00676218 -0.00449298 0.00668622 0.00708256 -0.00434164 0.0155429 -0.00407975 0.00449276 -0.0207559 -0.484023 -0.0801104 0.0642967 -0.0602799 -0.24875 0.212005 0.177243 0.161045 0.264224 0.0563309 0.040839 0.195889 0.144278 -0.154875 -0.21254 0.0732611 0.0292841 0.194395 -0.0232135 0.218058 -0.0747303 -0.0958355 0.0261089 -0.00387326 -0.00127503 -0.00441502 0.00246054 -0.00141471 0.0133103 0.0470044 0.00999073 -0.00437214 0.0118727 -0.00444633 -0.00444955 -0.00120771 -0.00179571 0.0390101 0.0315234 0.0337822 0.0463848 0.0252312 0.0254143 0.0153368 -0.00318072 0.00248227 0.0340702 0.0177272
weight: -0.0697133 -0.00445521 -0.0705375 -0.000776687 -0.00849914 -0.0193977 -0.0644946 -0.0411019 -0.0585534 -0.0534616 -0.017491 -0.0359954 -0.0651878 -0.0420107 -0.0661912 -0.0698679 -0.0705837 -0.0547086 -0.068677 -0.0705776 -0.0697717 -0.0705481 -0.0680279 -0.0614387 -0.0705354 -0.068959 -0.0549603 -0.0670653 -0.0570403 -0.0453691 -0.0533125 -0.0705336 -0.0489554 -0.0705279 -0.070553 -0.0550984 -0.0696315 -0.0578861 -0.0702028 -0.325137 0.112382 -0.199833 0.245621 -0.124491 0.000860621 0.0495285 -0.0614934 -0.0874835 0.149887 -0.0360552 -0.16452 0.119584 0.0652101 -0.298569 0.432783 0.194408 0.12296 -0.183721 -0.0361662 0.0361011 0.0517547 -0.13682 -0.0659968 -0.0359204 -0.0664918 -0.0537757 -0.0695392 -0.0115774 -0.0700912 -0.0510742 -0.0705159 -0.0442649 -0.0703167 -0.0529842 -0.0465315 -0.0665842 -0.0656879 -0.0583533 -0.0632663 -0.061936 -0.0517408 -0.0663827 -0.0663038 -0.0696776 -0.0623947 -0.0695504 -0.061757 -0.0690664
weight: -0.271801 -0.0166205 -0.265281 -0.00289994 -0.0316357 -0.0713457 -0.279449 -0.145782 -0.279492 -0.186488 -0.0645007 -0.12879 -0.228296 -0.148781 -0.232521 -0.27111 -0.263261 -0.190649 -0.244584 -0.262105 -0.251677 -0.2608 -0.276228 -0.279957 -0.260435 -0.274281 -0.278114 -0.277573 -0.279 -0.159835 -0.277267 -0.260401 -0.171609 -0.260256 -0.261006 -0.191956 -0.272142 -0.201418 -0.255536 -0.47967 -0.688437 0.456632 0.318762 -0.0459293 0.303045 -0.244284 -0.228271 0.365618 0.1153 0.014035 -0.237989 0.446107 0.0316152 -0.187203 0.471939 -0.152761 -0.103806 -0.324435 -0.384185 -0.0320963 -0.0582556 -0.205335 -0.278587 -0.128538 -0.233836 -0.187534 -0.249966 -0.0429836 -0.269897 -0.27595 -0.265737 -0.156206 -0.268228 -0.184902 -0.163651 -0.234248 -0.230369 -0.279437 -0.279817 -0.279959 -0.276362 -0.278267 -0.278335 -0.27195 -0.21745 -0.250036 -0.279962 -0.273991
weight: -0.394547 -0.0180654 -0.372262 -0.00315065 -0.0344278 -0.0782025 -0.437021 -0.165331 -0.459645 -0.219511 -0.0705809 -0.144485 -0.286834 -0.169098 -0.294805 -0.391929 -0.366174 -0.225523 -0.319456 -0.362821 -0.335642 -0.359134 -0.414047 -0.450106 -0.358119 -0.40474 -0.469191 -0.421692 -0.463927 -0.18324 -0.472954 -0.358024 -0.198833 -0.357624 -0.359705 -0.227437 -0.39587 -0.241665 -0.345142 -0.135593 0.359293 0.375992 0.724256 0.277107 0.517396 -0.283196 0.264731 0.385301 -0.0568417 0.342649 -0.507301 -0.129306 -0.521323 -0.391202 -0.522997 -0.255584 0.0702045 -0.48144 -0.188415 -0.533072 -0.410711 -0.491166 -0.428755 -0.144181 -0.297349 -0.221011 -0.331598 -0.0468449 -0.387506 -0.477591 -0.373677 -0.178548 -0.381743 -0.217247 -0.188229 -0.29815 -0.290706 -0.460242 -0.442764 -0.44823 -0.47626 -0.42634 -0.426847 -0.395125 -0.267591 -0.331758 -0.448911 -0.403476
weight: -0.0664201 -0.00646666 -0.0708458 -0.00112862 -0.0122993 -0.0276053 -0.053745 -0.0548739 -0.0441518 -0.0675704 -0.0249856 -0.0489445 -0.0758262 -0.0558923 -0.0761325 -0.0670122 -0.0718211 -0.0686842 -0.0761 -0.0723165 -0.0752491 -0.0728257 -0.0613582 -0.0484777 -0.0729599 -0.0639207 -0.0393772 -0.0590372 -0.0420684 -0.0595501 -0.0373661 -0.0729718 -0.0632565 -0.0730242 -0.0727492 -0.0690253 -0.0661138 -0.0713346 -0.07444 -0.377662 -0.0197479 0.224348 0.051464 -0.0284031 0.0639827 -0.125954 -0.31455 0.191005 0.046858 0.012568 0.0258202 0.531329 0.0110054 -0.0189221 0.227624 -0.12359 -0.000179783 -0.104218 0.01166 -0.0256419 0.0177355 -0.19194 -0.0567101 -0.0488545 -0.0761981 -0.0678545 -0.0755239 -0.0166955 -0.0679675 -0.0347847 -0.0706059 -0.0583661 -0.0691311 -0.0671343 -0.0607749 -0.0762161 -0.0759949 -0.0438673 -0.0515232 -0.049278 -0.0355377 -0.0575252 -0.0573562 -0.0662872 -0.0744693 -0.0755136 -0.0489902 -0.0642482
weight: -0.00888267 -0.000917868 -0.0111469 -0.000159397 -0.00176923 -0.00425437 -0.00409461 -0.0102785 -0.0015614 -0.0138547 -0.00379392 -0.0087589 -0.0157268 -0.0105509 -0.0156443 -0.00916163 -0.011711 -0.0141732 -0.0149208 -0.0120104 -0.014061 -0.0123285 -0.00672265 -0.00261279 -0.0124142 -0.00776761 -0.000541371 -0.00585134 -0.00109991 -0.0115555 -0.000146984 -0.0124215 -0.0126081 -0.0124546 -0.0122796 -0.0142706 -0.00874008 -0.0149085 -0.0134252 -0.0126933 0.182963 -0.287787 -0.288231 0.0713548 0.123054 0.127119 -0.062987 -0.306144 -0.270082 0.105253 0.0841819 -0.0917009 -0.17707 0.378255 -0.131448 0.285402 0.013307 -0.12006 -0.227564 0.195047 0.435371 0.343232 -0.00504206 -0.00873654 -0.0156028 -0.0139361 -0.014303 -0.00243807 -0.00962644 0.000334906 -0.0110117 -0.0112261 -0.0102177 -0.0137287 -0.0119 -0.0155878 -0.0156961 -0.00149659 -0.00343925 -0.00282278 0.000197086 -0.00531873 -0.00526098 -0.00881989 -0.0156305 -0.0142936 -0.00274673 -0.0079073
weight: 0.344413 0.0194752 0.336289 0.00339672 0.037108 0.0841752 0.352686 0.175828 0.352264 0.228843 0.0759996 0.154373 0.28578 0.179654 0.291639 0.343583 0.333672 0.234398 0.308369 0.332159 0.318129 0.330439 0.349488 0.35293 0.329954 0.347316 0.35079 0.350909 0.351709 0.19386 0.349964 0.329908 0.209184 0.329716 0.330708 0.236151 0.344821 0.248902 0.323381 0.376961 -0.0127675 -0.44896 -0.339262 -0.0553064 -0.438125 0.343678 -0.163667 -0.396199 -0.0891753 -0.390337 0.372634 -0.331932 0.358446 0.409583 -0.574665 0.0018618 0.143661 -0.0448771 0.52558 0.277335 0.344579 0.608715 0.351913 0.154056 0.293465 0.230236 0.315787 0.05048 0.342104 0.348743 0.336875 0.189177 0.340033 0.226731 0.198805 0.294035 0.288654 0.352198 0.352948 0.352974 0.349118 0.351604 0.351671 0.344592 0.270799 0.31588 0.352962 0.346984
weight: -0.108851 -0.00852383 -0.109107 -0.00148834 -0.0161917 -0.0361082 -0.104812 -0.0706792 -0.0998689 -0.0872407 -0.0327269 -0.0632111 -0.101577 -0.0719668 -0.102798 -0.108939 -0.108999 -0.0888098 -0.105919 -0.108909 -0.107417 -0.108784 -0.107669 -0.102266 -0.108747 -0.108358 -0.096904 -0.106915 -0.0986168 -0.0766247 -0.0955526 -0.108743 -0.0814284 -0.108726 -0.108806 -0.0892976 -0.108802 -0.092744 -0.108088 -0.0796042 -0.0368864 -0.134862 -0.00168022 -0.0758671 0.113895 0.161915 0.250374 0.0271597 0.0879578 0.101613 -0.130459 -0.083269 -0.111546 0.153621 -0.390271 -0.122661 -0.106773 0.0951948 -0.0454994 -0.134868 0.093928 -0.147593 -0.106051 -0.0630978 -0.103165 -0.0876376 -0.107084 -0.0219483 -0.109049 -0.0937213 -0.109122 -0.0751109 -0.109128 -0.0866364 -0.0782 -0.10328 -0.102183 -0.0997006 -0.10379 -0.102679 -0.0942662 -0.106365 -0.1063 -0.108831 -0.0982104 -0.107099 -0.102531 -0.108433
weight: -0.0468981 -0.00206009 -0.0432867 -0.000359471 -0.00392039 -0.00883598 -0.0537297 -0.018218 -0.0567143 -0.0238993 -0.00798862 -0.0160206 -0.031407 -0.0186132 -0.0323767 -0.0464677 -0.0423277 -0.024538 -0.0355394 -0.041806 -0.0377703 -0.0412382 -0.0501078 -0.0555652 -0.0410823 -0.0485789 -0.0576313 -0.051347 -0.0571588 -0.0200932 -0.057911 -0.0410684 -0.0217239 -0.041007 -0.0413259 -0.0247413 -0.0471159 -0.0262727 -0.0391403 0.141502 -0.0398421 -0.274508 0.154621 -0.0405171 0.161749 0.225759 0.0238582 0.164533 0.224562 -0.0350911 -0.0717399 -0.203382 -0.0400583 0.2403 -0.0902294 -0.0158899 -0.19304 -0.278033 -0.335367 -0.245285 -0.322145 -0.0918856 -0.0524677 -0.0159886 -0.0326906 -0.0240581 -0.0372014 -0.00532555 -0.0457444 -0.0581799 -0.0435111 -0.0196027 -0.044807 -0.0236597 -0.0206147 -0.0327911 -0.0318748 -0.0567796 -0.0545657 -0.0553184 -0.0581131 -0.0520881 -0.0521668 -0.0469928 -0.0291543 -0.0372239 -0.0554095 -0.0483696
weight: -0.099137 -0.00719947 -0.0996623 -0.00125637 -0.0136974 -0.0308093 -0.0949035 -0.0621469 -0.0903033 -0.0782728 -0.0278706 -0.0551345 -0.0927083 -0.0633717 -0.0939246 -0.0992546 -0.0996283 -0.079841 -0.0969707 -0.099578 -0.0983605 -0.0994966 -0.0977771 -0.0925024 -0.0994696 -0.0985369 -0.0876345 -0.096987 -0.089171 -0.0678433 -0.0864304 -0.0994663 -0.0725223 -0.099456 -0.0995119 -0.0803297 -0.0990727 -0.0837946 -0.0989482 -0.236792 -0.0365106 0.565086 0.140041 -0.214393 0.0108032 -0.112509 -0.252463 0.351523 0.216098 -0.169272 0.157038 0.337722 0.278371 -0.296784 0.285798 -0.0167195 0.0535229 0.0116323 -0.194663 -0.143568 -0.000609719 0.0227265 -0.0961155 -0.0550296 -0.0942903 -0.0786691 -0.0980588 -0.0186009 -0.0994162 -0.0848122 -0.0996605 -0.0663833 -0.0995664 -0.0776703 -0.0693706 -0.0944028 -0.0933129 -0.0901516 -0.0939284 -0.0928859 -0.0852933 -0.0964303 -0.0963653 -0.0991091 -0.0893192 -0.0980715 -0.0927488 -0.0986258
weight: -0.0263399 -0.00168396 -0.0245984 -0.00029444 -0.00318721 -0.00696934 -0.0294112 -0.0128613 -0.0304376 -0.0155835 -0.00634397 -0.0116591 -0.0189249 -0.0130668 -0.01937 -0.0261348 -0.0241327 -0.0158687 -0.0208517 -0.0238784 -0.0219197 -0.023602 -0.0278396 -0.0300986 -0.0235263 -0.0271331 -0.030574 -0.0283972 -0.0305277 -0.0138111 -0.0305549 -0.023519 -0.0145908 -0.0234894 -0.0236448 -0.0159588 -0.0264439 -0.0166347 -0.0225817 -0.307396 0.00794084 -0.366467 0.160519 0.184172 -0.00643619 -0.0966154 0.0984585 -0.0760705 0.0119327 0.220644 -0.0724061 0.388041 0.0204094 0.1418 -0.204161 -0.131471 -0.00781582 0.0034693 0.235168 0.149789 -0.0724916 -0.153709 -0.0288856 -0.0116408 -0.0195147 -0.0156551 -0.0216457 -0.0043022 -0.0257875 -0.0304602 -0.0247081 -0.0135684 -0.0253356 -0.0154764 -0.0140646 -0.0195612 -0.0191389 -0.0304525 -0.0297389 -0.0300141 -0.030496 -0.028722 -0.0287561 -0.0263852 -0.0179092 -0.0216564 -0.0300454 -0.0270359
weight: 0.0572268 0.0025608 0.0549816 0.000446373 0.00488716 0.0111873 0.0599265 0.024273 0.0602555 0.0327502 0.0100799 0.02107 0.0432764 0.0248563 0.0444885 0.0569887 0.054289 0.0336987 0.0481326 0.0538943 0.0504042 0.0534501 0.0587565 0.06023 0.0533261 0.0580819 0.0601003 0.0592281 0.0602094 0.0270553 0.0599861 0.0533147 0.0294967 0.0532649 0.0535198 0.0340006 0.0573445 0.0362424 0.0516777 0.0839942 0.00994234 0.069451 -0.234549 -0.0268251 -0.0625624 0.09945 0.235689 0.0159672 -0.139989 -0.0737164 -0.0580604 -0.0708533 -0.0464361 -0.184549 0.0968298 0.115217 0.0342415 0.179605 0.114013 -0.0114414 0.114487 0.0239418 0.0595926 0.0210238 0.0448729 0.0329867 0.0498486 0.00666066 0.0565706 0.0598026 0.0551383 0.0263244 0.0559959 0.0323935 0.0278351 0.0449934 0.043867 0.0602514 0.0600957 0.0602044 0.0598605 0.0594764 0.059501 0.0572784 0.0403056 0.0498709 0.060214 0.0579819
weight: -0.21276 -0.0113224 -0.205843 -0.00197492 -0.0215696 -0.0488914 -0.222828 -0.102296 -0.226322 -0.134048 -0.0441483 -0.0897045 -0.170066 -0.104554 -0.173953 -0.212004 -0.203766 -0.137453 -0.18532 -0.202589 -0.192195 -0.201268 -0.217909 -0.225025 -0.200899 -0.21556 -0.227344 -0.219689 -0.226817 -0.112972 -0.227666 -0.200865 -0.122135 -0.200719 -0.201473 -0.138531 -0.213136 -0.146438 -0.195998 -0.418509 0.0447973 0.069057 0.204666 0.0785913 0.306535 -0.0584205 -0.107302 0.396436 -0.0334413 0.220698 -0.0716121 0.260308 -0.271474 -0.283304 -0.288387 0.0476934 -0.100881 -0.116905 -0.400273 -0.128564 -0.0400829 -0.356638 -0.221207 -0.0895198 -0.175172 -0.1349 -0.190525 -0.0293365 -0.210691 -0.227998 -0.206312 -0.11019 -0.208917 -0.132759 -0.115919 -0.175554 -0.171966 -0.226394 -0.223849 -0.224738 -0.22791 -0.220702 -0.220808 -0.212925 -0.16031 -0.190591 -0.224843 -0.215224
weight: -0.10161 -0.00520998 -0.0963972 -0.000908947 -0.00991963 -0.022412 -0.111619 -0.0463078 -0.116969 -0.0602022 -0.0202527 -0.0407486 -0.076464 -0.0472998 -0.0783381 -0.100997 -0.0949769 -0.0616953 -0.0841011 -0.0941956 -0.0878691 -0.0933363 -0.106194 -0.114713 -0.0931 -0.104004 -0.119226 -0.107997 -0.117981 -0.0509901 -0.120116 -0.0930783 -0.0549947 -0.0929847 -0.0934692 -0.0621684 -0.10192 -0.0656591 -0.0900796 -0.199248 -0.05297 0.289142 0.109299 0.128448 0.133541 -0.374699 0.0295603 0.158325 0.146033 0.110508 -0.0564518 0.111234 -0.0917023 -0.262471 0.12985 -0.124478 0.0312155 -0.287375 -0.108199 -0.112591 -0.111616 -0.216053 -0.109665 -0.0406668 -0.0789353 -0.0605757 -0.0869283 -0.0134826 -0.0999603 -0.121215 -0.0967274 -0.0497718 -0.0986118 -0.059638 -0.0522787 -0.0791231 -0.0773752 -0.11711 -0.112977 -0.11427 -0.120899 -0.109095 -0.109214 -0.101746 -0.0719044 -0.0869656 -0.114431 -0.103706
weight: 0.101328 0.00565692 0.100013 0.000986397 0.0107858 0.0245591 0.100886 0.0520859 0.0989246 0.0685838 0.0221545 0.0455314 0.0863794 0.0532628 0.0881533 0.101227 0.0994787 0.0703311 0.0930488 0.0991536 0.0957239 0.09877 0.101624 0.099907 0.0986603 0.101585 0.0977103 0.101513 0.0984087 0.0576527 0.0971679 0.0986501 0.0624222 0.0986055 0.0988316 0.0708826 0.101374 0.0748971 0.0970799 0.119999 -0.360522 0.355687 -0.0209703 0.021083 -0.0459563 -0.00965371 -0.0822389 0.209976 0.0636839 0.169736 0.110284 -0.304453 0.245845 0.0873369 0.0599882 -0.0224736 -0.0606187 0.104998 0.152092 -0.150998 -0.170036 -0.0470868 0.101292 0.0454352 0.088701 0.0690218 0.0950984 0.0146839 0.101022 0.0964506 0.100126 0.056202 0.100697 0.0679203 0.0591878 0.0888716 0.0872522 0.0988556 0.100508 0.100073 0.0966627 0.10138 0.101363 0.101349 0.0817599 0.0951237 0.100013 0.101565
weight: -0.0355409 -0.00356842 -0.0366888 -0.000623298 -0.00677203 -0.0150145 -0.0318464 -0.0285309 -0.0287761 -0.0340507 -0.0136272 -0.0257647 -0.0374351 -0.0289945 -0.0375948 -0.0357001 -0.0369261 -0.0345079 -0.0377894 -0.0370439 -0.0376745 -0.0371625 -0.0341253 -0.0301863 -0.0371936 -0.0348534 -0.0271691 -0.0334472 -0.0280815 -0.0306306 -0.0264741 -0.0371965 -0.0322398 -0.037208 -0.0371452 -0.0346473 -0.0354578 -0.0355814 -0.0375179 0.356286 -0.0867811 -0.247389 0.0412253 -0.134668 0.0361656 0.0511594 -0.0488006 -0.472095 0.10604 0.0801091 0.0700547 -0.105995 0.00730322 0.389126 0.159699 0.112664 -0.0123823 -0.0849728 -0.108559 0.0314057 -0.0578206 0.0340811 -0.0327526 -0.0257217 -0.0376358 -0.0341679 -0.0377214 -0.0091691 -0.0359532 -0.0255653 -0.0366292 -0.0301062 -0.0362562 -0.0338706 -0.031168 -0.0376478 -0.0375193 -0.0286817 -0.0311537 -0.0304426 -0.0258329 -0.0329973 -0.032947 -0.0355048 -0.0368472 -0.0377197 -0.0303503 -0.0349448
weight: -0.0891762 -0.00381096 -0.084885 -0.000664226 -0.0072749 -0.016678 -0.0959744 -0.0364236 -0.0984739 -0.0494253 -0.0150216 -0.0315551 -0.0657663 -0.0373123 -0.0676655 -0.0886943 -0.0836463 -0.0508896 -0.0734272 -0.0829538 -0.0770902 -0.0821832 -0.0925613 -0.0975492 -0.0819695 -0.0909942 -0.099155 -0.0937748 -0.098813 -0.0406728 -0.099343 -0.0819499 -0.0444159 -0.0818656 -0.0823034 -0.0513557 -0.0894181 -0.0548246 -0.0791862 -0.0896009 0.217305 0.152403 0.244983 -0.153617 0.22422 -0.0525065 -0.272138 0.19732 0.0376058 0.211475 -0.255436 -0.0744667 -0.0908933 -0.0769049 -0.106496 -0.1119 -0.00140176 -0.271007 -0.0508946 -0.128404 0.0292327 -0.110838 -0.09483 -0.0314848 -0.0682681 -0.0497904 -0.0761861 -0.00991792 -0.0878644 -0.0995008 -0.0851687 -0.0395541 -0.0867597 -0.0488751 -0.0418665 -0.0684579 -0.0666908 -0.0985243 -0.0967044 -0.097344 -0.099464 -0.0944768 -0.0945509 -0.0892823 -0.0611329 -0.0762221 -0.0974197 -0.0907745
weight: -0.0429515 -0.0021803 -0.0421422 -0.000380023 -0.00416173 -0.0095327 -0.0427651 -0.0206194 -0.0412844 -0.0275332 -0.00858811 -0.0179312 -0.0353505 -0.0211054 -0.0361686 -0.042884 -0.041836 -0.0282801 -0.0384965 -0.041653 -0.039831 -0.0414402 -0.0431932 -0.0420687 -0.0413799 -0.0431381 -0.0402061 -0.0431466 -0.040843 -0.0229275 -0.039683 -0.0413743 -0.0249244 -0.04135 -0.0414742 -0.0285164 -0.0429827 -0.0302479 -0.0405322 0.0782263 -0.0064892 0.0736206 0.0376035 0.11611 -0.18265 0.110404 0.149396 -0.0542413 -0.0106643 0.100205 0.00195437 0.150873 -0.0364854 0.0371169 -0.0512283 -0.152499 -0.0165775 -0.130739 -0.12458 0.0373143 0.0390633 0.017352 -0.0430226 -0.017892 -0.0364237 -0.0277203 -0.0395135 -0.00567303 -0.0427525 -0.0389502 -0.0422091 -0.0223237 -0.0425495 -0.0272505 -0.0235682 -0.0365033 -0.0357519 -0.0412271 -0.0425074 -0.0421935 -0.0391716 -0.0430742 -0.043064 -0.0429655 -0.0332642 -0.0395262 -0.0421494 -0.0431219
weight: 0.00214224 -0.0008593 0.000516412 -0.000150604 -0.00161574 -0.00339774 0.00665811 -0.0051409 0.0102451 -0.00486035 -0.00312153 -0.00497788 -0.00334968 -0.0051536 -0.00309502 0.00193064 0.000133015 -0.00477327 -0.00219324 -6.8801e-05 -0.00149306 -0.000283228 0.00393231 0.00860231 -0.000341151 0.00302781 0.0121176 0.00475488 0.011054 -0.00515576 0.012927 -0.000346425 -0.00507955 -0.000369215 -0.000250686 -0.00474318 0.00225148 -0.00449056 -0.00103443 -0.0592217 0.203495 0.198085 -0.131326 0.0645671 0.163362 0.090108 0.0480722 -0.211723 0.0940711 -0.00562963 -0.161733 0.078348 -0.212936 0.154619 -0.212323 -0.00336354 0.0197357 -0.0214408 -0.00950154 0.00785198 -0.051067 0.0568484 0.00558662 -0.00497441 -0.00300995 -0.00483951 -0.0016772 -0.00216409 0.00158689 0.0139864 0.000608441 -0.0051628 0.00116201 -0.0048905 -0.00513996 -0.0029828 -0.00322839 0.0103552 0.00747102 0.00830268 0.013675 0.00529413 0.00535476 0.00218966 -0.00389725 -0.00167005 0.00841113 0.00291185
weight: -0.000164386 -0.000157422 -0.000338906 -2.77345e-05 -0.000291893 -0.000563963 0.000904212 -0.00054352 0.00208209 -0.000297673 -0.000528665 -0.000612965 -0.000197505 -0.000528083 -0.000212518 -0.000195254 -0.000356735 -0.000273666 -0.000284641 -0.000362866 -0.000334398 -0.000366464 0.000177956 0.00151956 -0.000366954 -1.16532e-05 0.00275313 0.000375806 0.00236892 -0.000465068 0.00305081 -0.000366961 -0.000391048 -0.000367131 -0.00036602 -0.000266682 -0.000147477 -0.000221176 -0.00035648 -0.0145144 -0.143973 0.103824 0.0214485 -0.054346 -0.118112 -0.0944199 -0.0189647 -0.00936922 -0.0524897 0.0046366 0.267505 0.0870871 0.183096 -0.229324 0.291831 -0.0334436 0.099937 -0.107094 0.0332982 0.0495479 0.0220115 -0.0649581 0.000595766 -0.00061363 -0.000218958 -0.00029156 -0.000323427 -0.000384466 -0.000240398 0.00344398 -0.000333091 -0.000486661 -0.000287662 -0.000307075 -0.000441626 -0.000220962 -0.000204576 0.00212087 0.00115377 0.00142127 0.00332786 0.00051632 0.000532383 -0.000157141 -0.000183245 -0.000323467 0.0014567 -3.39548e-05
weight: -0.00757979 -0.00207934 -0.0104724 -0.000363436 -0.00393901 -0.00864294 -0.000132193 -0.0156461 0.00524377 -0.0176256 -0.00786345 -0.0143509 -0.0169509 -0.0158504 -0.0166236 -0.00795026 -0.0111656 -0.017712 -0.0152654 -0.0115309 -0.0140783 -0.0119185 -0.00452277 0.00283334 -0.0120232 -0.00604915 0.00788664 -0.00316583 0.00639929 -0.0165311 0.00899375 -0.0120328 -0.01712 -0.012074 -0.0118596 -0.0177341 -0.00738901 -0.0178048 -0.0132689 1.10047 -0.0420155 -0.0498088 -0.0290934 -0.0296098 -0.110756 -0.0102103 -0.0388312 -0.0436326 0.00284646 -0.113139 0.208443 -0.46238 0.188236 0.203239 0.18916 0.0962189 -0.0491372 0.0316679 -0.167742 -0.0188635 -0.085367 0.058552 -0.00182282 -0.0143302 -0.0165082 -0.0176499 -0.0143976 -0.00532205 -0.00855699 0.0104127 -0.0103056 -0.0163208 -0.00931286 -0.0175859 -0.0167386 -0.0164708 -0.0167992 0.00540199 0.00112365 0.00238543 0.00999983 -0.00229195 -0.0021941 -0.00749684 -0.0175196 -0.014385 0.00254736 -0.00624691
weight: 0.13886 0.00584943 0.130779 0.00101987 0.0111561 0.0254518 0.153622 0.0547806 0.161091 0.0739143 0.0229483 0.0476203 0.0987448 0.0560856 0.101743 0.137922 0.128539 0.0760867 0.111044 0.1273 0.117145 0.125933 0.145749 0.157978 0.125556 0.142484 0.164148 0.1484 0.162469 0.0610182 0.165335 0.125521 0.0665185 0.125372 0.126145 0.0767804 0.139333 0.0819668 0.120713 0.778688 -0.066669 0.241312 -0.0872104 -0.214239 -0.140812 0.0163386 -0.217276 -0.220436 -0.0206374 -0.108512 -0.0319372 -0.915273 0.0382062 -0.0531583 -0.304959 -0.00412188 0.0330507 0.227748 0.0724002 0.27917 0.245635 0.274376 0.15082 0.0475165 0.102701 0.0744552 0.115624 0.0151933 0.13633 0.166783 0.131298 0.0593762 0.134242 0.0730989 0.0627711 0.103003 0.1002 0.161283 0.155546 0.157359 0.166369 0.149996 0.150169 0.139067 0.091546 0.115684 0.157585 0.142037
weight: 0.0289321 -0.00143248 0.0226792 -0.000251042 -0.0026939 -0.00565072 0.0422155 -0.00777181 0.0501263 -0.00511691 -0.00519718 -0.0078874 0.00351965 -0.00770101 0.0049426 0.0281734 0.0210537 -0.00459306 0.00984717 0.0201733 0.013462 0.0192188 0.0347962 0.0467128 0.0189584 0.0319506 0.0536621 0.0372013 0.0516974 -0.00728958 0.0550894 0.0189337 -0.00655863 0.0188315 0.0193653 -0.00441642 0.0293183 -0.00294815 0.01572 -0.00849444 0.450939 -0.358596 -0.015626 -0.0240969 -0.0308221 0.141972 0.0844229 -0.231358 0.100987 -0.0254509 0.0936072 -0.149196 0.048262 0.344179 0.168919 -0.101699 -0.017394 -0.00710566 0.0279731 -0.0174291 -0.101486 0.0650129 0.0394781 -0.00788578 0.00541351 -0.00499084 0.0125315 -0.00360799 0.0269058 0.056874 0.0230621 -0.00745191 0.025282 -0.00530174 -0.00708793 0.00556349 0.00420002 0.0503441 0.0441639 0.0460554 0.0563583 0.0386938 0.0388579 0.0291002 0.000429536 0.0125676 0.0462935 0.0315704
weight: 0.0138981 0.000618722 0.0144906 0.000107253 0.00119815 0.00295048 0.0122643 0.00763895 0.01146 0.0109003 0.00261808 0.00639288 0.014 0.0078684 0.0142326 0.0139805 0.014605 0.0112393 0.0147201 0.0146591 0.0148367 0.0147103 0.0131979 0.0117615 0.0147228 0.0135492 0.0112613 0.0128927 0.0113551 0.00873319 0.011224 0.0147239 0.00968222 0.0147288 0.0147027 0.0113458 0.0138554 0.0121036 0.0148276 0.00589369 0.862298 0.13859 -0.0303298 -0.224693 -0.0689611 0.0994646 0.125287 0.172948 -0.082421 -0.170012 0.138715 0.151084 -0.698977 -0.525039 0.255015 -0.0593437 -0.0128365 0.0546128 -0.00813161 0.0178194 0.15607 -0.156202 0.012603 0.00637533 0.0142998 0.0109854 0.0148233 0.00165996 0.0141127 0.0112191 0.0144606 0.0084461 0.0142703 0.0107704 0.00903847 0.0143198 0.0141176 0.011444 0.0120354 0.0118288 0.0112154 0.0127022 0.0126819 0.0138795 0.0133031 0.0148241 0.0118041 0.0135948
weight: 0.0269993 0.000766501 0.0248672 0.000133317 0.00147153 0.00347803 0.0317068 0.00840086 0.0348768 0.0121946 0.0031116 0.00708865 0.0174973 0.00864702 0.0181547 0.0267405 0.0243082 0.0126457 0.0202197 0.0240039 0.0216047 0.0236714 0.029022 0.0334573 0.0235807 0.0280339 0.0364536 0.0298715 0.0355624 0.00959628 0.0371267 0.0235721 0.0106857 0.0235361 0.0237227 0.0127904 0.0271311 0.0138821 0.0224316 -0.130704 -0.260064 0.527138 -0.0625765 0.0367773 -0.148069 0.0304851 -0.0446249 0.0408857 0.0649359 0.0496837 0.0598734 0.193362 0.0333314 -0.0276038 0.207705 -0.0158874 0.10956 0.0340923 0.0371012 0.0881591 -0.020912 -0.0259298 0.0306929 0.00707022 0.0183655 0.0123066 0.0212567 0.00201926 0.026309 0.0380024 0.0249984 0.00927717 0.0257559 0.0120261 0.00994029 0.0184319 0.0178158 0.0349701 0.032451 0.0331937 0.0377455 0.0304076 0.0304673 0.0270567 0.0159326 0.0212701 0.0332887 0.0279031
weight: 0.0142092 0.00126709 0.0143505 0.000221302 0.00240539 0.00534283 0.0133591 0.0102522 0.0122343 0.0123751 0.004847 0.00922824 0.0138956 0.0104251 0.0140006 0.0142335 0.0143666 0.0125611 0.014239 0.0143715 0.0143306 0.0143746 0.0139456 0.0128019 0.0143748 0.0140914 0.0114757 0.0137918 0.0119208 0.0110426 0.0111106 0.0143749 0.0116604 0.0143751 0.0143746 0.012618 0.0141959 0.0130088 0.0143613 0.0584321 0.172977 1.33584 -0.0805209 0.0227155 -0.0885236 -0.180862 0.134547 -0.0652921 -0.036557 -0.0160403 -0.140591 -0.0810038 -0.135351 -0.60145 0.221442 0.102722 -0.00168154 0.156197 0.0775716 0.0710924 -0.15314 0.0994422 0.0136161 0.00921241 0.0140309 0.0124227 0.0143121 0.00325799 0.0142694 0.0105982 0.0143455 0.0108437 0.0143072 0.0123028 0.0112474 0.0140403 0.0139484 0.0121931 0.0131407 0.0128954 0.010753 0.0136805 0.013667 0.0142037 0.0135813 0.0143131 0.0128617 0.0141084
weight: -0.0666803 -0.0045763 -0.0671767 -0.000798368 -0.0087135 -0.019685 -0.0636288 -0.0403794 -0.0610726 -0.0515557 -0.0177898 -0.0356528 -0.0620572 -0.0412125 -0.0629685 -0.06678 -0.0671759 -0.0526689 -0.0652595 -0.0671507 -0.0662967 -0.0671028 -0.0656086 -0.0622061 -0.0670851 -0.066193 -0.0599009 -0.0650318 -0.0605494 -0.0442736 -0.0594377 -0.0670839 -0.047514 -0.0670761 -0.0671106 -0.0530181 -0.0666266 -0.0555061 -0.0667248 0.202029 -0.212949 -0.428821 0.270921 -0.111072 0.437946 -0.0815465 -0.108895 0.0142858 0.0638283 0.0765437 -0.0307236 -0.26978 0.168584 0.282913 -0.771908 -0.0954402 -0.125374 0.0254121 -0.255716 -0.0424916 -0.0416815 0.0460371 -0.0644248 -0.0355823 -0.0632433 -0.0518361 -0.0660742 -0.0118436 -0.0669217 -0.0588756 -0.0671691 -0.0432704 -0.0670615 -0.0511286 -0.0453269 -0.0633279 -0.0625106 -0.0609999 -0.0630263 -0.0624205 -0.0590361 -0.06464 -0.0645957 -0.0666574 -0.0595398 -0.0660828 -0.0623421 -0.0662618
weight: 0.0824486 0.00344412 0.0788554 0.000599933 0.00658499 0.0152187 0.0875125 0.0339286 0.0887172 0.046375 0.0136837 0.0292651 0.0617282 0.0347812 0.0634794 0.082054 0.0777918 0.0477679 0.0687376 0.0771928 0.0720306 0.0765238 0.0851225 0.0883806 0.0763378 0.0839094 0.0887422 0.0860216 0.0887718 0.0380049 0.08865 0.0763204 0.0415917 0.0762467 0.0766282 0.0482107 0.0826452 0.0514973 0.0738922 0.0215736 0.0458869 0.00634679 0.363494 0.00178436 -0.156278 0.0111745 -0.118832 -0.0313192 0.021873 -0.217907 0.132662 -0.117048 0.0205639 0.0496948 -0.108529 0.134766 0.0560521 0.157898 -0.0107741 0.0371511 0.0596787 -0.404507 0.0867647 0.0291979 0.0640333 0.0467228 0.0712215 0.00899345 0.0813687 0.0884453 0.0790977 0.0369318 0.0804454 0.0458511 0.0391495 0.0642075 0.0625818 0.088729 0.0879455 0.0882829 0.0885152 0.0865208 0.0865728 0.0825349 0.0574233 0.0712536 0.0883194 0.0837347
weight: 0.345035 0.0156298 0.330014 0.00272465 0.0298221 0.0681856 0.368915 0.147351 0.37862 0.198187 0.0614508 0.128044 0.260443 0.150861 0.267537 0.343354 0.325643 0.20384 0.288839 0.323191 0.302185 0.320457 0.356825 0.37482 0.319697 0.351364 0.381948 0.361075 0.380175 0.164084 0.383118 0.319627 0.178728 0.319325 0.320882 0.205639 0.345878 0.218973 0.309744 0.484364 -0.325428 -0.412754 -0.682047 -0.21595 -0.298995 0.225327 -0.446267 -0.357989 -0.0519996 -0.216543 0.318107 -0.223862 0.296589 0.249777 0.508563 0.0729103 0.00572782 0.559594 0.462738 0.478755 0.452502 0.507047 0.364804 0.127764 0.269781 0.199597 0.298905 0.0406343 0.34046 0.38444 0.331013 0.15969 0.336597 0.196057 0.168764 0.270488 0.263901 0.378843 0.371601 0.374022 0.384074 0.363552 0.363816 0.345402 0.242996 0.299036 0.374313 0.350598
weight: 0.0900662 0.00876339 0.0945677 0.00153007 0.0166496 0.0371525 0.0765924 0.0724336 0.0659436 0.0882034 0.0336705 0.0649298 0.0985993 0.0737126 0.099067 0.0906768 0.0955343 0.0895749 0.0994393 0.0960214 0.0987772 0.0965176 0.0847721 0.0707964 0.0966476 0.0874692 0.0604767 0.0823042 0.0635727 0.0782836 0.0581343 0.0966598 0.0828816 0.0967098 0.0964437 0.0899951 0.0897493 0.0928457 0.0980515 0.0278978 0.193641 -0.171652 -0.227035 0.75962 -0.0791228 0.0253767 0.181692 -0.102261 -0.18301 -0.0136399 -0.0676193 -0.234918 -0.20505 0.016296 0.0202689 0.123914 0.0331537 -0.0429476 0.160835 -0.0792627 -0.114065 0.247291 0.0798069 0.0648153 0.0991826 0.0885531 0.0990108 0.0225731 0.0916566 0.0550868 0.0943276 0.0768082 0.0928413 0.0876659 0.0798071 0.0992149 0.0988499 0.0656212 0.0741622 0.0716844 0.0559806 0.0806847 0.0805025 0.0899292 0.0967815 0.099002 0.0713644 0.0878108
weight: -0.1108 -0.00671297 -0.109371 -0.00117063 -0.0127967 -0.029094 -0.112457 -0.061044 -0.113256 -0.0792134 -0.0262556 -0.0535685 -0.0971812 -0.0623739 -0.0988405 -0.110659 -0.108879 -0.0810658 -0.103277 -0.108588 -0.105613 -0.10825 -0.111677 -0.112891 -0.108154 -0.111293 -0.113706 -0.111955 -0.113446 -0.067293 -0.113915 -0.108144 -0.0725582 -0.108105 -0.108303 -0.0816476 -0.110869 -0.0858277 -0.106784 -0.144379 0.207747 -0.0517742 0.170784 0.0917571 0.108074 -0.052103 0.0773728 0.137421 -0.0799774 -0.00909157 -0.0356734 0.188187 -0.204055 0.110078 -0.389021 -0.161515 0.0213384 -0.346011 -0.155714 -0.177379 0.0254813 -0.105603 -0.112193 -0.0534581 -0.0993481 -0.0796792 -0.105072 -0.0174168 -0.110406 -0.114201 -0.109479 -0.0656746 -0.110046 -0.0785055 -0.0689973 -0.0995059 -0.0980024 -0.113282 -0.112643 -0.112825 -0.114116 -0.112112 -0.11213 -0.11083 -0.0927327 -0.105093 -0.112849 -0.111236
weight: 0.134867 0.00865618 0.131913 0.00151068 0.016466 0.0370084 0.138359 0.0747265 0.138489 0.0947674 0.0334832 0.0662294 0.114806 0.0762195 0.116794 0.134554 0.130994 0.0967887 0.122422 0.130469 0.125697 0.129876 0.136874 0.138639 0.129709 0.13599 0.137957 0.137487 0.138304 0.0816976 0.137623 0.129693 0.0874968 0.129628 0.129969 0.0974226 0.135021 0.101995 0.127469 0.146862 0.10753 0.054576 -0.167881 -0.269738 0.233194 -0.313399 -0.514014 -0.0831122 -0.0347758 0.0516522 -0.0277014 -0.0865804 -0.023666 -0.282572 0.0783232 0.139608 0.0217342 0.311789 0.238313 0.112124 0.167359 0.139796 0.137954 0.0661029 0.11741 0.0952759 0.12491 0.0223564 0.134005 0.137094 0.132121 0.0799028 0.13325 0.093996 0.0835814 0.117603 0.115782 0.138468 0.138543 0.13863 0.137259 0.137805 0.137838 0.134935 0.10967 0.124941 0.138633 0.135858
weight: -0.0210058 -0.00121475 -0.0202676 -0.000212342 -0.00230089 -0.00505919 -0.0218087 -0.00971801 -0.0220391 -0.0123776 -0.00459863 -0.00868488 -0.0159693 -0.00990246 -0.0164137 -0.0209311 -0.0200277 -0.0126816 -0.0177708 -0.0198892 -0.0186196 -0.019732 -0.0214652 -0.0219433 -0.0196878 -0.0212673 -0.0221593 -0.0216008 -0.0220881 -0.0105909 -0.0222194 -0.0196837 -0.0113516 -0.0196658 -0.0197564 -0.0127791 -0.0210427 -0.013515 -0.0190899 -0.150286 0.0955433 -0.109902 0.0581417 0.103169 0.416198 0.0907724 0.022836 -0.273489 -0.0873134 -0.0960495 0.102789 0.0163639 -0.217677 0.196566 0.158243 -0.070759 -0.111718 -0.0942757 -0.0216903 0.13486 0.0126533 -0.0555026 -0.0217056 -0.0086695 -0.0165556 -0.012453 -0.0184126 -0.00310892 -0.020797 -0.02231 -0.0203213 -0.0103627 -0.0206094 -0.0122639 -0.0108337 -0.0165999 -0.0161853 -0.0220458 -0.0218703 -0.0219253 -0.0222818 -0.021672 -0.0216792 -0.021022 -0.014905 -0.0184207 -0.0219318 -0.0212368
weight: -0.108292 -0.00523697 -0.105952 -0.000912605 -0.0100018 -0.0229807 -0.10888 -0.0502872 -0.106401 -0.0677673 -0.0206894 -0.0435888 -0.0879737 -0.051504 -0.0901131 -0.108081 -0.10511 -0.0696777 -0.0962225 -0.104613 -0.0997458 -0.104037 -0.109272 -0.107741 -0.103874 -0.108939 -0.104567 -0.109344 -0.105644 -0.0560811 -0.103694 -0.103859 -0.0611274 -0.103794 -0.104128 -0.0702834 -0.108393 -0.0747326 -0.101607 0.236164 0.31212 0.281137 -0.0240468 -0.107158 0.00284164 -0.0777755 0.0424225 0.278726 0.133202 -0.072932 -0.00662449 -0.209691 -0.248685 0.130782 -0.169866 0.000326752 0.0151358 -0.0787135 -0.318833 -0.223082 0.0951607 0.282765 -0.109238 -0.0434915 -0.0907806 -0.068245 -0.0989061 -0.0136427 -0.107684 -0.10249 -0.106135 -0.0545621 -0.107095 -0.0670452 -0.0576975 -0.0909892 -0.0890228 -0.106303 -0.108472 -0.10795 -0.102852 -0.109293 -0.109284 -0.108337 -0.0825377 -0.0989397 -0.107875 -0.108874
weight: -0.0221526 -0.00355772 -0.0251954 -0.000621516 -0.00674908 -0.0149254 -0.0154528 -0.0278666 -0.0114734 -0.032267 -0.0135551 -0.0253317 -0.0326266 -0.0282788 -0.0322796 -0.0225282 -0.0259617 -0.0325388 -0.0307181 -0.026371 -0.0293153 -0.0268096 -0.0192135 -0.0131817 -0.0269285 -0.0206466 -0.00972783 -0.0179963 -0.010694 -0.0296917 -0.00903351 -0.0269395 -0.0309907 -0.0269863 -0.0267426 -0.0326159 -0.0219613 -0.0330383 -0.0283654 -0.373031 -0.0801679 0.0282424 0.117677 -0.00144226 -0.0945228 1.40307 -0.239679 -0.252227 0.0587058 -0.011609 -0.0834377 0.243602 0.0908463 -0.169764 0.045815 -0.0256398 0.0547124 -0.0511248 -0.100721 0.0745817 -0.153976 -0.170709 -0.0168413 -0.0252918 -0.0321527 -0.0323393 -0.0296922 -0.00913367 -0.0231527 -0.00817432 -0.0250138 -0.029247 -0.0239451 -0.0321531 -0.0301376 -0.0321109 -0.0324689 -0.0113653 -0.0144665 -0.013512 -0.00842055 -0.0172392 -0.0171555 -0.0220691 -0.0331282 -0.0296781 -0.0133922 -0.0208373
weight: 0.113193 0.00855563 0.113194 0.00149331 0.0162693 0.0364871 0.111052 0.072698 0.108572 0.0905415 0.0330292 0.0647337 0.105722 0.0740784 0.106963 0.113232 0.113063 0.0922318 0.110066 0.112967 0.111515 0.112839 0.112572 0.109753 0.1128 0.112941 0.107165 0.112166 0.107971 0.0790858 0.106543 0.112797 0.0842672 0.112781 0.11286 0.0927568 0.113169 0.0964524 0.11216 0.409356 -0.0108792 -0.306157 -0.224526 -0.18245 -0.0167401 0.805981 -0.15591 -0.145014 -0.198772 -0.164617 0.083769 -0.372149 -0.174566 0.35248 -0.222507 -0.00865991 -0.104075 0.0914986 0.16107 0.071691 0.208181 0.296496 0.111704 0.0646137 0.107335 0.090969 0.111196 0.0220802 0.113275 0.105716 0.113217 0.0774561 0.113286 0.0898895 0.0807838 0.107449 0.106341 0.108492 0.110524 0.10996 0.10596 0.111871 0.111837 0.113182 0.102239 0.11121 0.109885 0.112981
weight: 0.119225 0.00558171 0.114472 0.000972994 0.0106512 0.0243635 0.126914 0.0526141 0.130338 0.0705073 0.0219554 0.0457474 0.0918086 0.0538588 0.0941791 0.118694 0.113085 0.0724746 0.101217 0.112305 0.105563 0.111434 0.122972 0.128947 0.111191 0.12123 0.131661 0.124339 0.130939 0.0585389 0.132165 0.111168 0.0636982 0.111072 0.111569 0.073099 0.119492 0.07771 0.108002 0.119138 0.0120905 0.0123141 -0.190525 -0.00856147 -0.0943901 -0.197921 0.018315 -0.0598822 0.0484132 -0.105183 0.162094 0.0129785 0.227047 -0.274983 0.159553 0.0940362 0.0128396 0.0933097 0.186578 0.0628532 0.156927 0.282039 0.125553 0.0456473 0.0949265 0.070999 0.104499 0.0145144 0.117779 0.132775 0.11479 0.0569856 0.116557 0.0697653 0.0601906 0.0951612 0.0929655 0.130422 0.127825 0.128665 0.132601 0.125143 0.125229 0.119342 0.0859255 0.104542 0.128767 0.120987
weight: -0.0443946 -0.00190868 -0.0417105 -0.000332922 -0.00363625 -0.0082463 -0.0489501 -0.0174152 -0.0508659 -0.0232835 -0.00744499 -0.0152096 -0.0310852 -0.0178158 -0.0320544 -0.0440865 -0.0409581 -0.0239537 -0.0351027 -0.0405418 -0.0371321 -0.0400817 -0.0466044 -0.050115 -0.039955 -0.0455697 -0.0515213 -0.0474211 -0.0511722 -0.0193278 -0.0517503 -0.0399432 -0.0210125 -0.0398931 -0.0401534 -0.024168 -0.0445492 -0.0257764 -0.0383274 -0.175989 -0.106274 0.108868 0.0601636 -0.038748 0.000904162 -0.169422 1.26395 -0.197258 0.00392449 -0.0293677 -0.0788518 0.0690487 -0.0171863 -0.0551943 -0.152645 -0.0584547 -0.026794 -0.115916 -0.0643182 -0.00611259 -0.0867737 -0.0442487 -0.0481454 -0.0151775 -0.0323655 -0.0234506 -0.036624 -0.00494592 -0.0435609 -0.0520087 -0.0418845 -0.0188246 -0.0428679 -0.0230328 -0.0198645 -0.032464 -0.0315552 -0.0509099 -0.049479 -0.0499572 -0.0519374 -0.0479012 -0.0479523 -0.0444622 -0.0287847 -0.0366441 -0.0500147 -0.0454265
weight: 0.00057216 -0.00210209 -0.00449471 -0.000367517 -0.00397925 -0.00869706 0.0136591 -0.0155162 0.0229472 -0.0171717 -0.00791964 -0.0142944 -0.0154346 -0.015705 -0.0148846 -8.05671e-05 -0.00569584 -0.0172037 -0.0126359 -0.00632631 -0.0106576 -0.00699363 0.00596038 0.0188022 -0.00717227 0.00326911 0.0274605 0.00834862 0.0249238 -0.0163201 0.0293462 -0.0071891 -0.0168201 -0.00725901 -0.00689198 -0.0172069 0.00090774 -0.0171203 -0.00929456 0.112445 -0.0808973 0.221717 -0.00376298 -0.111777 -0.0843288 0.00219162 0.343452 -0.187214 -0.0284524 -0.160584 0.0952778 0.0371668 0.00636204 -0.284252 -0.379042 -0.126078 -0.0716119 0.192345 0.0434777 0.185107 0.255049 0.133977 0.0107048 -0.0142742 -0.014693 -0.0171828 -0.0111922 -0.00537186 -0.00114694 0.0317583 -0.00420423 -0.0161328 -0.00247106 -0.017151 -0.0165012 -0.0146304 -0.0151789 0.0232185 0.0158424 0.0180286 0.0310556 0.00988205 0.0100532 0.000718369 -0.0164343 -0.0111714 0.0183072 0.00292067
weight: -0.0593987 -0.0029357 -0.0546645 -0.000512382 -0.00558327 -0.0125343 -0.0702241 -0.0252731 -0.077002 -0.0323233 -0.0113431 -0.0223903 -0.0408956 -0.0257825 -0.0419763 -0.0588113 -0.0534722 -0.0330795 -0.0455192 -0.0528325 -0.0480603 -0.0521434 -0.0640586 -0.0740643 -0.0519558 -0.0617712 -0.0800352 -0.0660279 -0.0783521 -0.0276665 -0.0812491 -0.0519384 -0.0296948 -0.0518649 -0.0522491 -0.0333192 -0.0596989 -0.0351005 -0.0496501 -0.132721 0.0613836 -0.290027 0.0554707 0.137251 -0.006016 0.060299 -0.18225 0.636007 -0.19729 0.13194 -0.181639 0.0512389 -0.0979415 0.263587 0.109301 0.0320756 0.00453687 -0.38 -0.0596517 -0.348478 -0.148483 -0.139922 -0.0679202 -0.0223475 -0.0423262 -0.0325126 -0.0474067 -0.00757862 -0.057838 -0.0827522 -0.0549482 -0.0270464 -0.0566058 -0.0320384 -0.0283206 -0.0424379 -0.0414169 -0.0771894 -0.0718808 -0.0735002 -0.0823198 -0.0672647 -0.0674014 -0.0595291 -0.0383765 -0.0474325 -0.0737043 -0.0614694
weight: 0.0235084 0.000634603 0.02253 0.000110104 0.00122622 0.00299551 0.0250884 0.00789879 0.0259652 0.011907 0.00266122 0.00653464 0.0171948 0.00815731 0.0177874 0.023401 0.0222344 0.0123801 0.0195167 0.0220659 0.0205475 0.021876 0.0242594 0.0255775 0.0218228 0.0239103 0.0264011 0.0245376 0.0261535 0.00915884 0.0265915 0.0218178 0.0103132 0.0217967 0.0219057 0.0125313 0.0235619 0.0136613 0.0211095 0.0229942 -0.120504 -0.0364158 -0.00388823 -0.0740779 -0.0590853 -0.0982876 -0.125655 1.47316 -0.0326268 -0.160872 0.0109512 -0.0285001 0.209141 -0.00364632 -0.252106 -0.0110466 -0.042459 -0.0600725 0.0464267 -0.46854 0.0118977 0.0958123 0.0247909 0.00651557 0.0179738 0.0120246 0.0202986 0.001695 0.0232156 0.0268439 0.0225968 0.00882149 0.0229651 0.0117297 0.00952302 0.018032 0.0174845 0.025991 0.0252989 0.0255049 0.026769 0.0247044 0.0247228 0.0235318 0.0157153 0.0203087 0.0255311 0.0238616
weight: -0.0882108 -0.00464136 -0.0874475 -0.000808903 -0.00886152 -0.020324 -0.0857044 -0.044088 -0.0816978 -0.0588493 -0.0183052 -0.0383217 -0.0751161 -0.0451298 -0.0767552 -0.0881874 -0.0870291 -0.0604316 -0.0812823 -0.0867629 -0.0837375 -0.0864408 -0.0877741 -0.0836515 -0.0863473 -0.0881206 -0.0793206 -0.0872856 -0.0806865 -0.0490313 -0.0782598 -0.0863386 -0.0532983 -0.0863012 -0.0864929 -0.0609314 -0.0882158 -0.0645809 -0.0849617 -0.102869 -0.185813 0.180161 0.0911034 -0.0984422 0.0663783 0.139917 -0.201037 -0.274704 -0.0783716 0.034151 -0.00358135 0.212995 0.169077 -0.130691 -0.0295803 0.0612615 0.0441189 0.160366 -0.0419792 0.0662554 -0.0147143 -0.157514 -0.0866609 -0.0382377 -0.0772619 -0.0592457 -0.0831667 -0.012083 -0.0881063 -0.0768507 -0.0875328 -0.0477395 -0.087925 -0.0582496 -0.050402 -0.07742 -0.0759229 -0.0815623 -0.0848877 -0.0839885 -0.0772674 -0.0868936 -0.0868465 -0.0882133 -0.0708607 -0.08319 -0.0838678 -0.088148
weight: 0.0193483 0.00156168 0.0207203 0.000272133 0.00298257 0.00684455 0.0153415 0.0146131 0.012277 0.018805 0.00616504 0.0127981 0.0219248 0.0149332 0.0220764 0.0195332 0.0210174 0.0191978 0.0222109 0.0211672 0.0220135 0.0213197 0.0177572 0.0136609 0.0213596 0.0185645 0.0107494 0.0170229 0.0116099 0.0161039 0.0101069 0.0213635 0.0173271 0.0213791 0.0212972 0.0193192 0.019252 0.0201549 0.0217916 0.265097 -0.154869 -0.0929279 0.0260595 0.0321554 0.15288 -0.141569 -0.0107735 -0.242671 -0.201822 0.0820383 -0.282489 -0.694997 -0.307317 -0.0517059 -0.0689899 -0.0399509 0.146974 0.0558892 0.187928 0.352797 0.344341 0.151183 0.0162847 0.0127712 0.0221142 0.0189049 0.0220843 0.00406803 0.019831 0.00928285 0.0206469 0.0157214 0.0201922 0.0186525 0.0165041 0.0221253 0.0220056 0.0121858 0.0146332 0.0139163 0.00952329 0.0165437 0.0164901 0.0193066 0.021351 0.0220822 0.0138241 0.0186677
weight: -0.00620047 -0.00138248 -0.00752221 -0.000241697 -0.00261735 -0.00572592 -0.00364868 -0.0103068 -0.00245716 -0.011605 -0.00521251 -0.00946157 -0.0111799 -0.0104402 -0.0109735 -0.00635897 -0.00786804 -0.0116622 -0.0101397 -0.00805486 -0.00944328 -0.00825668 -0.00501228 -0.00293142 -0.00831166 -0.00557945 -0.00204343 -0.0045497 -0.00226244 -0.0108857 -0.00190239 -0.00831688 -0.0112717 -0.00833821 -0.00822581 -0.0116768 -0.00612 -0.011725 -0.00898614 -0.152754 0.056113 -0.109989 -0.0252444 -0.0634824 -0.0826183 -0.0882249 -0.277362 -0.211479 1.92311 -0.255472 0.110359 0.197756 -0.0232919 0.0192567 -0.160605 0.10031 0.000717713 -0.100175 -0.0122259 0.012628 -1.33435 0.083431 -0.004129 -0.00944782 -0.0109012 -0.0116209 -0.00962742 -0.00353394 -0.00662504 -0.00174978 -0.00744058 -0.0107477 -0.00696887 -0.0115788 -0.0110215 -0.0108777 -0.0110838 -0.0024296 -0.00332624 -0.00303002 -0.00179094 -0.00427193 -0.0042419 -0.00616551 -0.0115424 -0.00962023 -0.00299408 -0.00565703
weight: -0.00429652 -0.000548408 -0.00673232 -9.51066e-05 -0.00106068 -0.00259505 0.00250902 -0.00656208 0.00767569 -0.00907698 -0.00230604 -0.00553247 -0.0105736 -0.00674918 -0.010535 -0.00461846 -0.00728352 -0.00931142 -0.0100356 -0.00756708 -0.00936498 -0.00786263 -0.0015675 0.0053369 -0.00794108 -0.00294529 0.0102871 -0.000323828 0.00881078 -0.00744324 0.0113998 -0.00794847 -0.00818211 -0.00797892 -0.00781793 -0.00938296 -0.00413032 -0.00986329 -0.00883518 -0.147788 0.0461377 -0.00441455 0.0119938 -0.117501 0.101283 0.0759501 0.230491 0.0746822 0.271071 0.130183 -0.15975 0.286973 -0.057435 0.17432 0.282349 0.0782571 -0.100762 0.1336 -0.0805526 0.0152167 -0.51845 -0.148276 0.000922175 -0.00551777 -0.010511 -0.00913682 -0.0095593 -0.00146739 -0.00513976 0.0128424 -0.00659813 -0.00721488 -0.00577888 -0.00898541 -0.00768385 -0.0105021 -0.0105624 0.00783063 0.00369971 0.00490581 0.0124199 0.000485442 0.000576123 -0.00422424 -0.0104478 -0.00955213 0.00506125 -0.00312151
weight: -0.03138 -0.00160419 -0.0297446 -0.000279913 -0.00305299 -0.00688404 -0.034825 -0.0141967 -0.0370255 -0.0185221 -0.00622331 -0.0124886 -0.0236405 -0.0145027 -0.0242235 -0.0311843 -0.0293073 -0.0189915 -0.025998 -0.0290685 -0.0271447 -0.0288062 -0.0328881 -0.0360507 -0.0287343 -0.0321571 -0.0380881 -0.0335089 -0.0374905 -0.0156444 -0.038534 -0.0287271 -0.0168905 -0.0286989 -0.0288466 -0.0191407 -0.0314798 -0.0202418 -0.0278161 0.576843 0.287708 0.0241905 0.0218555 0.13232 0.0606348 -0.164396 0.170113 -0.247245 -0.246998 -0.0812759 -0.00909746 -0.518644 -0.0885088 0.0364619 0.0273117 0.0247048 0.0504956 0.0108611 -0.168913 0.0177618 0.322203 0.176986 -0.0341018 -0.0124635 -0.0244086 -0.0186393 -0.0268593 -0.00414766 -0.0308554 -0.0391072 -0.0298461 -0.0152668 -0.0304319 -0.0183447 -0.0160445 -0.0244668 -0.0239244 -0.0370892 -0.0353489 -0.0358677 -0.0389397 -0.0338967 -0.0339398 -0.0314238 -0.0222118 -0.0268704 -0.0359343 -0.0320592
weight: 0.14898 0.00817935 0.14503 0.00142684 0.0155775 0.0352526 0.152277 0.0733358 0.150776 0.0956946 0.0318441 0.0644108 0.12087 0.0749319 0.123573 0.148583 0.143741 0.0980824 0.131441 0.142997 0.136136 0.142151 0.151291 0.151766 0.141913 0.150335 0.149161 0.151851 0.150137 0.0808757 0.148326 0.14189 0.0873288 0.141795 0.142284 0.0988375 0.149174 0.104373 0.138692 -0.173438 -0.042473 -0.136783 -0.121525 0.103073 -0.226602 -0.0190315 -0.0915938 0.429986 -0.228804 0.166364 0.175258 -0.170104 -0.0174822 -0.31875 -0.11733 -0.0170058 -0.027088 0.0643546 0.253845 0.0315554 0.201082 0.0709865 0.152171 0.0642792 0.124421 0.0962927 0.135003 0.0211795 0.147869 0.147128 0.145317 0.0789133 0.146864 0.0947907 0.0829528 0.124687 0.122193 0.150696 0.152163 0.151896 0.147492 0.152084 0.152104 0.149064 0.114067 0.135048 0.151852 0.150184
weight: 0.0130167 0.000917933 0.0133392 0.000160003 0.00175177 0.00400422 0.011961 0.00845805 0.0112131 0.0108716 0.00360971 0.00742385 0.0129127 0.00864044 0.0130622 0.0130635 0.0133968 0.0111043 0.0133853 0.0134225 0.0134796 0.013446 0.0125981 0.0115405 0.0134518 0.0128132 0.0108734 0.0124022 0.011062 0.00930887 0.010738 0.0134523 0.0100111 0.0134544 0.0134428 0.0111766 0.012992 0.0116847 0.0134905 -0.0304769 -0.111051 -0.0315873 -0.101129 -0.0301787 -0.036586 -0.0548517 0.00465503 -0.296135 -0.0589726 1.91398 -0.0214558 0.0610217 0.0331922 0.0966486 0.000877156 0.0100343 -0.0162799 -0.0286547 -0.0335748 0.0408835 -0.0256828 -0.95889 0.0122066 0.00740858 0.0131054 0.0109303 0.0134649 0.00238722 0.0131376 0.0105708 0.013324 0.00909014 0.0132234 0.0107818 0.00953794 0.0131184 0.0129881 0.0111921 0.011781 0.011603 0.0106189 0.0122749 0.0122607 0.0130062 0.0124663 0.0134657 0.0115802 0.0128402
weight: -0.0437355 -0.00319578 -0.0432477 -0.000557974 -0.0060719 -0.0135574 -0.0444007 -0.026702 -0.0450401 -0.0331963 -0.0122843 -0.0238324 -0.0391611 -0.0271994 -0.039707 -0.0436876 -0.0430793 -0.0338256 -0.041177 -0.0429792 -0.0419636 -0.0428632 -0.0440428 -0.0447069 -0.0428301 -0.0439055 -0.0455237 -0.0441523 -0.0452354 -0.0290076 -0.0457704 -0.0428269 -0.0308887 -0.0428136 -0.0428814 -0.0340228 -0.0437591 -0.0354239 -0.0423615 0.364136 0.248533 0.137034 -0.0773271 0.106738 -0.00301699 -0.0447462 -0.213909 0.125851 -0.0550351 -0.267925 -0.170975 -0.541851 0.0011505 -0.210744 -0.0941632 0.108913 0.137511 0.0832032 0.0503733 -0.169067 -0.0155875 0.409143 -0.0442586 -0.0237892 -0.0398744 -0.033355 -0.04178 -0.00823271 -0.0436012 -0.0461277 -0.0432849 -0.0284184 -0.0434785 -0.032954 -0.0296224 -0.0399258 -0.0394311 -0.0450654 -0.0445186 -0.0446543 -0.0460184 -0.0442212 -0.0442292 -0.0437461 -0.0377032 -0.0417876 -0.0446729 -0.0438855
weight: 0.00703119 -0.00121645 0.00396322 -0.000212833 -0.00229804 -0.00495787 0.0138382 -0.00814574 0.0180649 -0.00791865 -0.00452896 -0.00773103 -0.00471706 -0.00819266 -0.00411965 0.0066538 0.00318235 -0.00776727 -0.00199049 0.00276232 -0.000364591 0.00230938 0.00999109 0.0162255 0.00218639 0.00854546 0.0199913 0.0112257 0.0189179 -0.00828903 0.0207745 0.00217504 -0.00824183 0.00212665 0.00237912 -0.00771384 0.0072239 -0.00723098 0.000672354 -0.0457928 0.089847 0.105052 -0.242729 0.127963 0.0366785 -0.0566834 -0.0039528 0.307736 0.0452851 0.104777 -0.728551 0.189584 -0.101085 -0.178467 -0.00360373 -0.0928584 0.038611 0.248421 0.00298648 -0.0690975 0.267111 -0.159969 0.012406 -0.00772298 -0.00391993 -0.00788339 -0.000787586 -0.00309467 0.00602651 0.0217579 0.00414846 -0.00827139 0.00522845 -0.00796876 -0.00829201 -0.0038559 -0.00443284 0.0181827 0.0148673 0.015874 0.0214736 0.0119978 0.0120833 0.00711527 -0.00596973 -0.000770732 0.0160014 0.00835376
weight: 0.0636709 0.00207106 0.0601882 0.000360248 0.00397493 0.00937877 0.0698139 0.022424 0.0729071 0.0321501 0.00839423 0.0189865 0.0450105 0.0230654 0.046521 0.0632722 0.0592001 0.0332819 0.0510994 0.0586489 0.0540034 0.0580373 0.0665601 0.0716132 0.0578679 0.0651983 0.0741907 0.0676588 0.0734842 0.0255251 0.0746933 0.0578519 0.0283237 0.0577847 0.0581321 0.0336438 0.0638711 0.0363525 0.0556627 -0.0808823 -0.21808 -0.0541619 -0.0102816 -0.152575 -0.127557 -0.07585 -0.17318 -0.392938 -0.00768596 -0.196244 1.88649 -0.0567254 0.120594 0.00241755 -0.149913 -0.136927 -0.10065 -0.185902 -0.107627 0.201968 -0.0254305 0.194142 0.0686587 0.0189378 0.0470005 0.0324314 0.0532871 0.00545276 0.0625928 0.0753097 0.0604154 0.0247003 0.061695 0.0317257 0.0264114 0.0471508 0.0457457 0.072988 0.0706075 0.0713572 0.0751326 0.0683185 0.0683901 0.0637585 0.0413302 0.0533153 0.0714502 0.0650104
weight: -0.0264602 -0.000829312 -0.0245672 -0.000144433 -0.00158644 -0.00367784 -0.0298766 -0.00835771 -0.0318015 -0.0118019 -0.00330442 -0.00715728 -0.016964 -0.00858111 -0.017646 -0.0262429 -0.0240336 -0.0122191 -0.0198254 -0.0237376 -0.0212903 -0.0234097 -0.0280432 -0.0309601 -0.0233192 -0.027295 -0.0327135 -0.0286523 -0.0322002 -0.00943936 -0.0330987 -0.0233108 -0.0104245 -0.023275 -0.0234606 -0.0123535 -0.0265697 -0.0133801 -0.0221517 -0.0658281 -0.43179 0.0869487 0.205919 0.196997 0.024471 -0.473521 0.150684 0.0993506 -0.0470718 0.0476215 0.181114 -0.0284517 0.395911 -0.38679 -0.189244 0.00985594 0.0333555 -0.0972563 0.0982439 -0.0635529 -0.022726 -0.138831 -0.0292136 -0.00714027 -0.0178663 -0.0119051 -0.0209236 -0.00216801 -0.0258724 -0.0335994 -0.02469 -0.0091509 -0.0253843 -0.0116467 -0.00974973 -0.0179362 -0.0172934 -0.0318561 -0.0303452 -0.030801 -0.0334525 -0.0290219 -0.0290619 -0.026508 -0.0153765 -0.0209378 -0.030859 -0.027192
weight: 0.101085 0.00531107 0.097162 0.000926686 0.0101092 0.0228113 0.107423 0.0471469 0.110277 0.0615788 0.0206182 0.041452 0.0786064 0.048167 0.0805223 0.100646 0.0960159 0.0631467 0.0862484 0.0953715 0.0898125 0.0946517 0.104169 0.109114 0.0944517 0.102736 0.111374 0.105295 0.110778 0.051976 0.111785 0.0944327 0.0561342 0.0943536 0.0947639 0.0636438 0.101304 0.0673167 0.0918204 0.0102943 0.174639 -0.272003 -0.0815864 -0.123784 -0.209287 0.218155 -0.130047 -0.296182 0.0114 -0.219202 -0.0697107 -0.219148 -0.0551617 0.276816 0.410789 -0.0478065 0.113333 0.176524 0.170362 0.162685 0.268269 0.0552772 0.106296 0.0413683 0.0811277 0.0619706 0.0889386 0.0137358 0.099892 0.11227 0.097424 0.0507163 0.0988835 0.0609869 0.0533111 0.0813181 0.0795404 0.110347 0.108179 0.108879 0.112133 0.105958 0.106029 0.10118 0.0738772 0.0889732 0.108965 0.102536
weight: 0.0311592 0.00161554 0.0284549 0.000281999 0.00307161 0.00688328 0.0381867 0.0137283 0.0434267 0.0173208 0.00623192 0.0122083 0.0214584 0.0139945 0.0219769 0.0308132 0.0278025 0.0176935 0.0236995 0.0274571 0.0249686 0.0270884 0.0340235 0.0410526 0.0269885 0.0325905 0.0460906 0.0353024 0.0445829 0.01497 0.0472302 0.0269792 0.0160049 0.0269401 0.0271444 0.0178114 0.0313375 0.0186802 0.0257811 -0.310423 -0.181901 -0.0519721 -0.120346 -0.0226924 0.0899804 0.0953376 0.065439 0.209729 -0.0299561 -0.273417 0.0244649 -0.00868146 0.112558 0.0340713 -0.0461199 -0.00937718 -0.0796125 0.118416 -0.0614037 0.123108 0.171066 0.278285 0.0365743 0.0121856 0.0221453 0.0174141 0.0246388 0.00416794 0.0302464 0.0487131 0.0286112 0.0146505 0.029541 0.0171796 0.0153058 0.0221989 0.0217081 0.0435844 0.0393938 0.0406155 0.0482782 0.0361292 0.0362218 0.031237 0.0202547 0.0246518 0.0407733 0.0324056
weight: 0.0174592 0.000684904 0.0169475 0.000119229 0.00131164 0.00305971 0.0178392 0.00707163 0.0176282 0.00993105 0.00274531 0.00603775 0.0135138 0.00726305 0.0139088 0.017409 0.0167754 0.0102575 0.0150519 0.0166748 0.0157229 0.0165598 0.0177407 0.0177602 0.0165273 0.0176269 0.0174234 0.0178036 0.017546 0.0079935 0.0173211 0.0165242 0.00881742 0.0165113 0.0165779 0.0103616 0.0174835 0.0111343 0.0160823 0.995566 -0.0718382 -0.177832 -0.0102758 -0.0105957 -0.104236 -0.0210539 -0.109382 -0.175188 -0.0286661 -0.100921 -0.0422897 0.795969 -0.0831975 0.00329201 -0.168681 -0.0575817 -0.0587467 -0.0753032 -0.250125 0.0370764 0.0264263 0.0365071 0.0178359 0.00602307 0.0140326 0.0100123 0.0155621 0.00179484 0.0173185 0.0171755 0.0169856 0.0077493 0.0171886 0.00980829 0.00825529 0.0140713 0.0137071 0.0176177 0.0178181 0.0177785 0.0172195 0.0178278 0.0178298 0.0174698 0.0125232 0.0155686 0.0177719 0.0176085
weight: -0.0556761 -0.0027508 -0.0538355 -0.000479799 -0.0052408 -0.0118883 -0.0574938 -0.0250914 -0.0572914 -0.0333269 -0.0107325 -0.0219286 -0.0433314 -0.0256635 -0.0444603 -0.0554873 -0.0532482 -0.0342387 -0.0478091 -0.0529106 -0.0498535 -0.0525286 -0.0568209 -0.0574918 -0.0524215 -0.0563342 -0.0569104 -0.0571329 -0.0571437 -0.0278129 -0.0567079 -0.0524115 -0.0301847 -0.0523685 -0.0525882 -0.0345289 -0.0557683 -0.0366771 -0.0509819 0.252032 0.285593 0.0567278 -0.0218692 0.00577655 0.140079 0.00521381 0.0816446 0.0452662 -0.07532 -0.180848 -0.163361 -0.324679 -0.142201 0.128288 0.180788 -0.0332744 0.0231642 -0.0835482 -0.274635 -0.0630197 0.0017018 0.00746813 -0.0573446 -0.0218824 -0.0448166 -0.0335546 -0.0493564 -0.00712868 -0.0551509 -0.0564186 -0.0539673 -0.0270996 -0.054681 -0.0329834 -0.0285716 -0.0449283 -0.0438823 -0.0572733 -0.0575301 -0.0575112 -0.0565061 -0.0572808 -0.0572947 -0.0557164 -0.0405397 -0.0493763 -0.0575049 -0.0562589
weight: -0.0310113 -0.0024311 -0.0308461 -0.000424736 -0.0046112 -0.0102034 -0.0306751 -0.019566 -0.0302274 -0.0240137 -0.00926347 -0.0175744 -0.02813 -0.0199087 -0.0285101 -0.0310045 -0.0307596 -0.0244446 -0.0295317 -0.0307047 -0.0300658 -0.0306378 -0.0309587 -0.0304283 -0.030618 -0.0310063 -0.0300287 -0.030889 -0.0301367 -0.0211506 -0.0299569 -0.0306164 -0.0224374 -0.0306085 -0.0306486 -0.0245793 -0.0310136 -0.0255406 -0.0303272 -0.598514 -0.120715 -0.196049 -0.0333631 0.00274686 -0.0360767 -0.32677 0.0134706 0.153404 -0.172778 -0.0661997 -0.0353525 -0.153522 -0.00311548 0.0694455 0.266646 0.0668657 0.0575783 0.128902 0.315781 0.102684 0.0966996 0.0930638 -0.0308027 -0.0175441 -0.0286269 -0.0241223 -0.0299431 -0.00623997 -0.0309849 -0.0298773 -0.0308641 -0.0207467 -0.0309457 -0.0238482 -0.0215716 -0.0286631 -0.0283181 -0.0302146 -0.0305718 -0.0304658 -0.0298989 -0.0308344 -0.0308279 -0.0310126 -0.0271149 -0.0299479 -0.0304524 -0.0310099
weight: 0.0134715 0.00026255 0.0125717 4.54993e-05 0.000508803 0.00126108 0.0145096 0.00346565 0.0143819 0.00541945 0.00111694 0.00283579 0.00843065 0.00358669 0.00881971 0.013375 0.0123009 0.00566413 0.0100424 0.0121479 0.0108461 0.0119775 0.0140917 0.0145215 0.0119303 0.0138196 0.0140766 0.0142756 0.0142686 0.00406099 0.013901 0.0119257 0.00462044 0.0119072 0.012004 0.00574276 0.0135196 0.00634619 0.0113111 0.121288 -0.211806 -0.00990476 -0.0916066 0.0319481 0.00433282 0.298287 0.0374301 -0.0544369 -0.0299341 0.0808719 0.0314122 0.0230709 0.0771217 -0.0221301 0.0847118 -0.0674154 -0.058157 -0.0400589 -0.083777 -0.0806437 0.00958092 -0.11932 0.0144086 0.00282724 0.00894479 0.00548 0.0106463 0.00070561 0.0132054 0.0136329 0.0126333 0.00390022 0.0129744 0.00532887 0.00423583 0.00898408 0.00861903 0.0143681 0.0145395 0.0145327 0.013716 0.0143673 0.0143763 0.0134925 0.00751467 0.010654 0.0145292 0.0137792
weight: 0.0214142 0.00209184 0.0223396 0.000365286 0.00397272 0.00884605 0.0188041 0.0171414 0.0168045 0.0208125 0.00802065 0.0153875 0.0232128 0.0174396 0.0233185 0.0215375 0.0225439 0.0211311 0.0233976 0.0226473 0.0232476 0.0227537 0.0203668 0.0177153 0.0227817 0.0208957 0.0157709 0.0198897 0.0163577 0.0185054 0.0153239 0.0227843 0.0195757 0.022795 0.0227378 0.0212285 0.0213504 0.0218891 0.0230867 -0.0739538 1.00332 -0.0592049 -0.059329 0.0411015 -0.0326573 -0.146861 -0.179742 -0.112868 -0.0332281 -0.0414787 -0.0780038 -0.0127401 0.575269 -0.0189936 -0.255278 0.0638658 -0.0558786 -0.111558 0.0120495 -0.259663 -0.0524897 0.114641 0.0194126 0.0153606 0.023344 0.0208938 0.0232998 0.00538358 0.0217371 0.0147373 0.0222892 0.0181616 0.0219803 0.0206876 0.0188601 0.0233512 0.0232691 0.0167439 0.0183468 0.0178822 0.0149102 0.0195798 0.0195452 0.0213865 0.0227975 0.023298 0.0178218 0.0209631
weight: -0.076588 -0.00451256 -0.075831 -0.000786616 -0.00861078 -0.0196812 -0.0767553 -0.0419274 -0.0763469 -0.0548003 -0.0177408 -0.0366623 -0.0675072 -0.0428664 -0.0686731 -0.0765252 -0.0755321 -0.0561146 -0.0717691 -0.0753496 -0.073378 -0.0751338 -0.0768519 -0.0765438 -0.0750716 -0.0767692 -0.0761464 -0.0768649 -0.0762549 -0.0463468 -0.0760756 -0.075066 -0.0500784 -0.0750408 -0.0751685 -0.0565272 -0.0766172 -0.0594898 -0.0741692 0.13928 0.248786 0.101787 -0.047817 -0.012143 0.071131 0.0267879 0.0811351 0.141232 -0.0585238 0.0689147 -0.197716 -0.217187 -0.333088 0.166702 0.0224946 0.0242356 -0.0226694 -0.0204833 -0.166503 -0.207982 -0.0046254 0.0211394 -0.0768355 -0.0365846 -0.0690289 -0.0551307 -0.0730074 -0.0117332 -0.0764039 -0.0760034 -0.0758948 -0.0452013 -0.0762161 -0.0542979 -0.0475546 -0.0691389 -0.0680838 -0.076334 -0.076673 -0.0765789 -0.0760219 -0.0768497 -0.076847 -0.0766007 -0.0643734 -0.0730225 -0.0765661 -0.0767519
weight: 0.0657425 0.00127107 0.0606269 0.000220571 0.00245511 0.00599732 0.0747309 0.0162072 0.0790809 0.0254928 0.00532637 0.01327 0.0400524 0.016775 0.0419383 0.0651549 0.0591911 0.026669 0.0478836 0.0583944 0.0518291 0.0575137 0.0700026 0.07728 0.057271 0.0679968 0.0808546 0.0716125 0.0798779 0.0190107 0.0815514 0.0572478 0.0216664 0.0571521 0.0576502 0.0270487 0.0660385 0.0299593 0.0541397 0.0176886 -0.399006 -0.127223 -0.138347 -0.0730285 -0.21409 0.0643495 0.0191092 -0.371991 -0.10331 -0.17407 0.237636 0.025656 -0.061279 -0.0699851 0.257327 0.0396989 0.0214324 0.248302 0.245579 0.327868 0.258293 0.137482 0.0730669 0.0132296 0.0425448 0.0257836 0.0508435 0.00339274 0.0641527 0.0824172 0.0609582 0.0182509 0.0628323 0.0250575 0.0198389 0.0427364 0.0409658 0.0791925 0.0758621 0.0769206 0.0821673 0.0725735 0.0726768 0.0658716 0.035613 0.0508826 0.0770513 0.0677199
weight: 0.0681986 0.00127954 0.0617448 0.000222242 0.00246548 0.00594935 0.0808366 0.0156249 0.0877833 0.0244247 0.00529744 0.0128643 0.0388526 0.0161586 0.0408048 0.067434 0.0600039 0.0255556 0.0471216 0.0590499 0.0514705 0.0580053 0.0739419 0.0848339 0.0577185 0.0711895 0.0907635 0.0762197 0.0891165 0.0182636 0.0919463 0.0576917 0.0207753 0.0575787 0.0581665 0.0259218 0.0685853 0.028747 0.0540853 0.130204 0.00472741 -0.250157 -0.0169446 -0.147352 -0.0401658 0.104767 -0.171971 -0.0283804 -0.0718389 -0.192534 0.146615 -0.184893 0.153238 -0.20287 0.0965934 0.0618714 -0.0216038 0.0553163 0.0441744 0.0287899 0.174167 0.173567 0.0783382 0.0128264 0.0414374 0.0247037 0.0503712 0.00339771 0.0661463 0.0934077 0.0621505 0.0175474 0.0644756 0.0240072 0.0190453 0.0416377 0.0397947 0.0879692 0.0825843 0.0842578 0.0929878 0.0776122 0.0777643 0.068367 0.034342 0.0504145 0.0844671 0.0708169
weight: -0.0343636 -0.00188477 -0.0334915 -0.000328643 -0.0035937 -0.00818126 -0.0351432 -0.0172715 -0.0347395 -0.0225988 -0.00738086 -0.0151256 -0.0283214 -0.0176551 -0.0289107 -0.0342742 -0.0332132 -0.0231581 -0.0306002 -0.0330533 -0.0315959 -0.0328722 -0.0348989 -0.0350113 -0.0328214 -0.0346741 -0.0342717 -0.0350344 -0.0345567 -0.0190809 -0.0340221 -0.0328166 -0.0206213 -0.0327966 -0.0329008 -0.0233342 -0.0344073 -0.0246165 -0.0321369 -0.301814 -0.177004 0.96983 0.0246248 -0.0279745 0.0411499 -0.0144655 -0.387202 -0.0108674 0.0317794 -0.0489898 -0.0558676 0.22953 0.0740796 0.892298 -0.38615 -0.00175172 -0.0227361 -0.142478 -0.0602139 -0.0769198 -0.303864 -0.0357261 -0.0351145 -0.0150941 -0.0290943 -0.0227392 -0.0313557 -0.0048925 -0.0341145 -0.0336539 -0.0335537 -0.0186107 -0.033892 -0.0223866 -0.0195777 -0.0291519 -0.0286104 -0.0347164 -0.035115 -0.0350454 -0.0337671 -0.0350925 -0.0350973 -0.0343828 -0.0268166 -0.0313654 -0.0350338 -0.0346391
weight: 0.0239106 0.00221889 0.0253967 0.000387351 0.00421741 0.00943362 0.0188641 0.0186063 0.0144841 0.022953 0.00854468 0.0166167 0.0262048 0.0189489 0.0263942 0.0241203 0.0256938 0.0233504 0.026671 0.0258387 0.0265724 0.0259835 0.0220121 0.0165132 0.0260209 0.0229958 0.0121385 0.021086 0.0134741 0.0201847 0.0111167 0.0260242 0.0214496 0.0260386 0.0259623 0.0234732 0.0238007 0.0243205 0.0264011 0.106679 0.0144578 0.0523842 0.0282497 0.0494881 -0.101055 0.025638 0.266957 -0.0875833 0.0128025 0.0474908 -0.0347063 -0.187841 -0.0134924 0.247039 0.0589069 -0.0166221 -0.0186272 -0.168086 0.103743 0.0395962 -0.151177 0.00201048 0.0201268 0.0165865 0.026445 0.0230538 0.0266189 0.00572058 0.024452 0.00977185 0.0253215 0.0197839 0.0248445 0.0227985 0.020601 0.0264599 0.0263031 0.0143471 0.0178886 0.0168793 0.0101686 0.0204665 0.020396 0.0238629 0.025563 0.0266177 0.0167475 0.0231179
weight: -0.061636 9.20602e-05 -0.0527742 1.68291e-05 0.000151591 1.54211e-05 -0.0809867 -0.00356372 -0.0935201 -0.0100881 8.49579e-05 -0.0020876 -0.024656 -0.00388463 -0.0268618 -0.0605579 -0.0504668 -0.0110862 -0.0342642 -0.0492152 -0.0395711 -0.0478551 -0.0700257 -0.087968 -0.0474829 -0.0659357 -0.0995626 -0.0735218 -0.0961634 -0.00525643 -0.102101 -0.0474481 -0.00709017 -0.0473023 -0.0480646 -0.0114164 -0.062184 -0.014061 -0.0428408 0.257696 0.287641 0.116844 -0.0419973 0.17807 0.0749554 -0.313242 0.543943 0.0580524 -0.248429 0.242158 -0.288285 -0.111819 -0.234505 -0.32237 -0.231431 -0.054233 -0.0704213 -0.112564 0.0913691 -0.126517 -0.224459 -0.0106387 -0.0768773 -0.00206949 -0.0275841 -0.0103315 -0.038214 0.000167639 -0.0587616 -0.105364 -0.0533168 -0.00477133 -0.0564614 -0.009727 -0.00580504 -0.0278143 -0.0257144 -0.0938825 -0.0839711 -0.0869269 -0.104411 -0.0757155 -0.0759586 -0.0618747 -0.0197383 -0.0382672 -0.0873035 -0.065393
weight: 0.0144403 0.00134694 0.0132116 0.00023573 0.00254242 0.00546024 0.0146353 0.00897897 0.0114463 0.00941967 0.00499289 0.00847601 0.00965903 0.00904716 0.00979869 0.0143124 0.0128503 0.00942078 0.0104937 0.0126514 0.0111771 0.0124357 0.0151002 0.0132581 0.0123754 0.0148624 0.00869246 0.0151447 0.0103457 0.00924434 0.00728307 0.0123701 0.00936874 0.012348 0.0124694 0.00941988 0.0145026 0.00941007 0.0116541 0.250436 0.196893 0.0157163 -0.0567528 0.23502 0.132158 -0.172272 0.103894 0.274234 -0.221713 0.116069 -0.063417 -0.279967 -0.29884 -0.185784 -0.126275 -0.255156 -0.0154132 0.0594094 0.100023 -0.153006 0.058339 0.096718 0.0150272 0.00846712 0.00985126 0.00942025 0.0109893 0.00342026 0.0140829 0.00524614 0.0132958 0.00918911 0.0137646 0.00941864 0.00929427 0.00986967 0.00972306 0.0113063 0.0141635 0.0135251 0.00586719 0.0150863 0.0150755 0.0144669 0.00946481 0.0109979 0.0134319 0.0148171
weight: -0.0153311 -0.00253013 -0.01758 -0.000441902 -0.00480269 -0.010659 -0.0106406 -0.0201627 -0.00769993 -0.0234972 -0.00967249 -0.0182657 -0.0236122 -0.0204733 -0.0233081 -0.0156028 -0.018164 -0.0237016 -0.0219778 -0.0184798 -0.0208196 -0.0188207 -0.0132523 -0.00901031 -0.0189135 -0.0142568 -0.0062244 -0.012407 -0.00706354 -0.0215414 -0.0055806 -0.0189217 -0.0225285 -0.0189588 -0.0187684 -0.0237584 -0.0151936 -0.024066 -0.0200511 -0.046421 -0.0982071 -0.154558 0.0668439 -0.1721 -0.064311 0.154337 -0.101167 0.0643352 0.0686188 -0.0107785 -0.101825 0.0402931 0.0269703 0.102059 0.342865 0.104165 0.0893035 -0.0458922 -0.102192 0.0489256 0.00338748 -0.0667936 -0.0116077 -0.0182362 -0.0231972 -0.0235513 -0.0211269 -0.0065044 -0.0160576 -0.00472532 -0.017442 -0.0212045 -0.0166424 -0.0234113 -0.0218797 -0.0231612 -0.0234728 -0.00761356 -0.00994394 -0.00925404 -0.00497863 -0.0118831 -0.0118256 -0.0152712 -0.0240732 -0.0211156 -0.00916621 -0.0143916
weight: 0.0870502 0.00540671 0.0862106 0.000943187 0.0102965 0.0232912 0.0866663 0.0482049 0.0853032 0.0622361 0.0210419 0.0424293 0.076394 0.0492306 0.0777355 0.0869886 0.0858568 0.0636757 0.0813537 0.085639 0.0832698 0.0853803 0.0872022 0.0859895 0.0853062 0.0871974 0.0844338 0.0871117 0.0849376 0.0530239 0.0840355 0.0852986 0.0570859 0.0852688 0.0854216 0.0641279 0.0870778 0.06739 0.0842199 0.00548047 0.0307556 -0.121891 -0.00625398 -0.010718 -0.084675 -0.0813107 -0.11771 -0.281583 -0.0547137 -0.020078 -0.000913933 -0.141061 0.0057518 -0.00474082 1.34936 -0.0530684 -0.0589174 -0.0382063 0.131661 0.0736936 -0.0335779 -0.101394 0.0869512 0.0423439 0.0781465 0.0625977 0.0828261 0.0139984 0.0868618 0.0834963 0.0862854 0.0517762 0.0866551 0.0616871 0.0543384 0.0782744 0.0770559 0.0852547 0.0864045 0.086104 0.083657 0.0870146 0.0870021 0.0870627 0.0728346 0.0828443 0.0860632 0.0871875
weight: 0.0782467 0.0110058 0.0882428 0.00192206 0.0208959 0.0464407 0.0551722 0.0886548 0.0408719 0.104934 0.0421281 0.0800402 0.109677 0.0900866 0.108957 0.0795003 0.0906947 0.106108 0.104993 0.0919925 0.100998 0.0933733 0.068282 0.0470669 0.0937446 0.0731745 0.0344321 0.0640796 0.0380143 0.0950891 0.0318294 0.0937798 0.0998766 0.093925 0.0931625 0.106454 0.0776062 0.108565 0.0981666 -0.33377 -0.0505762 0.208513 -0.00897639 0.000606121 -0.0175577 0.0728895 -0.229878 -0.14033 -0.0144173 -0.251847 -0.0409418 0.110878 0.0189151 -0.048774 -0.413512 0.0074991 0.062638 0.0699232 0.122103 0.0791975 0.0405694 0.258254 0.060055 0.0799065 0.10867 0.105239 0.102096 0.0283073 0.0815711 0.028571 0.0876552 0.0934967 0.0841801 0.104455 0.0967069 0.108573 0.109363 0.0404759 0.0516706 0.0482571 0.0295119 0.0614464 0.0611561 0.0779685 0.110273 0.102054 0.0478257 0.0738196
weight: 0.0110285 0.0022133 0.013568 0.000386445 0.00420454 0.00936231 0.00491938 0.0177178 0.000544625 0.0204163 0.00849043 0.0160776 0.0199568 0.0179824 0.0196132 0.0113462 0.0142015 0.0205555 0.0181934 0.0145398 0.0169905 0.0149015 0.00847559 0.00251871 0.0149999 0.0097371 -0.00164929 0.00736874 -0.000411678 0.0188804 -0.00257838 0.015009 0.0196827 0.0150476 0.014847 0.020593 0.0108662 0.0207552 0.0161927 0.100627 -0.102324 -0.0753911 -0.114141 0.235316 -0.00666952 0.0309688 0.256276 -0.0494393 -0.214022 0.0857444 -0.0277536 -0.166173 -0.0420751 -0.167331 -0.587122 0.253036 -0.000891102 0.174767 -0.0274492 0.0556668 -0.120472 -0.0356405 0.00628313 0.0160515 0.0194909 0.0204549 0.0173096 0.00569879 0.0118707 -0.00377151 0.0134176 0.0185994 0.0125311 0.0203555 0.019159 0.019452 0.0197976 0.0004142 0.00390584 0.00288315 -0.00342394 0.00666118 0.00658218 0.0109569 0.0205401 0.0172979 0.00275119 0.00990271
weight: -0.171425 -0.0049271 -0.162064 -0.000855215 -0.00951038 -0.0230958 -0.191821 -0.0595016 -0.20602 -0.0878661 -0.0205452 -0.0495621 -0.123662 -0.0613685 -0.127629 -0.170306 -0.159536 -0.0911334 -0.139342 -0.158142 -0.146584 -0.156604 -0.180135 -0.199611 -0.15618 -0.175883 -0.213201 -0.183805 -0.209135 -0.0685536 -0.216275 -0.15614 -0.0767359 -0.155972 -0.156842 -0.0921742 -0.171994 -0.0999059 -0.150694 -0.272808 0.237562 0.413017 0.105386 0.446857 0.194617 -0.440251 0.294527 0.167543 -0.338668 0.155504 -0.256342 0.125892 -0.294822 -0.409505 -0.121577 0.163925 0.00421803 -0.208387 -0.0789917 -0.255975 -0.330764 -0.182799 -0.187373 -0.0494223 -0.128876 -0.0886801 -0.144806 -0.0131301 -0.16843 -0.220274 -0.162652 -0.0661417 -0.16601 -0.0866384 -0.0711454 -0.129267 -0.125598 -0.206443 -0.195115 -0.198429 -0.219101 -0.186132 -0.186391 -0.171673 -0.113767 -0.144876 -0.198855 -0.175321
weight: 0.00593221 -0.00392876 0.00091037 -0.000686766 -0.00743948 -0.0162585 0.0135182 -0.0280101 0.0165719 -0.0284353 -0.0148093 -0.0262292 -0.0195706 -0.0282446 -0.0179092 0.00537497 -0.000555017 -0.028066 -0.012222 -0.00137527 -0.00819839 -0.00228577 0.00976083 0.0153387 -0.00253765 0.00800584 0.0177896 0.0111006 0.017116 -0.0288658 0.0182811 -0.00256177 -0.0290502 -0.00266131 -0.0021442 -0.0279312 0.00620962 -0.0266495 -0.00579768 0.0996976 -0.00431871 -0.0260169 -0.00471128 0.0986092 0.00136165 0.166942 -0.0433638 -0.121759 0.0219867 -0.00800894 -0.0480032 -0.277913 -0.154545 0.0433263 -0.0814369 0.0402939 -0.0320629 -0.113747 -0.0793286 0.0762893 -0.0924723 0.108946 0.0122573 -0.0261976 -0.017358 -0.0283513 -0.00921427 -0.0100458 0.00441276 0.0189105 0.00124581 -0.028706 0.00312065 -0.0285519 -0.028983 -0.0171826 -0.0187764 0.0166484 0.0143421 0.0150888 0.0187263 0.0118709 0.0119525 0.00605365 -0.023111 -0.00917483 0.0151809 0.00775728
weight: 0.0229751 0.0032851 0.0250724 0.0005726 0.00626956 0.0143154 0.0235367 0.0293882 0.0276701 0.0354613 0.0129105 0.0261217 0.0353769 0.0299362 0.0347382 0.0231596 0.0258101 0.035838 0.0320818 0.026237 0.0299471 0.0267203 0.0222977 0.0255224 0.0268552 0.022456 0.0304678 0.0224312 0.0288414 0.0318526 0.0317571 0.0268681 0.0336603 0.0269212 0.0266437 0.035944 0.0228889 0.0364962 0.0286323 -0.204457 -0.345464 0.0615861 0.0921996 -0.240883 -0.153569 0.0543177 -0.180395 -0.0540935 0.283337 -0.155266 0.146003 0.360569 0.329074 0.0893237 0.22885 -0.175427 0.00510652 0.0489804 0.00713064 0.0826333 0.0298318 -0.0359085 0.0227907 0.0260715 0.0345083 0.0355609 0.0304972 0.00854354 0.023513 0.0334897 0.0249091 0.0312433 0.0240463 0.035301 0.0324683 0.0344338 0.0350804 0.0278243 0.024278 0.0251712 0.0329759 0.0226407 0.0226719 0.0229375 0.0363921 0.0304754 0.0252957 0.0225019
weight: -0.0853711 -0.0229186 -0.114267 -0.0040054 -0.0434287 -0.0954311 -0.0156836 -0.173246 0.032161 -0.194656 -0.086797 -0.158867 -0.184993 -0.175507 -0.181098 -0.089006 -0.121386 -0.195479 -0.165471 -0.125173 -0.15231 -0.129221 -0.0560742 0.0108432 -0.130317 -0.0705629 0.0554437 -0.0434076 0.0423425 -0.183003 0.0652165 -0.13042 -0.189391 -0.130848 -0.128604 -0.195675 -0.0835088 -0.196066 -0.143539 -0.168657 -0.999015 -0.189129 0.0791984 -0.632139 -0.349005 0.284672 -0.795995 -0.0175032 0.601567 -0.471809 0.370174 0.627665 0.761388 0.202818 0.312035 0.0714841 -0.134636 0.128457 -0.443195 0.216541 0.499396 0.245056 -0.0310468 -0.158635 -0.179739 -0.194891 -0.155808 -0.0586963 -0.0949957 0.0777752 -0.112569 -0.180693 -0.10253 -0.194261 -0.185266 -0.179299 -0.183178 0.0335564 -0.00439505 0.0068633 0.0741073 -0.0353473 -0.0344517 -0.0845609 -0.192008 -0.155674 0.00830117 -0.0724598
weight: -0.243209 -0.0203762 -0.251471 -0.00355625 -0.0387538 -0.0869907 -0.213914 -0.173629 -0.188294 -0.215901 -0.0787309 -0.154578 -0.249201 -0.176927 -0.25145 -0.244402 -0.253022 -0.21983 -0.255889 -0.253757 -0.256633 -0.254462 -0.232264 -0.200176 -0.254639 -0.23796 -0.17454 -0.226879 -0.182377 -0.188864 -0.16853 -0.254654 -0.20116 -0.254722 -0.254359 -0.221043 -0.242584 -0.229503 -0.25623 -0.537395 -0.0199532 -0.223373 0.492642 -0.423014 0.286301 0.471807 0.139286 0.453433 0.32157 0.180768 0.0385315 0.605914 -0.0432358 0.127932 0.742887 -0.0205281 0.0730852 -0.305365 -0.584688 -0.0489148 0.105773 -0.477248 -0.221287 -0.15429 -0.252086 -0.216897 -0.256614 -0.0526058 -0.246275 -0.160614 -0.251068 -0.184983 -0.248467 -0.214382 -0.192901 -0.25228 -0.250344 -0.187494 -0.208216 -0.202314 -0.162947 -0.223269 -0.222859 -0.242937 -0.24221 -0.256617 -0.201545 -0.238663
weight: 0.746074 0.0454126 0.729285 0.00792417 0.086423 0.194732 0.763238 0.397494 0.762137 0.509305 0.17608 0.35114 0.626174 0.405693 0.638102 0.744354 0.723894 0.520825 0.672162 0.720787 0.692065 0.717251 0.756623 0.763654 0.716259 0.752104 0.758852 0.759578 0.760897 0.435941 0.757016 0.716167 0.468265 0.71577 0.717808 0.524451 0.746919 0.550757 0.702798 0.925161 -0.0777478 -0.845503 -0.978428 0.0209339 -0.789269 0.344411 -0.0846694 -0.64646 -0.229625 -0.633225 0.495939 -0.891816 0.302423 0.516875 0.13818 0.563034 -0.139472 0.752273 0.850294 0.68258 0.371874 0.939201 0.761658 0.350451 0.641818 0.512197 0.687284 0.117399 0.741286 0.754293 0.730492 0.426001 0.737007 0.50492 0.446405 0.642981 0.632026 0.761987 0.763751 0.763763 0.755129 0.761019 0.761158 0.746445 0.595624 0.687476 0.763729 0.751414
weight: -0.24049 -0.00500162 -0.212012 -0.000870036 -0.00959955 -0.0226762 -0.305702 -0.0555077 -0.348281 -0.0831285 -0.0202861 -0.0465376 -0.128508 -0.0572166 -0.134895 -0.236967 -0.204795 -0.0866317 -0.156279 -0.200915 -0.171807 -0.196727 -0.26841 -0.329517 -0.195587 -0.254703 -0.368398 -0.280243 -0.357127 -0.0639034 -0.37673 -0.19548 -0.0717832 -0.195033 -0.197369 -0.0877668 -0.24229 -0.0965304 -0.181528 -0.402193 0.791945 0.827568 0.179173 0.642576 0.625119 -0.516018 0.495862 0.467714 -0.380358 0.60849 -0.547103 0.0110338 -0.827286 -0.769809 -0.865386 -0.216516 0.328589 -0.417897 0.166527 -0.531661 -0.48225 -0.446648 -0.291669 -0.0464122 -0.136983 -0.0839939 -0.167809 -0.0131693 -0.231126 -0.387337 -0.213721 -0.0616378 -0.223718 -0.081834 -0.066364 -0.137646 -0.131577 -0.349496 -0.3159 -0.325974 -0.384251 -0.287707 -0.288534 -0.241274 -0.114054 -0.167965 -0.327256 -0.252895
weight: 0.188021 0.000974747 0.163316 0.000166084 0.00197423 0.00597176 0.244091 0.0250309 0.280971 0.0475006 0.00508462 0.0187269 0.0885121 0.0263017 0.094361 0.184978 0.157004 0.0505619 0.113827 0.153602 0.127801 0.149919 0.212048 0.264655 0.148915 0.200267 0.298613 0.222209 0.288708 0.031457 0.305971 0.148821 0.0378475 0.148427 0.150484 0.0515611 0.189574 0.0593636 0.136474 0.174656 -0.602964 -0.608772 -0.0547315 -0.682703 -0.292353 0.505698 -0.634812 -0.521493 0.476841 -0.601557 0.422538 0.0741997 0.447561 0.664129 0.312279 0.102561 0.416941 0.190103 -0.215213 0.530844 0.363098 0.35664 0.232022 0.0186435 0.0962708 0.0482534 0.124219 0.00287108 0.179927 0.315386 0.164807 0.0296796 0.173505 0.0463772 0.0334195 0.0968771 0.0913237 0.282033 0.252881 0.261587 0.312642 0.228619 0.22933 0.188698 0.0752735 0.124358 0.262697 0.198711
weight: -0.469572 -0.017065 -0.434709 -0.00297389 -0.0325902 -0.0749014 -0.540658 -0.165579 -0.581378 -0.228045 -0.067423 -0.142877 -0.313111 -0.169757 -0.323762 -0.465398 -0.425439 -0.235299 -0.357535 -0.420379 -0.380445 -0.414848 -0.501388 -0.563959 -0.413333 -0.48604 -0.599146 -0.514231 -0.589306 -0.185658 -0.606231 -0.413191 -0.203595 -0.412593 -0.415702 -0.237622 -0.47169 -0.255104 -0.394191 -0.409125 -0.255536 0.572985 0.49902 0.36832 0.550396 -0.815548 0.461316 0.376089 -0.184469 0.982623 -0.790907 0.334335 0.299845 -0.892953 -0.0253906 -0.540468 -0.0272801 -0.940746 -0.280724 -0.630162 -0.780636 -0.744136 -0.526292 -0.14255 -0.327185 -0.229849 -0.374666 -0.0444532 -0.458394 -0.615019 -0.436878 -0.180344 -0.449358 -0.225332 -0.191351 -0.328268 -0.318267 -0.582479 -0.550802 -0.560577 -0.612489 -0.522146 -0.523014 -0.470495 -0.287924 -0.374893 -0.561804 -0.483979
weight: 0.135161 0.00941906 0.138459 0.0016432 0.0179351 0.0405322 0.119419 0.0834138 0.104087 0.106977 0.0366269 0.07356 0.129547 0.0851562 0.131499 0.135702 0.138875 0.109355 0.136281 0.139022 0.138239 0.139117 0.129684 0.111296 0.139133 0.132627 0.0956073 0.12677 0.100454 0.0915745 0.0918748 0.139134 0.0984045 0.139138 0.139107 0.110097 0.134872 0.115428 0.138892 0.493302 1.36985 -0.170462 -0.551861 0.426445 -0.0429392 0.178936 0.347004 0.192495 -0.536699 0.25731 0.0847799 -0.521404 -1.05347 0.18027 -0.312737 0.371863 -0.0660033 -0.0301084 0.256947 -0.251391 0.336234 0.33863 0.123652 0.073414 0.132083 0.107576 0.137847 0.0243791 0.13652 0.0869469 0.138335 0.0894682 0.137409 0.106069 0.0937912 0.132266 0.13052 0.103597 0.116086 0.112577 0.0884003 0.124765 0.124534 0.135036 0.124117 0.137864 0.112116 0.132981
weight: 0.220764 0.00740466 0.207433 0.00128921 0.0141754 0.0330084 0.242464 0.0762239 0.250614 0.107926 0.0296267 0.0650295 0.151456 0.0783074 0.156775 0.21925 0.203642 0.111659 0.17324 0.201531 0.18396 0.199193 0.231483 0.247585 0.198546 0.226499 0.252882 0.235369 0.251736 0.0862955 0.253525 0.198486 0.0954002 0.19823 0.199556 0.112856 0.221522 0.12186 0.19018 -0.0267093 -0.520494 0.196793 -0.22419 -0.0275563 -0.390303 0.100572 0.204468 -0.190485 0.11754 0.0284156 0.0814464 -0.0063277 0.387762 0.0912629 -0.0224304 0.0653718 0.0491993 0.514835 0.502162 0.11691 -0.268051 0.0563749 0.238765 0.0648705 0.158475 0.108854 0.181294 0.0193892 0.216658 0.25409 0.208307 0.0836171 0.21322 0.106531 0.0891757 0.15901 0.154039 0.25078 0.244833 0.246914 0.253956 0.237626 0.237868 0.221094 0.138703 0.181401 0.247161 0.225802
weight: -0.0941382 -0.00736586 -0.0962741 -0.00128511 -0.0140222 -0.03163 -0.0858483 -0.0641041 -0.0781138 -0.0804134 -0.0285964 -0.0568536 -0.0935865 -0.0653651 -0.0945246 -0.0944573 -0.0966384 -0.0819444 -0.0965496 -0.0968004 -0.0971434 -0.0969469 -0.0911206 -0.0817544 -0.0969827 -0.0927069 -0.073776 -0.089597 -0.076263 -0.0699471 -0.0718414 -0.0969871 -0.0746916 -0.0969982 -0.0969273 -0.0824194 -0.0939704 -0.0857313 -0.097217 -0.0726379 0.343111 -0.116252 0.0464336 -0.133464 0.0964985 0.187255 -0.244694 0.00901742 0.0876931 -0.262253 0.0288952 0.14382 -0.43469 0.143191 -0.014625 -0.207429 -0.076898 -0.641333 -0.44455 0.0894489 0.137412 0.0280892 -0.087995 -0.0567445 -0.0947964 -0.0808021 -0.0970504 -0.0190542 -0.0949553 -0.0692554 -0.096178 -0.0684552 -0.0955235 -0.0798213 -0.0715023 -0.0948789 -0.0940607 -0.0778647 -0.0841658 -0.0824003 -0.0700226 -0.0885653 -0.0884469 -0.094065 -0.090756 -0.0970547 -0.0821682 -0.0929014
weight: 0.0369563 0.00130291 0.0341524 0.000227109 0.00248657 0.00569679 0.042552 0.0125413 0.045648 0.0173591 0.00513122 0.0108212 0.0241838 0.0128592 0.0250562 0.0366225 0.0334006 0.0179292 0.0278338 0.0329888 0.0297201 0.0325385 0.0394822 0.0443385 0.0324149 0.0382679 0.0469502 0.0404927 0.046234 0.0140741 0.0474573 0.0324034 0.0154552 0.0323544 0.032608 0.0181122 0.0371255 0.0194973 0.0308488 0.0853575 -0.121231 -0.0205233 -0.0252094 0.0358013 -0.0411123 -0.114226 -0.152875 -0.143309 -0.0179512 -0.0848087 -0.242544 -0.200429 0.139612 -0.0806372 -0.250191 0.0327984 -0.065858 1.7564 -0.0408649 0.0544037 0.0121141 0.0651667 0.041436 0.0107966 0.0253372 0.0175005 0.0292446 0.00338918 0.0360618 0.0480729 0.034328 0.0136673 0.0353352 0.0171465 0.0145112 0.025426 0.0246057 0.0457299 0.0433338 0.0440815 0.0478974 0.0411127 0.0411805 0.03703 0.0221336 0.0292634 0.0441747 0.0381039
weight: -0.0313276 -0.000384299 -0.0306562 -6.6245e-05 -0.000755583 -0.00202062 -0.0295677 -0.00704148 -0.026637 -0.0126517 -0.00176029 -0.00542724 -0.0216728 -0.00736533 -0.0227578 -0.031299 -0.0303125 -0.0133921 -0.0259206 -0.030097 -0.0277407 -0.0298392 -0.0310622 -0.0280679 -0.0297646 -0.0312961 -0.0248811 -0.0307152 -0.0258926 -0.00867094 -0.0240899 -0.0297574 -0.0102742 -0.0297277 -0.0298808 -0.0136319 -0.031336 -0.0154717 -0.0286776 -0.187762 -0.0218554 -0.103218 -0.0603403 0.171922 -0.286956 -0.174505 0.0175072 -0.0900935 0.0263056 0.049392 0.0255903 0.222815 0.0529164 0.229585 -0.0251031 0.0418673 0.142882 -0.020116 -0.0716901 -0.0790238 -0.0518903 0.0990025 -0.0302642 -0.0054058 -0.0230994 -0.0128342 -0.0273107 -0.00106523 -0.0312203 -0.0230253 -0.0307264 -0.00822189 -0.0310587 -0.0123779 -0.00916505 -0.0232064 -0.0222021 -0.0265372 -0.0289717 -0.0283144 -0.0233411 -0.030433 -0.0303984 -0.0313322 -0.019007 -0.0273282 -0.0282264 -0.0313128
weight: 0.0351074 0.00179974 0.0343758 0.000313516 0.0034404 0.00793767 0.0355715 0.0174021 0.0350502 0.0231699 0.00714046 0.0151073 0.0292832 0.0178151 0.0298955 0.0350367 0.0341288 0.0237753 0.0316194 0.0339844 0.0326051 0.033818 0.0354956 0.0353629 0.0337715 0.0353424 0.0345551 0.0355728 0.0348534 0.019355 0.0342979 0.0337673 0.0210249 0.0337482 0.0338447 0.0239658 0.0351422 0.0253495 0.0331278 -0.314799 -0.0719804 0.0348957 0.0297195 -0.00174958 -0.0843827 0.196783 -0.0625921 0.0150678 0.00596573 0.129057 0.161993 0.540617 0.092472 -0.112517 0.0220314 -0.0979161 0.014003 -0.22383 0.0625317 -0.0105308 0.116897 -0.0906885 0.0356004 0.0150737 0.0300852 0.0233221 0.0323701 0.00469749 0.0349077 0.0339217 0.0344308 0.0188464 0.034722 0.0229399 0.0198933 0.0301448 0.029584 0.0350252 0.035507 0.0354069 0.0340367 0.0355962 0.0355973 0.035123 0.0277001 0.0323796 0.0353916 0.035317
weight: 0.141855 0.00724305 0.139198 0.00126184 0.0138432 0.0319146 0.143322 0.0700184 0.141594 0.0935778 0.0287132 0.0607401 0.118869 0.0716929 0.12139 0.141606 0.13827 0.0960724 0.128416 0.137722 0.13236 0.13709 0.143167 0.142591 0.136911 0.142665 0.140127 0.143399 0.140999 0.077953 0.139402 0.136894 0.0847704 0.136822 0.13719 0.0968589 0.141976 0.102578 0.134418 0.352219 0.325126 -0.428756 -0.206031 -0.0764004 0.155407 -0.0937048 -0.115869 -0.144394 -0.233459 -0.242526 0.228893 -0.551946 -0.280339 0.0856722 0.170392 0.258972 -0.134063 0.0970774 0.158111 0.127609 0.362633 0.380096 0.143459 0.0606049 0.12217 0.0942036 0.131426 0.0188978 0.141145 0.13838 0.139402 0.0758822 0.140473 0.0926305 0.0801463 0.122413 0.120109 0.141516 0.143085 0.142739 0.138689 0.143456 0.143458 0.141908 0.11232 0.131464 0.142687 0.142579
weight: -0.0585236 -0.00408066 -0.0587345 -0.000711984 -0.00776745 -0.0175149 -0.0558673 -0.035606 -0.0527906 -0.0450922 -0.0158355 -0.0315252 -0.0538824 -0.0363209 -0.0546602 -0.0585861 -0.0586716 -0.0460261 -0.0566727 -0.0586165 -0.0576506 -0.0585379 -0.0577143 -0.0542716 -0.0585136 -0.0581789 -0.0509806 -0.0572175 -0.0520229 -0.0389378 -0.0501643 -0.0585112 -0.0416884 -0.0585011 -0.0585516 -0.0463175 -0.0584881 -0.0483964 -0.0580886 0.126106 -0.131814 0.124228 0.140113 -0.0204138 0.0693265 -0.0419651 -0.0472358 0.0395114 0.193408 -0.12414 -0.0463231 0.0700287 0.0398811 0.064619 0.0166791 -0.0716068 0.0290129 -0.152959 0.0439654 -0.10791 -0.191807 -0.0288849 -0.0566582 -0.0314642 -0.0548958 -0.0453279 -0.0574329 -0.0105537 -0.0586683 -0.0490685 -0.0587421 -0.038082 -0.0587319 -0.0447342 -0.0398338 -0.0549686 -0.0542679 -0.0526875 -0.0552232 -0.0545304 -0.049394 -0.0568604 -0.056819 -0.0585083 -0.0517625 -0.057442 -0.0544373 -0.0582306
weight: 0.0234065 0.00159044 0.0230523 0.000278026 0.00301205 0.00661406 0.0229979 0.0125323 0.0221149 0.0156222 0.00601425 0.0112595 0.0193649 0.0127552 0.0197963 0.0233837 0.0228966 0.0159573 0.0210629 0.0228016 0.0218058 0.0226889 0.0234088 0.0225489 0.0226565 0.023446 0.0215852 0.0233239 0.02189 0.0135777 0.0213475 0.0226537 0.0144641 0.0226406 0.0227068 0.0160641 0.0234163 0.0168573 0.0221951 -0.112797 -0.0401097 0.136249 0.0740601 -0.0389974 0.0572886 0.0170302 0.1579 0.110197 -0.00187875 -0.0497294 0.0260012 -0.203422 0.160543 -0.237664 -0.0916646 -0.151361 -0.0426696 0.148544 0.443205 0.0643097 -0.0278227 -0.0305384 0.0231998 0.0112404 0.0199323 0.0157057 0.0216289 0.00406891 0.0233331 0.021031 0.0230851 0.0133073 0.0232459 0.0154959 0.0138633 0.0199747 0.0195755 0.022085 0.0228208 0.0226231 0.0211246 0.0232471 0.0232379 0.023411 0.0183035 0.0216363 0.0225965 0.0234457
weight: 0.0319873 0.00176366 0.0299221 0.000307884 0.00335237 0.00750405 0.036685 0.0149714 0.0397143 0.0189593 0.00679531 0.0133036 0.0234959 0.0152642 0.0240355 0.0317323 0.0293954 0.0193757 0.0257546 0.029111 0.0269466 0.0288032 0.034002 0.0383858 0.0287196 0.0330136 0.041124 0.0348547 0.0403357 0.0163421 0.0417038 0.0287115 0.0174915 0.0286785 0.0288505 0.0195075 0.0321174 0.0204757 0.0276771 0.615836 -0.164719 -0.400165 -0.0388894 -0.0926782 0.0942863 -0.107666 -0.230401 -0.425521 -0.0132178 -0.0764473 -0.00392436 -1.01095 0.0365038 0.366006 0.0119813 0.0610425 -0.00434924 -0.0692231 1.56728 -0.000638893 0.0873657 -0.0287264 0.035677 0.0132786 0.024209 0.0190636 0.0266429 0.00454766 0.0313101 0.0424376 0.0300464 0.0159883 0.0307732 0.0188014 0.0167141 0.0242636 0.023757 0.0398 0.037415 0.0381342 0.0422248 0.0353921 0.0354514 0.0320438 0.0222091 0.0266546 0.0382251 0.0328827
weight: -0.0876001 -0.00574451 -0.0862758 -0.00100278 -0.0109203 -0.0244666 -0.088768 -0.0491197 -0.0888667 -0.06237 -0.0221503 -0.0435639 -0.0758476 -0.0500979 -0.0771684 -0.0874728 -0.0858163 -0.0637224 -0.0808228 -0.0855447 -0.0828459 -0.0852303 -0.0883329 -0.0888543 -0.0851412 -0.088029 -0.0888557 -0.0885241 -0.0888637 -0.0536986 -0.0888487 -0.0851325 -0.0575302 -0.0850967 -0.0852797 -0.0641474 -0.0876617 -0.0672207 -0.0838899 0.00880354 0.148967 0.214515 -0.0430442 0.0613249 0.180684 -0.10946 0.241064 0.125482 -0.10793 0.108584 -0.0627903 -0.337661 -0.0649201 -0.061397 -0.181265 0.0476444 -0.0195429 -0.0506442 -0.46019 -0.0855349 -0.0604346 -0.114094 -0.0886578 -0.0434809 -0.0775764 -0.0627096 -0.0823695 -0.0148161 -0.0872408 -0.0888407 -0.0863765 -0.0525172 -0.0869067 -0.0618543 -0.0549409 -0.0777032 -0.0764975 -0.0888665 -0.0888175 -0.0888472 -0.0888431 -0.0886168 -0.0886258 -0.0876272 -0.0723985 -0.0823884 -0.0888501 -0.0879811
weight: -0.0628824 -0.00353431 -0.0607872 -0.000616667 -0.00672752 -0.0151806 -0.0665713 -0.0312564 -0.0686786 -0.0404771 -0.0137216 -0.0275294 -0.0506711 -0.0319201 -0.0517597 -0.0626457 -0.0601805 -0.0414514 -0.054943 -0.0598392 -0.0568762 -0.0594577 -0.0645929 -0.0677522 -0.0593516 -0.0637873 -0.0696926 -0.0652491 -0.0691199 -0.0343845 -0.0701237 -0.0593414 -0.0370464 -0.0592994 -0.0595168 -0.0417595 -0.0630019 -0.0440109 -0.0579521 0.159069 0.158121 0.136472 -0.0179138 0.183832 0.0900874 -0.087435 -0.0446736 0.24156 0.0364722 0.217042 -0.228855 -0.0595573 0.186889 -0.319899 -0.366792 0.0334582 -0.0116062 -0.270589 -0.195826 -0.131295 -0.170152 -0.0739144 -0.0658537 -0.0274743 -0.0521008 -0.0407213 -0.0564054 -0.00914133 -0.0622402 -0.0706834 -0.0609257 -0.033572 -0.0617013 -0.0401076 -0.0352428 -0.0522081 -0.0512029 -0.0687396 -0.0670805 -0.0675787 -0.0705191 -0.0656469 -0.0656902 -0.0629348 -0.0479312 -0.0564238 -0.0676413 -0.0636759
weight: -0.051013 -0.00242199 -0.0478935 -0.000422413 -0.00461527 -0.0104734 -0.057178 -0.0219219 -0.0604914 -0.0287248 -0.00945544 -0.0192294 -0.0369148 -0.0224042 -0.0378906 -0.0506411 -0.0470609 -0.0294632 -0.0409523 -0.046606 -0.0430158 -0.0461087 -0.0538201 -0.0590957 -0.0459727 -0.0524729 -0.0618873 -0.0549335 -0.0611172 -0.0242024 -0.0624393 -0.0459599 -0.0261622 -0.0459062 -0.0461856 -0.0296974 -0.0512013 -0.0314331 -0.0442518 -0.297153 -0.162615 -0.142547 0.158549 -0.0842342 0.170035 0.170213 -0.0615302 0.286292 -0.121102 -0.0438777 -0.156058 -0.0339994 -0.239984 0.08546 0.21348 0.136214 -0.178775 -0.0947762 -0.290778 -0.0719075 0.0160314 -0.0900622 -0.0559666 -0.01919 -0.038203 -0.0289091 -0.0424957 -0.00627899 -0.0500158 -0.063124 -0.0480881 -0.0236082 -0.0492075 -0.0284461 -0.0248321 -0.0383014 -0.0373878 -0.0605787 -0.0580203 -0.0588215 -0.0629272 -0.0556128 -0.0556872 -0.0510951 -0.0345767 -0.0425161 -0.0589216 -0.0522907
weight: 0.0177875 0.000372405 0.0157714 6.46176e-05 0.000719426 0.00175073 0.0224175 0.00446516 0.0256284 0.00658864 0.00155716 0.00373336 0.0098227 0.00460238 0.0102736 0.017539 0.0152572 0.0068453 0.0117907 0.0149808 0.0128994 0.0146817 0.0197546 0.024182 0.0146003 0.0187888 0.027247 0.0205916 0.0263306 0.00513155 0.0279408 0.0145929 0.00573965 0.0145607 0.0147276 0.00692809 0.0179145 0.00756085 0.0135953 0.445196 0.0550079 0.299574 -0.246119 0.0541305 0.0629015 0.047722 0.0628723 -0.10611 0.0581978 -0.0317759 0.0928631 -0.133366 0.238822 -0.031684 0.0638563 -0.20092 0.0137435 -0.145618 0.0124602 -0.246496 -0.250171 0.288007 0.0214055 0.0037231 0.0104212 0.00665202 0.0126139 0.000993984 0.0171266 0.0288444 0.0158928 0.0049536 0.0166023 0.00649317 0.00532318 0.010468 0.0100392 0.0257243 0.0231648 0.023915 0.0285789 0.0211227 0.0211814 0.0178428 0.00880422 0.012625 0.0240115 0.0186616
weight: 0.0752421 0.00392187 0.0721812 0.000684201 0.00746775 0.0168832 0.080323 0.0350554 0.0825626 0.0458147 0.0152539 0.0307946 0.0583614 0.0358186 0.0597674 0.0748961 0.0713012 0.0469771 0.0639805 0.0708086 0.066623 0.0702608 0.0777037 0.081664 0.0701088 0.0765552 0.0833832 0.0786103 0.0829411 0.0386652 0.0836818 0.0700946 0.0417667 0.0700344 0.070346 0.0473454 0.0754158 0.0500607 0.0681237 -0.122358 0.106078 -0.11166 -0.108259 -0.0550573 -0.180727 -0.0251913 -0.118569 0.313546 0.001198 -0.056241 0.127513 0.0393541 -0.337303 0.215888 0.0988422 0.0436528 0.0388923 0.101783 -0.00315641 0.0718987 0.133375 0.06573 0.0794173 0.030732 0.0602115 0.0461052 0.0659729 0.0101511 0.0743031 0.0840277 0.0723831 0.0377242 0.0735148 0.0453754 0.0396617 0.0603511 0.0590467 0.0826163 0.0809261 0.0814794 0.0839313 0.0791449 0.0792024 0.0753181 0.0548902 0.0659988 0.0815466 0.0763951
weight: -0.00433734 0.000472448 -0.00298745 8.28998e-05 0.000885428 0.00182622 -0.00785821 0.00248044 -0.0105239 0.00195046 0.00168547 0.00249562 0.000434256 0.00246601 0.000196474 -0.00416465 -0.00266152 0.00185142 -0.000627047 -0.00248921 -0.00125124 -0.00230521 -0.00576816 -0.00931048 -0.00225549 -0.00505225 -0.0118921 -0.0064081 -0.0111169 0.00238092 -0.0124793 -0.00225095 0.00223227 -0.00223153 -0.00233344 0.00181842 -0.00442665 0.00154868 -0.00165425 -0.141184 0.152835 -0.175871 0.0853658 0.0193333 -0.0857889 0.00687905 -0.0369173 -0.330072 -0.0720149 -0.0228024 -0.126346 0.11549 -0.92369 -0.113137 -0.243088 -0.00929979 -0.0105625 -0.0425647 -0.0137995 2.08516 -0.0184376 -0.146657 -0.00704627 0.00249491 0.000118067 0.00192648 -0.0010884 0.00118139 -0.00388192 -0.0132436 -0.00306549 0.00241461 -0.00352948 0.00198574 0.0023397 9.30415e-05 0.000320733 -0.0106043 -0.00846824 -0.00908825 -0.0130193 -0.00682284 -0.00686918 -0.0043763 0.000957044 -0.00109473 -0.0091684 -0.0049599
