weight: 0.264801 -0.17124 0.315694 0.229918 0.347413 -0.366323 -0.273516 0.20401 -0.26543 -0.00728458 -0.0939073 0.0460301 -0.199516 -0.0493325 0.38793 0.351896 0.0136684 0.13829 -0.422034 -0.00181943 -0.588125 -0.319812 -0.427044 0.294016 -0.443854 -0.163307 -0.433797 -0.453582 0.390006 -0.346333 -0.0488963 0.274815 0.0483559 -0.268256 0.0628617 -0.045648 -0.0688828 0.401551 -0.271783 0.197979 -0.0375549 0.152687 -0.164071 0.334247 -0.270848 -0.160535 0.207932 0.354787 -0.494226 0.380073 0.0121098 -0.563744 -0.390501 0.0990034 0.325933 -0.215404 -0.493636 -0.444436 -0.155227 -0.500574 -0.325944 0.420624 0.320641 0.232767 -0.297626 -0.0718293 -0.188499 0.213673 -0.0888795 0.0858194 -0.0326938 -0.545806 -0.24042 0.284146 0.375652 0.137879 -0.315956 0.183342 0.116475 -0.203471 0.0118176 -0.398322 -0.109699 0.313898 0.213042 -0.24063 -0.3352 0.329077
weight: 0.0107745 -0.00188231 -0.0212943 -0.10604 -0.0410344 0.0281275 0.0116426 0.0282799 0.000376907 0.022868 0.0383495 0.0128262 0.0216892 -0.00691325 0.0804057 0.0114733 0.0242339 -0.0131662 -0.0201962 -0.0388961 -0.00188606 -0.00946492 0.030176 -0.0736876 -0.0444031 -0.040525 -0.00334854 0.00972601 -0.099223 0.013837 -0.00467346 -0.0417664 -0.0151405 0.00577347 0.0320672 0.0224824 -0.0585184 0.00196336 -0.00947406 -0.0504222 -0.0197224 -0.102608 0.48571 0.205551 -0.176585 -0.139203 -0.143012 -0.0617063 0.0047064 -0.0621131 -0.0708132 -0.0585412 0.0451555 0.0730564 0.0115497 -0.00649645 -0.0086456 -0.0198697 0.0128952 -0.00132281 0.0291807 0.000146963 0.0136456 -0.0238604 -0.0586852 0.00310244 -0.013805 0.035004 -0.0138601 0.0239146 0.0216176 0.0341532 -0.0260105 -0.0345431 0.0193584 -0.00142654 -0.0373447 -0.0556821 -0.013289 0.0313635 -0.0214 0.0115817 -0.0131262 0.0271396 -0.0364611 -0.0154068 0.0212436 -0.00490609
weight: -0.024885 -0.0248665 -0.0293732 0.0218634 0.0206605 -0.0245645 0.0398491 0.046416 0.0272089 -0.00660095 -0.0306842 0.0540349 0.039916 0.0389217 0.000269922 0.00647836 -0.00299845 -0.00520023 0.0106731 0.00042741 0.0210848 -0.00383376 -0.0112497 -0.0612268 -0.00304612 -0.00943634 0.00836396 0.0247979 -0.00683154 -0.0195789 0.0191571 -0.0312542 0.0258251 0.0260551 -0.0235702 0.0105015 -0.0312195 -0.00102042 0.013746 0.068535 0.023519 0.104905 0.00351071 -0.0484834 -0.0248899 -0.0643984 -0.0653228 0.0271076 0.0187244 -0.0343272 0.0158891 0.00351333 0.0119727 -0.023989 0.0844925 -0.0384653 0.0039138 0.0222267 0.0142187 -0.0467427 -0.0229785 0.00198872 -0.00298455 -0.0219306 0.0280821 0.0239568 -0.0587736 0.0105772 -0.0436103 -0.0394416 0.0613179 -0.0208645 0.0122872 0.0242344 0.016533 -0.0269842 -0.0182609 0.0369472 -0.0221591 -0.0118221 0.00462638 0.0169117 0.00878317 0.0343507 0.0523501 0.0285771 -0.00407128 -0.0717933
weight: -0.0407933 -0.0740533 -0.0126991 0.124907 -0.00305768 -0.0717279 -0.0772904 0.0140341 -0.0215271 0.0158331 -0.0443027 -0.0567701 0.104559 -0.0551744 -0.0279817 -0.0143296 0.050351 -0.0718745 0.0557459 0.0419187 -0.0530096 0.0261684 0.143746 0.00731327 0.0367844 0.0245442 -0.049648 -0.0148044 -0.00763443 0.0722523 0.0984884 0.0765934 0.0410669 0.0741938 0.0101575 -0.0837074 0.0150095 -0.0315612 0.0625968 0.028753 -0.0292192 -0.0405743 0.11027 0.0266981 -0.0176225 -0.0246298 0.0663615 0.151171 0.0346677 -0.0923636 0.00942216 0.0916255 0.0860937 -0.0128711 -0.0453508 -0.0217037 -0.0304649 0.0247401 -0.00277155 0.00598943 0.0177232 -0.0363352 -0.0988677 0.0470013 5.43096e-05 -0.019592 0.0245718 0.0127264 0.040394 0.100847 -0.0632312 0.0128186 0.0371876 -0.0658844 0.0570177 0.0239843 -0.0335192 -0.00868366 -0.0157265 -0.00200118 0.0605575 -0.0533084 -0.0660988 0.0141641 0.0549135 0.0595807 -0.0281477 0.00816391
weight: -0.0410761 0.03452 0.02881 0.00276921 0.0926394 -0.0231347 -0.0492057 -0.000829086 -0.117856 0.0209856 0.0867298 0.0466056 -0.0281796 0.0145406 0.0853926 0.0196812 0.0757608 -0.0209948 0.0483375 -0.118126 -0.0410701 -0.0836544 -0.0424269 -0.0233032 -0.0746843 0.0547415 0.0823968 0.0180966 -0.0968799 -0.0128456 0.115889 0.054657 -0.0368333 -0.0428998 0.106729 -0.122532 -0.0122562 -0.0271856 0.0147065 0.0914567 0.0420932 -0.0989118 -0.101742 -0.129612 0.0736053 0.0564333 0.07917 -0.0336043 -0.0924802 -0.0713615 -0.0415029 -0.0111538 -0.0568289 -0.0294367 -0.0895615 0.0492744 -0.0576316 -0.0978247 -0.00317381 0.10786 -0.0326708 0.0299459 -0.0338829 0.0883622 -0.0695533 -0.149371 0.0479262 -0.069123 -0.00407695 -0.0591828 -0.00824144 -0.0916341 0.0111893 0.0340725 0.0397026 0.108895 -0.0060052 -0.00370447 0.0389801 0.0482803 0.0222431 0.0822932 -0.05848 -0.034276 -0.115292 0.0163274 -0.118075 -0.0818784
weight: 0.0769587 -0.00163102 -0.0285547 0.0212513 -0.0567437 0.0499028 -0.1085 -0.0351116 -0.0238806 -0.0327574 0.0355729 -0.0687286 0.0537892 0.0273705 -0.0178372 0.077186 -0.0944616 0.0650112 -0.0435642 0.0840215 -0.00421314 0.104303 -0.00507044 -0.0865507 0.0669261 -0.0259779 -0.00812758 0.0559065 0.103424 0.0342571 -0.0291435 -0.0646704 -0.00224865 -0.0183049 0.057381 0.0183995 -0.0857065 -0.0872283 -0.12309 0.0434665 -0.18283 0.123826 -0.0515639 0.0914311 -0.169389 -0.0744921 0.0187779 -0.227726 0.0376604 -0.0456453 0.0219266 -0.045593 -0.0493205 0.0380459 0.137777 -0.00408765 0.104171 -0.105414 -0.133024 0.0190558 0.072394 0.0234099 0.0268368 -0.0829714 0.00484508 0.0689058 0.0535047 -0.0334204 0.149035 0.0567358 -0.151762 0.15571 0.0526863 0.0511338 0.0175075 -0.0123567 0.11645 0.167259 0.159547 -0.0366398 0.0767004 0.111387 0.147574 -0.074812 0.0948862 0.0531887 0.0352861 0.0331408
weight: 0.0771806 0.0470229 -0.0662969 0.0545101 0.0594231 -0.0775755 0.0196802 0.0659487 0.00889204 0.00566335 -0.0356309 0.0329111 -0.0343712 -0.0462113 -0.0104358 -0.0469905 -0.0707332 0.0180082 0.171767 0.0222299 0.101171 0.0228251 0.0528508 -0.00125609 0.12884 -0.0136714 0.101344 0.085518 0.054067 0.0416609 0.00252049 0.0277142 -0.0385891 -0.0623847 -0.0166287 0.140579 -0.00306124 0.101171 0.0145852 0.0900369 0.0506494 0.161785 0.00242015 0.0595112 -0.0576349 0.0405063 0.0461344 0.0200386 -0.0371436 0.204096 0.057335 0.0501805 0.0458868 0.041335 0.0139868 0.105542 0.0944442 0.014173 0.0164189 -0.0121683 -0.00126341 0.023114 0.0809842 0.0557545 0.0647954 0.101268 -0.0133596 -0.110755 0.0863742 -0.0193689 0.0850794 0.0156447 0.0573416 0.0965755 -0.0171686 0.0947155 0.0593672 0.0991928 0.00489291 0.0197135 0.0317004 0.0215065 0.0043767 0.0559591 -0.00348199 -0.0276927 0.063936 0.0170695
weight: -0.0753829 -0.0671923 0.0849009 0.113311 0.216723 -0.0212154 -0.165217 0.0610959 0.136011 -0.0236325 -0.062915 0.00784772 -0.0795728 0.102645 0.14273 0.143279 0.151965 0.158513 -0.00761313 0.0519798 -0.0519543 0.115619 0.121765 0.113746 -0.0908004 0.0146742 0.040836 -0.0113612 0.120627 0.0599402 -0.0219942 -0.023774 0.228815 -0.170717 0.0451649 0.14956 -0.0109117 0.166565 -0.136525 -0.0640822 -0.133931 0.0562579 0.0141325 -0.227143 -0.129594 -0.069226 0.301318 -0.183505 -0.159787 -0.0684661 0.108155 0.154475 0.200076 -0.059869 0.11917 -0.0994382 0.0913178 -0.063078 -0.0631439 -0.112 -0.106872 0.126943 0.0185445 0.0350463 -0.0108354 0.0217886 0.117315 0.0530321 -0.0398842 0.186571 -0.0490686 0.0440367 -0.114212 0.0712934 0.0882573 0.0464756 0.154327 0.111312 -0.140729 -0.0546991 0.0658417 0.164244 0.113692 -0.0370326 0.160625 0.0252838 0.0879797 -0.0337701
weight: 0.158016 -0.187935 0.0630361 -0.0780805 -0.0598491 -0.114031 -0.190815 -0.0406706 -0.00365865 -0.12104 0.191261 0.128703 -0.0815277 0.104469 0.0404969 0.000477242 -0.029133 -0.180082 0.0582586 -0.0328598 0.0508674 0.18971 -0.0112563 0.0183153 0.0692445 -0.0209039 -0.174015 0.049878 -0.0233658 -0.0653584 0.186676 0.00295468 -0.104143 -0.0584692 -0.018071 0.0151053 0.0290911 0.0887498 -0.0223545 -0.131551 0.0825385 -0.0588632 -0.187304 0.150344 0.0930748 0.13538 -0.0770826 0.178248 0.195371 0.0736006 0.0198397 0.107175 0.0443225 0.179962 -0.0819804 -0.0768213 -0.0683255 0.0441613 0.14644 0.0875678 0.0246919 0.0395573 0.0505532 0.10705 -0.00859907 -0.00372467 -0.190595 -0.12677 -0.110716 -0.166296 0.0643941 0.153088 0.0243432 -0.0848752 -0.0125861 -0.0470938 -0.209141 0.00347143 0.0324663 -0.0951038 -0.141575 -0.0121134 0.0392628 -0.0280744 -0.144618 0.282558 0.0496036 -0.0848794
weight: -0.0758874 0.064811 0.139266 -0.192541 0.0338511 0.0279744 0.103671 0.117627 -0.193827 0.194088 0.104643 -0.170334 -0.0619137 -0.152599 0.0687625 -0.130885 0.162433 -0.100382 -0.149755 0.15654 0.166324 -0.168772 0.151839 0.148177 -0.110172 0.0693334 -0.0235742 0.00298694 0.0566356 -0.0683559 0.0665847 -0.116168 -0.215204 -0.0928946 -0.219767 0.165817 -0.111883 0.13395 -0.0352227 -0.0817943 0.0299521 0.0758675 -0.0382024 0.222779 0.0706459 -0.0798756 -0.24843 -0.0647681 -0.0134706 -0.0860783 0.0260867 -0.166595 -0.158379 -0.0333599 -0.169971 0.134817 -0.149358 0.0359595 -0.172479 0.0921954 0.206809 0.040288 0.113316 0.210662 -0.0928868 -0.213412 -0.0622658 -0.190983 0.194845 -0.209135 0.0837557 0.0569934 0.0353464 0.102967 0.0182841 -0.0661262 0.189166 0.0284989 0.213148 -0.0636068 0.130999 -0.0327762 -0.0387309 -0.224535 0.178615 0.0232217 0.071836 0.0756349
weight: 0.132193 0.188282 0.152734 0.0488342 0.00335598 0.0536958 0.0591422 -0.013667 0.0311196 -0.135585 0.0415305 0.0953621 -0.104799 -0.225707 -0.0684522 -0.0100757 0.138146 0.0853875 -0.131202 0.123836 -0.0487623 -0.125661 0.164873 -0.0302194 -0.0329585 -0.020153 -0.0195591 -0.0600284 0.0485803 0.234353 -0.110681 0.020793 0.0228788 0.167157 -0.04447 -0.0892349 0.0094583 0.148534 0.0997686 -0.109138 0.0804 0.0316686 0.122815 -0.0717834 0.149687 -0.0374139 0.11502 0.0019562 0.0202125 0.137341 0.0173837 -0.164839 0.0466448 -0.147948 -0.158546 0.0660754 0.0577621 -0.0911291 0.0736162 -0.107456 -0.0315595 0.0961886 0.0267106 -0.0405668 0.0666629 0.114083 -0.0424186 -0.0322214 0.0102847 -0.124579 0.156765 -0.131892 0.0404819 -0.0800137 0.13255 0.170195 0.0451534 0.0229124 -0.0582723 -0.0809307 -0.0112566 -0.00953711 -0.0670344 -0.128208 0.0439642 0.0544008 0.0319385 -0.0782878
weight: 0.151933 -0.17898 -0.00697475 -0.133725 -0.244305 0.107128 -0.0418829 0.161505 0.0717483 0.156451 -0.198946 -0.213692 0.265146 0.156723 -0.142585 0.00559123 -0.250821 0.158281 0.0144203 0.181661 -0.0552444 0.135652 0.149763 0.119089 -0.105014 -0.0444914 0.157953 -0.115478 0.0442813 -0.0217041 -0.096956 0.0511355 -0.0284191 0.0658641 0.0638531 -0.0884242 -0.0607148 -0.137487 -0.0941753 -0.140109 0.123736 0.112722 -0.195763 0.0151197 -0.129355 0.00209807 -0.016754 -0.140692 -0.0593336 -0.194188 -0.183748 0.189858 0.118705 0.230374 0.107821 -0.0421763 -0.0621198 0.0406013 -0.0242127 0.126138 0.0344946 0.172429 -0.111483 -0.169098 0.105107 -0.196188 0.0578976 0.106912 -0.163787 0.169819 -0.161423 0.117558 -0.0374611 0.00341962 -0.0390533 -0.0909081 0.015828 0.279692 0.141996 -0.116558 -0.178315 -0.218094 0.209794 0.161231 -0.231447 -0.0882236 -0.176657 -0.0552553
weight: 0.150864 0.133766 -0.219149 0.0766688 0.0302851 -0.0652615 0.0721429 0.110956 0.0870083 -0.054616 0.121288 0.103652 -0.163505 0.192706 -0.030895 -0.0656522 -0.150386 0.100008 0.180359 -0.139787 0.243033 0.134038 -0.194617 0.166862 0.151188 -0.0761339 0.156681 0.212496 0.0287789 -0.154749 -0.0977937 -0.096092 0.0862132 -0.179484 0.098995 -0.22435 0.0264137 -0.0118917 0.116555 -0.0315106 0.00947316 0.0231751 0.294294 -0.0975245 0.0757033 0.0497341 -0.173558 0.223772 -0.0373721 0.270411 -0.152445 -0.0771873 0.116055 0.0252526 -0.0697672 0.165864 -0.0980336 -0.242793 0.1114 0.115445 -0.170888 0.195603 -0.182123 0.0791533 -0.0885491 0.266114 0.13496 0.202569 -0.020714 0.0145282 -0.0465912 0.182875 -0.0695937 -0.217839 -0.0929511 0.197948 -0.0319549 0.0547436 0.0368698 0.207899 0.030514 0.147506 -0.191645 -0.195854 -0.0516124 0.0255487 0.129182 0.0866873
weight: -0.0351869 0.0462021 -0.0268641 -0.110849 0.0114883 0.0192603 -0.222965 0.109391 0.106446 0.00900825 -0.0106845 0.232939 -0.138097 -0.0112781 0.0664988 -0.121903 0.0354776 -0.143237 -0.0725928 -0.0877021 0.0627147 -0.120019 -0.291787 -0.213159 -0.126641 -0.0436765 -0.0581721 -0.0631161 0.0353897 -0.105944 -0.155229 -0.127429 0.127307 -0.0446614 -0.0590079 -0.00742709 -0.189907 0.113013 0.251669 0.1494 -0.101662 0.129128 0.0123222 -0.0447144 -0.126824 0.0561825 0.131181 0.0217845 0.0344589 -0.0329106 -0.0915469 -0.185358 -0.141323 -0.100262 -0.102333 0.0740036 0.187667 -0.00197622 0.172364 -0.0650159 0.0751862 0.199843 0.044247 0.0766164 0.00223421 -0.0707044 -0.0415994 0.0518648 0.180188 0.0184398 0.0133909 -0.240185 0.196945 -0.162521 0.0410687 -0.180229 0.0429213 -0.00245055 0.153512 -0.00636499 0.137259 -0.134097 0.0146932 -0.101138 -0.0259494 -0.215983 0.0891618 -0.0371526
weight: 0.0821666 0.108336 -0.184125 -0.0347719 0.053035 0.201499 0.158285 -0.140638 -0.114376 -0.161535 -0.168168 -0.190243 0.140308 0.0459946 -0.135374 0.110564 0.161879 0.118585 0.117999 0.0841941 -0.0888363 0.0276379 -0.2381 -0.082576 0.218891 0.147663 -0.105421 -0.0241113 0.0916128 0.00127594 0.191387 0.0419512 0.217161 0.185701 0.0131224 0.191382 0.231336 -0.143673 -0.137661 -0.26459 -0.0879269 -0.290951 -0.106955 -0.203831 0.127814 -0.0403783 0.0683131 -0.062233 -0.0958993 0.0151184 -0.0607313 0.0596397 -0.228334 -0.0226969 0.0940061 0.142047 -0.0848792 0.195033 -0.0872892 -0.14311 -0.169593 -0.213276 -0.0715521 -0.090741 -0.177544 -0.12933 0.0413522 0.192094 -0.0665563 0.0543565 -0.134148 -0.0228102 0.0307256 -0.0621251 0.0502322 0.0333945 0.12676 -0.0641239 -0.210979 -0.12416 0.0707671 0.00268344 0.0990125 0.114063 0.102824 0.019338 -0.0198387 -0.178484
weight: -0.0351834 0.0838884 -0.0830645 -0.000334868 -0.0894055 0.0831685 0.127877 -0.192037 -0.0376705 0.0853199 -0.13295 -0.061071 -0.0256036 -0.0631563 0.11296 0.107672 0.146886 -0.0422777 -0.049896 0.0265286 -0.013862 0.052966 0.18099 -0.0407978 0.0359477 0.0401166 0.0183758 -0.00028269 0.0317051 -0.0696543 0.0462473 0.0188259 -0.0489648 -0.151704 -0.0326699 -0.059705 0.113855 -0.0747831 -0.0548871 -0.15403 0.136268 0.106787 -0.183281 0.282277 -0.0356489 0.0917532 -0.0847083 -0.169776 0.047293 -0.168724 0.0797457 0.0544541 0.0257334 -0.0159349 -0.0388921 -0.0895949 0.187129 -0.0250919 0.0664789 0.0161922 0.0629147 -0.0321796 0.134575 0.0089773 0.0589493 0.189041 -0.0388359 -0.100624 -0.119742 0.0318547 -0.0299738 0.016052 -0.0422668 0.104698 -0.108347 0.0219241 -0.0795481 -0.0611291 -0.0222458 0.14266 -0.074568 0.0230343 -0.0482192 0.0714676 -0.062008 -0.00247133 0.042333 0.109342
weight: 0.0768925 0.0780571 -0.00524209 0.00490667 0.00530381 0.0919714 0.0807718 -0.151645 -0.107909 0.0354715 -0.00153686 -0.0344168 0.0252139 0.101832 0.0248993 -0.0234995 0.0918966 0.0360459 0.0721524 -0.0141589 0.0703441 0.0685004 0.0220904 0.0297376 -0.0447762 0.131589 0.107251 -0.041646 -0.0437546 -0.0409002 -0.115228 -0.0885893 0.0194377 0.00933197 0.0101061 -0.0308501 0.0875892 0.0234351 0.00257926 0.232652 0.0199053 -0.118968 -0.118453 -0.0941364 0.0580673 0.035606 0.010445 -0.0673512 0.0741429 -0.00855204 -0.0631545 -0.0741095 -0.0632491 -0.0675121 0.0168322 0.0374229 -0.0817105 -0.0475565 -0.121661 -0.0200101 0.0760406 0.0527368 0.0508755 -0.0137196 -0.0595529 0.0241642 0.0307825 -0.0210868 0.0441574 -0.0768147 0.0380937 0.0991682 -0.00458693 0.0595367 -0.10125 -0.0655777 0.0947062 -0.0459518 -0.0411465 0.0939289 0.0378999 -0.0324155 0.0160481 0.00143471 0.0812916 0.0280186 0.0371316 0.0470744
weight: 0.0384932 -0.103746 -0.132792 -0.0541023 0.102752 0.126349 -0.0374993 -0.112493 0.100176 -0.0925701 -0.066899 0.053622 -0.00154863 -0.0488788 0.0398498 -0.0321524 0.144195 -0.0101793 -0.0627079 0.132009 0.0514489 -0.00693863 0.062181 0.0738034 0.124376 -0.156061 -0.194078 0.078957 0.15452 0.0617288 -0.0464983 -0.000188793 0.0516407 -0.0471695 0.0264677 -0.00884757 0.0310391 0.130658 0.0292499 -0.112524 0.0568111 0.388985 0.0669507 0.0476228 -0.0447184 -0.149254 0.070409 -0.217962 -0.145918 -0.0571939 0.0623891 -0.055229 0.062625 0.118374 0.0215357 0.00122176 0.14437 -0.0653447 0.154712 0.0852377 0.188465 -0.0550579 -0.13911 0.240666 0.0169703 0.0179591 -0.0131393 -0.0984465 0.0765045 0.107855 -0.0727422 0.164991 0.0610805 -0.0953712 0.0784352 -0.0738024 0.0309862 -0.250318 -0.0280872 -0.0145582 0.0605399 -0.00353382 0.0881242 0.0821981 0.0224373 0.108927 -0.120156 0.0169611
weight: -0.156898 -0.187612 -0.0839771 -0.0030204 -0.0995547 0.0494174 0.1467 -0.16141 0.245924 0.190705 -0.139876 0.0557121 0.0134897 -0.0441601 -0.0807085 0.0108899 0.078149 0.211991 -0.0311243 0.014424 -0.0670694 -0.0415773 0.174338 0.041827 0.0183868 -0.0404914 0.00415086 -0.15754 -0.167099 0.2276 0.149151 -0.103287 0.13156 0.0691605 -0.0470154 -0.139655 -0.0811136 -0.136721 -0.129851 -0.361547 0.300321 -0.176447 0.0213228 0.103506 -0.0699902 0.125759 -0.162697 0.172847 0.235609 0.171019 0.110666 -0.00909392 0.0691062 0.249309 -0.00963045 -0.167558 -0.0417088 0.111362 -0.0220879 -0.195257 0.0467681 0.121938 0.0460384 -0.0942714 0.18783 0.140602 0.124794 -0.0886903 0.133243 -0.0292559 -0.0318503 0.0749007 0.0531758 0.0621835 -0.0318435 -0.0336639 0.106587 -0.0225422 -0.149314 0.00885429 -0.0744326 -0.192408 -0.127819 0.0823511 0.101288 -0.00419644 0.141925 -0.0635647
weight: -0.109411 -0.119039 0.0665645 0.162398 -0.0122586 -0.0377091 -0.0325448 0.102154 -0.138655 0.0736755 0.301613 -0.0572422 0.111763 -0.123521 0.142881 0.0885435 -0.220022 -0.109012 0.012645 0.095275 -0.219172 0.0118733 -0.0179207 -0.0337514 -0.0433907 0.159888 -0.0711008 0.0891521 -0.249194 -0.14598 -0.157094 -0.100523 -0.0557788 0.0612723 -0.204829 0.0996609 -0.0256152 -0.131718 -0.0221337 -0.103508 -0.15262 -0.0615416 -0.035994 0.193704 0.117622 0.0571522 -0.0638466 0.106088 -0.165965 -0.340848 -0.0240025 -0.208944 0.192395 -0.158882 -0.028767 0.217326 0.106164 0.138481 0.171946 0.0249121 -0.100536 -0.234815 -0.149792 0.00987709 -0.0954008 -0.14299 0.0335752 -0.025526 0.00447665 0.0234669 0.17393 0.0667098 -0.207646 -0.109087 -0.0602169 0.119124 0.0353836 0.124617 -0.0687976 0.198669 0.101938 0.120635 -0.149042 0.0389021 0.0693573 0.0874522 0.0134718 -0.0459498
weight: 0.0156606 0.0910023 0.0456329 0.197336 0.155092 0.0926193 0.0343673 0.0612412 0.14716 0.150778 -0.124533 -0.0908231 0.0800156 0.00361821 -0.259241 0.0118292 -0.163735 -0.0467629 0.0647572 -0.182814 0.0182674 0.04067 -0.172114 0.00149509 -0.126576 -0.0246648 -0.146225 -0.0982515 0.161365 0.0841619 -0.0539172 0.105026 -0.0289342 0.0334538 -0.0616328 -0.118166 0.0457271 -0.0764969 -0.057577 -0.0753572 -0.0855574 -0.0936585 0.0116931 0.0990028 -0.195142 0.0262268 0.0232008 0.0147195 -0.0957139 0.161411 0.0269643 0.0606042 -0.0541911 0.0544258 0.0931849 -0.0975369 0.119362 0.117044 0.00238707 -0.00423526 0.0998352 0.00508244 -0.0302894 -0.0806006 0.0458978 0.141288 0.0928995 0.154013 -0.101215 0.00236678 -0.0641104 -0.0289337 0.101655 -0.0565343 -0.186828 -0.0960388 -0.073258 0.0509049 -0.0447636 -0.017414 -0.0567353 0.129309 -0.132103 -0.217906 -0.221295 0.230984 -0.178669 0.0868133
weight: 0.0751992 0.0501903 0.067855 0.0140664 -0.0673646 0.0320177 0.228229 0.0644213 -0.0440533 -0.0174049 -0.0535575 0.104398 -0.167617 0.124591 0.0245293 0.234797 0.012747 0.124968 -0.150209 -0.12447 0.0476845 -0.152096 -0.0596222 0.248859 -0.197073 0.1481 0.225116 -0.150829 0.0207765 -0.138139 -0.132385 -0.017798 0.203754 -0.0222122 0.0476554 -0.0818762 -0.173503 0.0254691 0.213277 0.0466932 0.182922 0.139285 -0.309263 0.0461959 -0.0227911 0.198666 0.162273 0.0674608 0.057423 0.0783178 -0.0626485 -0.0412446 -0.193102 0.160404 -0.0754569 -0.117808 -0.060867 -0.117219 -0.0699346 0.226218 -0.136201 -0.0329233 -0.193285 -0.157239 -0.126643 -0.048244 -0.0394022 -0.0397948 0.0237713 -0.0957433 0.0245176 -0.1781 0.0841206 0.0390829 0.111941 -0.0619125 0.0123292 -0.129633 0.233143 -0.0238817 0.0574377 -0.0511165 0.141397 -0.0387971 -0.0554142 -0.240861 0.068025 0.178154
weight: -0.11546 -0.0941915 0.219741 -0.0306508 -0.00167433 -0.163225 -0.00387007 -0.0647781 0.129543 0.107706 0.0863508 -0.0761051 0.0229479 0.00186817 -0.0348016 -0.0286779 -0.0476874 -0.233241 -0.0495631 0.126692 0.0590237 -0.0602186 -0.022964 -0.0786132 0.072002 -0.0645958 -0.127883 0.160857 -0.17484 -0.0925234 0.221399 -0.109679 -0.103351 0.101086 0.114838 0.0836311 0.109837 -0.11389 -0.0659968 0.114708 0.110216 -0.0538428 0.0906708 0.0883389 0.0404966 -0.0349751 -0.0948247 0.190581 -0.0465117 -0.00267664 0.201071 0.164766 -0.0664041 -0.0663481 0.189725 -0.212748 -0.128712 -0.0292091 -0.107102 -0.159168 0.0763306 -0.146343 0.056359 0.116613 -0.0607415 -0.204022 -0.0242739 -0.0668065 0.0323931 0.200143 0.109365 -0.188318 -0.209051 0.147203 0.131286 0.0462172 -0.198983 -0.0771072 0.0398842 -0.101071 -0.0182022 -0.0582104 -0.13544 0.164261 -0.00820531 -0.149834 -0.0715706 0.116931
weight: 0.0554239 -0.0528108 -0.135738 -0.0914004 0.0453042 0.0300809 0.0714005 -0.0261108 0.14891 -0.131105 0.0910283 -0.154346 0.090103 0.00783436 -0.0681469 -0.179145 -0.0022947 0.0282895 0.0602763 -0.0233562 -0.0621593 -0.0170047 0.0420177 0.150328 -0.115576 -0.139394 0.103829 0.0466242 -0.136608 0.117242 0.0980948 0.0746355 -0.0910771 0.00217155 0.00314828 0.0185155 -0.139876 -0.0075222 -0.0368957 -0.37351 0.164616 0.185101 -0.219375 -0.0724982 0.0717238 0.0072146 -0.000110794 -0.240218 -0.0393508 0.000655962 -0.00530593 0.0552145 0.185968 0.0332344 -0.107833 -0.115996 0.059683 0.208212 0.118173 -0.0240711 0.0750333 -0.0216553 -0.0912278 -0.000973894 0.0543652 0.0404921 -0.012029 0.124577 -0.0755112 0.0345504 0.0735486 0.126282 0.0665511 0.235 0.00712566 -0.0273979 -0.086589 -0.16381 -0.0603032 -0.0963957 -0.0215742 -0.0216549 0.155741 0.104267 -0.140554 -0.0844768 0.0949033 0.000472856
weight: -0.169388 0.0094242 -0.025466 0.014771 -0.075728 -0.000689763 -0.0333119 -0.141675 -0.146283 -0.119389 -0.109075 -0.0182229 0.0163199 0.020995 -0.0679036 0.0235688 0.0795728 0.00174192 0.0370539 -0.106011 0.0368006 -0.0732315 -0.0186211 -0.0116132 0.070775 0.0437089 0.124471 -0.0919266 0.0712991 -0.0996492 -0.0402437 0.0662768 -0.165404 -0.0397985 0.0602875 0.0351584 0.114714 -0.0686994 0.029139 0.123582 -0.302153 0.0634898 -0.131727 -0.000515883 0.0976596 0.0130442 0.0567676 0.0153869 0.0741102 -0.170514 0.0307867 0.0139509 -0.0680177 -0.196476 0.0554451 -0.0202863 -0.0337573 -0.0984436 -0.19963 -0.0508587 -0.0309629 0.0407202 0.170293 -0.160258 -0.0228287 -0.0728986 -0.00602538 -0.176039 -0.118661 -0.0719242 0.105818 -0.0716849 -0.0964779 -0.0325169 -0.0207178 0.015418 -0.00614181 0.149716 -0.0156843 0.0426916 -0.0705791 0.113362 0.158338 0.021287 -0.0706621 -0.00319025 -0.0778678 0.0621617
weight: -0.0653166 0.110604 0.149456 -0.090981 -0.0143056 0.0294673 -0.0709497 0.0378645 -0.102141 -0.0235584 0.0261308 0.0799951 -0.0723417 -0.0266103 -0.0507189 -0.0581519 0.0214861 0.090374 0.0418664 -0.154607 -0.0529346 0.19369 0.130732 -0.0962188 -0.118939 0.015945 0.0243317 0.108971 0.175497 -0.0976547 0.0630533 0.0911293 0.0442526 -0.00100574 -0.153022 0.0530253 0.023566 -0.0336738 0.0683657 -0.00869843 0.00765739 0.0762589 0.250965 -0.0195661 -0.191789 -0.0198844 -0.0393678 0.335693 0.0304483 -0.0697005 0.116526 -0.149766 -0.203 -0.144772 -0.0553885 0.117783 0.0502271 -0.0447612 -0.0179883 -0.10835 0.0723536 -0.150236 0.178099 -0.119992 0.138455 0.073407 -0.00558479 0.0981476 0.0147354 -0.0497394 -0.00346084 0.023134 -0.118639 -0.178901 -0.229412 -0.0557567 -0.022577 -0.0515471 -0.0589781 0.08633 -0.0757963 -0.0153504 0.0990502 0.176346 0.175894 0.108931 0.0341791 0.0521047
weight: 0.00615848 0.0707939 -0.00219987 -0.052307 0.0637507 -0.111027 -0.0363802 0.0894551 -0.108475 -0.051934 -0.0423386 0.108242 -0.049411 0.0448699 0.0625097 -0.0240181 -0.175976 -0.0481327 0.00850656 0.0993947 -0.00812191 0.0347003 -0.0329385 -0.0852743 0.106934 -0.0408688 -0.0886892 0.0457953 0.0211619 -0.00879903 -0.0416365 0.0315265 0.0209945 0.0821918 0.102016 0.0406446 0.0854652 0.0520883 -0.111879 -0.0555939 -0.166164 -0.045617 -0.0686199 -0.0889377 0.146638 0.0509032 0.074905 -0.0337899 -0.0441919 -0.0280712 -0.0673488 0.18573 0.0461897 0.0600497 -0.0576249 -0.107533 -0.143119 -0.107909 -0.118357 -0.0202347 -0.105495 -0.0709608 -0.0450348 -0.0260931 -0.0251552 -0.00736589 0.0753299 -0.00830022 -0.0375704 0.0816068 -0.0478316 0.0230962 -0.0305825 0.0175952 0.0435348 -0.0670257 -0.015767 -0.0143427 0.0942428 -0.0285605 0.050604 -0.00857871 -0.0653851 -0.0556304 -0.00838953 -0.0470225 0.0436887 -0.0391876
weight: -0.0979436 -0.013844 -0.0353186 -0.0192579 -0.117382 -0.135856 0.00283382 -0.0221102 -0.0461951 0.0610135 -0.0797196 -0.0156131 -0.114813 0.00313005 0.0774791 0.0411217 0.0307472 -0.05533 -0.0330035 -0.00490055 0.0244889 -0.0727819 0.0382779 -0.114284 0.0305843 -0.00983837 -0.0453648 0.00602886 0.122327 -0.0558285 -0.0101558 0.00661315 -0.0203371 -0.0596607 -0.0659408 0.0330623 0.0379567 0.0506797 -0.0478183 0.106996 -0.0131257 0.00927651 -0.206157 -0.034914 -0.0913402 -0.0692155 -0.308042 0.0560818 0.100478 0.244232 -0.0803332 -0.0194783 -0.11047 -0.0172902 -0.0209362 0.0077553 -0.0973906 0.0789266 0.00527862 0.0564194 0.124782 -0.058252 0.0648389 0.0138571 0.0110649 0.100384 -0.0768215 0.0673021 -0.0487705 -0.105881 0.027467 -0.115487 0.0622534 0.026263 0.0204674 -0.0538341 0.00856413 -0.111721 -0.0543355 -0.00403448 0.00651287 -0.0857978 0.00104694 -0.0378432 0.0312786 -0.0425672 -0.0343583 -0.0183522
weight: -0.013107 0.0306646 0.0800314 -0.017171 0.0486187 -0.00478978 0.0441048 -0.064122 -0.0399059 -0.0911398 0.105054 0.0500104 0.0927122 -0.0951511 -0.0404271 -0.0342203 -0.000393144 0.0829246 -0.0458832 0.0159424 0.00851515 0.0543324 -0.109507 -0.0267797 -0.0490643 -0.0279874 0.0756398 -0.0875382 0.0185211 -0.0610394 -0.068436 -0.0471809 -0.00801901 0.0258781 -0.0375565 -0.00104994 0.0630335 0.0478172 -0.0236957 0.132449 0.00180892 0.0231115 -0.0511645 0.108871 0.098345 0.0614917 0.000899936 -0.0569892 0.0575806 -0.00473537 0.126563 0.0372766 0.0789966 -0.0767322 0.112067 0.0906592 0.0454538 -0.0376477 0.0131003 -0.0889163 -0.0852172 0.00164579 0.0153476 -0.0200995 0.0460685 -0.0916588 -0.00925829 -0.00590308 -0.00372802 -0.0548602 0.0106782 -0.0383223 0.0662168 -0.0178901 -0.00265529 -0.0583093 0.0325098 0.0151975 0.039932 0.0427234 -0.0287857 0.0429382 -0.0569055 -0.025777 0.0594715 -0.0406149 -0.04226 0.0785667
weight: 0.0160092 0.0210072 -0.0276459 0.0694765 0.0567612 -0.0342469 -0.0349881 -0.0179206 -0.0442518 0.0207903 0.0571741 0.035852 0.0066408 0.0355142 0.0106866 0.0511572 0.0100932 -0.0103145 -0.104987 -0.0508485 0.0849805 0.0377609 0.0596112 0.00315357 0.024443 0.108241 0.0300349 -0.0334541 -0.12824 0.0859234 -0.011742 0.00467101 -0.0221918 0.00485304 0.0867696 -0.0134329 -0.0157936 -0.00973314 0.102594 0.147451 -0.0352124 -0.111121 0.16959 -0.0459238 -0.0125121 -0.0687491 0.0496477 -0.039844 0.0677908 0.0705097 -0.0639828 0.0875797 -0.0470229 -0.0244861 -0.0375117 0.0567152 0.0355547 -0.0185581 0.123429 -0.00837679 0.0360233 0.000361551 0.0615368 0.106512 -0.045389 0.0548005 -0.0391853 -0.0282698 0.0442422 -0.0238764 -0.0363341 0.0153396 0.0718266 0.0522515 0.120508 0.0932318 -0.0189734 -0.0767708 -0.0192823 -0.0102936 0.00804434 -0.0431591 0.146631 -0.0171235 -0.0177331 -0.0285818 -0.0266781 -0.00478921
weight: -0.0409964 0.046674 0.0493316 -0.0163252 -0.0284653 -0.104832 0.0358612 -0.018882 0.040265 -0.00859113 0.00451805 -0.0302254 0.015837 -0.0570416 0.0293522 -0.000128631 -0.0758791 -0.0129645 0.0503376 0.030831 -0.0869859 -0.029648 -0.131157 -0.0372449 -0.0152104 -0.0868484 0.000117439 -0.0255119 -0.019972 0.0230184 0.0589033 -0.0533325 0.0198316 0.0146681 -0.0399058 0.0184277 0.0449809 -0.0345393 -0.025285 0.215109 -0.177193 -0.261345 0.171347 0.0542558 0.199076 -0.144288 -0.0652108 -0.0340266 -0.0744482 -0.0404568 -0.00714908 0.0504424 0.0694807 -0.0298241 0.0929787 0.0325493 0.00892455 0.0256303 -0.030772 -0.0329368 0.0257694 -0.0023687 -0.0396199 -0.0750075 0.00321213 -0.0192267 -0.00366155 0.021992 -0.0512721 0.00953845 -0.00562428 -0.0530266 -0.032408 0.0469289 -0.018409 -0.0613811 -0.0288441 0.061909 0.0138741 -0.0494315 0.0257098 -0.00519663 -0.0331119 -0.0154524 -0.0945961 -0.0614582 -0.0452093 -0.00465864
weight: -0.0584364 -0.00239879 -0.0479683 -0.0215123 -0.000710153 -0.0349005 0.0653926 -0.0372322 0.0482578 0.00776967 0.015034 0.00521568 0.0138568 -0.0241082 -0.03094 -0.0672847 0.0329449 0.0138377 0.0568541 0.0623368 -0.0805982 0.0141666 0.00781359 0.0375823 0.034117 -0.0184743 -0.0250651 -0.0278157 -0.00662244 -0.0428604 -0.00345405 0.0169483 0.0626313 0.0133155 -0.0393588 0.000727752 0.0165638 0.00313951 -0.0185372 -0.00403428 -0.0838692 -0.106408 -0.0270572 -0.0661277 0.00810723 -0.00845927 0.0567439 -0.0635254 -0.0684885 -0.024011 0.00421344 0.0213405 0.0101417 -0.00232193 -0.0503735 0.017069 0.0227428 -0.0236668 -0.0159155 -0.0157431 0.00225676 0.00494205 -0.0243175 0.0580811 -0.0137334 0.0385519 -0.0598707 0.0432797 -0.0779748 -0.0247645 0.00740011 -0.0472744 -0.0213176 0.0772872 -0.0593565 0.00730889 0.0125085 -0.0732516 0.0207816 -0.0139214 0.0489358 -0.0433244 -0.0290906 -0.00345046 0.0418803 0.0401902 -0.0281283 -0.0401747
weight: 0.0415464 -0.0338872 -0.020993 -0.0132101 0.00901791 0.042669 -0.0180826 -0.0189865 0.0196416 -0.0621476 -0.0567899 -0.0940398 -0.0074112 0.0824185 0.0906239 -0.015876 -0.064013 -0.035112 0.0209752 -0.0155618 -0.006288 -0.0871182 0.0110345 -0.0163323 -0.0156341 -0.0528458 -0.0201461 0.0415077 -0.0235263 0.0303082 0.000330564 0.00293552 0.0318793 -0.00801322 0.0289908 0.0601861 -0.0415612 -0.0483092 0.0110053 0.318603 -0.418571 0.109306 0.08968 -0.00746916 0.0220861 -0.00355703 -0.00832809 -0.055539 -0.0333712 0.0728126 -0.0467329 -0.110915 0.0307634 0.00317572 -0.0468483 -0.0550782 0.0413353 -0.0130313 0.0260387 0.0510469 -0.00718982 -0.0594494 0.00643896 0.045081 0.036136 -0.0258058 0.0135468 -0.0973864 -0.018026 0.0270457 -0.0123845 0.0746103 -0.0173665 -0.0504602 0.0642351 0.0270666 0.014921 0.082269 -0.0612288 -0.0441439 0.0317488 0.0382314 0.0138902 -0.0493724 -0.00440445 -0.0369886 0.0432361 0.0328867
weight: -0.0399546 0.00837302 0.0277963 -0.0538643 -0.0309319 -0.00861507 0.0147144 0.0200477 0.00272683 0.0031372 -0.0415012 0.000917197 -0.0486474 -0.0621787 0.00021628 0.0521266 -0.00920338 0.04036 -0.0414685 -0.103169 0.0206738 0.0305631 0.00707026 -0.00418128 0.00557433 -0.0269304 0.0131123 -0.0248637 0.0250419 0.031591 -0.0161752 -0.0172965 -0.0851037 -0.00312017 -0.0462189 0.0198679 0.0137911 0.0256444 0.0134022 0.835254 -0.232878 -0.105828 -0.196013 -0.176612 -0.0377707 -0.116924 -0.0129711 0.0223977 0.0151223 0.00381032 -0.0175403 -0.221116 -0.069113 0.0139761 0.00985826 -0.0114517 -0.0392013 -0.0311185 -0.0068281 -0.0311868 -0.0346454 -0.0370752 0.0815417 -0.0169587 -0.0318019 -0.00673939 -0.0153824 0.0789697 0.0388981 -0.00507604 -0.0246302 0.00366448 -0.0117865 0.00225322 0.00924908 0.0139404 -0.0275426 -0.0172234 0.0372582 0.0427799 -0.0269115 0.0197964 -0.00617691 0.0747808 0.0471335 0.0231317 -0.0580345 0.00662544
weight: 0.0417446 0.0496907 -0.0100097 0.0284331 -0.0530161 -0.0426774 0.0583574 0.025619 -0.0666111 0.0263565 0.0453381 -0.00521629 -0.00622707 0.0469963 0.0363923 -0.0611929 -0.003067 0.0283956 -0.064736 0.0395015 0.043603 -0.0243069 0.022471 -0.0477823 0.0295515 -0.0344626 -0.0378179 0.0549167 -0.0107502 -0.00451198 -0.0180596 0.00801162 0.029965 -0.017927 0.0490983 0.00748341 -0.0296659 -0.0217914 0.0125037 0.647073 -0.0257339 -0.0208999 -0.0352682 -0.0699509 -0.036173 0.0584084 -0.0481893 0.0077941 -0.0868316 -0.0492328 0.092769 -0.0509606 0.0252474 -0.00548995 -0.0552577 0.0496423 0.0406919 -0.0293959 -0.0206724 -0.0141731 0.0639692 0.00973812 0.0448125 -0.0150956 -0.0245826 -0.0174178 0.021449 0.00485346 0.00657098 -0.0198866 -0.018205 0.0169078 0.00228821 -0.00830893 -0.0222349 -0.0347727 0.00207619 -0.0357347 0.00359163 -0.061976 -0.0168709 0.0219857 0.00199406 0.0168704 -0.0595369 -0.0386359 0.0609553 0.00359297
weight: 0.0134365 -0.0227078 0.0319903 0.0277993 -0.0217809 -0.0212958 0.0315631 -0.0484814 0.0367532 -0.0136028 -0.036095 0.0418251 0.032101 -0.0332897 0.0339442 0.0312456 0.0313357 0.00953022 0.0418838 0.047472 -0.0210789 -0.0168834 0.0279926 0.0275193 0.0132738 0.0102055 0.0220466 0.009432 0.0219029 -0.0418124 0.0288424 0.0237 0.0534916 -0.0575549 -0.0549448 0.0134995 -0.00621877 0.0446456 0.00876245 0.106375 0.548393 -0.262997 -0.262017 0.0265323 -0.0958046 0.0302257 0.0597782 0.0667265 0.00841583 -0.060234 0.00141405 0.00339103 -0.0737031 -0.0467056 -5.56088e-05 0.0288898 -0.0241667 0.0243323 -0.027469 0.0173913 0.0227994 0.0457929 -0.0182173 0.028398 -0.0311014 -0.0285237 -0.0349925 -0.0193031 -0.0177013 0.00178647 0.0148954 -0.0450834 0.00479779 -0.0135019 0.00861364 0.0421824 -0.0417719 -0.0536127 0.00650254 -0.0350982 0.00889292 -0.0183227 0.0266647 -0.0461564 0.0249621 0.0620577 0.010477 0.00615573
weight: -0.0315439 -0.0188987 -0.0383966 0.00135075 0.00665546 0.042268 -0.0149883 -0.0135874 0.026167 -0.00264174 0.00634116 0.0519616 0.0416216 0.0158995 0.0243984 -0.0154557 0.0438277 -0.0238544 0.0341179 -0.0046327 0.00796754 -0.010925 -0.0582488 -0.017128 0.0313091 0.00583123 0.0237036 0.0472345 0.0535791 -0.0198316 -0.0170318 0.0118108 -0.0559727 -0.0039683 0.0667403 -0.0337866 0.0712529 0.0246942 -0.0628297 0.148513 0.36447 0.0384698 -0.109971 -0.0235327 0.0166592 -0.0105896 0.0152328 -0.0216785 -0.0061203 0.0002185 -0.0803574 0.0702108 0.117223 -0.0239068 0.00693411 -0.0189202 -0.0598227 -0.0299394 -0.0182069 0.0235346 -0.0131765 0.072477 0.0124884 -0.00496542 -0.0401408 0.0523421 0.00504805 0.0240319 0.0123015 0.0212145 0.0049164 -0.00906595 0.0153313 0.0390679 -0.054223 -0.0628733 -0.000698721 0.0482923 0.0161637 -0.00737823 0.0161899 -0.0495219 0.0290382 0.0343718 0.121155 -0.0521228 -0.00938182 0.0325988
weight: 0.0212386 0.00302126 0.0644557 0.0197913 -0.041211 0.0154535 -0.000844542 0.000344157 0.0395525 0.0947425 -0.0854512 -0.000289907 -0.0362132 -0.023095 -0.0782466 -0.0101688 -0.038435 -0.00455482 -0.0188134 -0.00226933 0.0282953 -0.00382069 -0.0320862 0.0301046 -0.0403581 -0.00476898 -0.0278787 0.0534388 0.0129914 0.115484 -0.0382365 -0.0822013 0.0102403 -0.00598877 -0.00832573 0.00171399 -0.00832054 0.0523621 -0.00474248 -0.0710876 0.203187 0.289697 -0.103684 -0.0443648 -4.82787e-05 -0.0713553 -0.0494398 0.0215853 -0.134897 0.0505651 -0.0570987 -0.00471758 0.0445488 -0.0243271 0.0678156 0.0387347 -0.00239433 0.0222757 0.025202 -0.034164 0.0574078 -0.0145761 -0.0446828 0.0121168 0.0317938 -0.0405973 0.022613 0.0265155 0.0268841 0.00692088 0.0166218 -0.0124481 -0.0133617 -0.0365974 0.00672888 -0.075048 0.0370541 0.0477999 0.0420296 -0.00117346 0.0406938 -0.0733138 -0.0863575 0.00369376 -0.0134967 0.0238983 0.00359797 0.0324832
weight: -0.0246651 0.00342071 -0.0542278 0.0376193 -0.0547244 0.0478429 -0.0150282 -0.00781966 0.0530993 -0.00986525 -0.00969806 0.00210016 -0.00550946 0.00776196 0.0113792 -0.00308213 0.000343839 0.00792462 0.0157375 0.0189742 0.0345426 0.0291865 -0.0227896 0.049488 -0.00424983 -0.0409313 0.0866183 0.0302314 0.00534059 -0.0179376 -0.0137272 -0.0395105 0.00325668 0.00391088 -0.0032228 -0.00374461 0.0437011 -0.0481149 0.0483629 -0.137969 0.0993785 0.423661 -0.163002 -0.211055 -0.0808693 -0.107985 0.00782978 0.00803474 0.042944 0.0164058 0.013164 -0.00742285 0.0589592 0.0130737 0.0337367 -0.00730549 -0.0109565 -0.000591079 0.0158125 -0.00143989 0.0488346 -0.00855208 -0.043801 -0.00464615 0.0145096 -0.0172569 0.05304 -0.0296877 -0.0466786 0.0849151 0.0306561 -0.00666024 0.013919 0.030997 -0.00724825 0.0247983 0.059552 0.0400072 -0.0131105 -0.0251252 -0.0633337 -0.0260033 -0.0240834 -0.0138616 -0.0334648 0.0335634 -0.0365005 0.024017
weight: 0.0100574 0.0228359 0.00631678 -0.0137113 -0.0344764 0.0529429 0.0343082 0.0223569 -0.0411227 0.014149 -0.0223741 0.00542871 0.0238788 0.0596705 -0.0109904 0.0314523 0.0399887 0.00206089 0.00396334 0.0312774 0.057435 -0.0244606 0.023196 0.024851 0.0169591 -0.0543802 0.00486079 -0.0404847 0.0057668 0.0168905 -0.0317948 0.0293065 -0.0446194 -0.00552931 0.033083 -0.0354863 0.00415464 0.0203322 0.00206138 -0.0604089 -0.127381 0.177043 0.0773021 -0.0714276 0.000269765 0.0257211 0.0304769 0.00183563 -0.00717985 0.0300796 -0.0399011 0.0506224 -0.0622769 0.0658124 -0.0152861 -0.0325825 0.0255034 0.0517397 -0.0263338 -0.0167081 -0.013212 0.0394431 0.0464152 -0.0237094 -0.0442581 0.0177353 0.0211685 0.0232161 0.0013477 -0.0249978 0.0168694 0.0188318 0.0072877 0.00507699 0.0258262 0.000642046 -0.00853276 -0.0656943 -0.0426453 0.000628775 -0.0190691 0.00806708 0.0308336 -0.0341591 -0.00854761 0.0255038 0.00636566 0.0380784
weight: -0.0045494 0.0108829 0.0152994 -0.00142063 -0.0408892 0.030379 0.00970981 -0.0240744 -0.0434441 -0.0617174 0.0125375 0.0275355 0.00552018 0.0485367 0.0317461 0.0207347 -0.00416711 0.00776847 0.0266328 -0.0409134 0.0303596 -0.0135298 0.0581219 -0.0478988 0.00201781 -0.017215 -0.0200119 -0.0616243 -0.0363906 -0.014185 0.0319055 -0.0210285 0.00264381 -0.0179779 -0.0154331 -0.0349087 -0.00527016 -0.00345077 -0.0286466 -0.0274253 -0.164837 0.0844899 0.569604 -0.204224 -0.110976 -0.0151266 -0.0898128 -0.111609 0.0321874 0.0140217 -0.0641961 -0.116463 0.0422832 0.0457128 0.00448331 0.0346451 0.0704684 -0.0123525 0.011693 -0.0570998 -0.00398613 -0.0180291 -0.0195475 -0.0251937 -0.0370306 0.00690548 0.01814 0.0166693 -0.0539288 -0.012922 -0.0140106 0.0307444 -0.0242894 0.0254678 0.0609794 0.037834 0.0280156 -0.0314929 -0.0571767 0.0678938 0.00372385 0.0292907 0.0419869 -0.000781065 -0.0544077 0.0570825 0.019302 0.012045
weight: 0.0349498 -0.0391224 -0.0109872 -0.00775699 0.0315695 0.00394407 0.0497418 -0.00863352 -0.000160474 0.0237184 -0.0304134 0.0406837 -0.00607384 -0.0127868 -0.00369241 -0.0393153 -0.0140988 0.0276268 0.038494 0.0402427 0.0263435 0.00393824 0.0133027 -0.0194552 -0.0463113 0.00451758 0.0198391 -0.0129014 -0.0127107 0.0103363 0.0245086 0.0211815 -0.0302658 0.00105961 -0.0232312 0.100516 -0.0193437 -0.00332975 0.0203523 -0.0599624 -0.0286786 0.032306 0.0788609 -0.23864 -0.00950756 -0.0921605 -0.032667 -0.0385436 0.0711003 0.0413091 0.0114405 0.00414081 0.0196378 -0.0252171 0.0253044 -0.0137499 -0.0127698 -0.0192761 -0.00964993 0.027279 -0.0175773 -0.00277183 0.0102014 0.0244472 0.0190371 0.0104919 0.0128743 -0.0272202 -0.0267669 0.0398766 0.0282185 -0.0426964 -0.0593664 0.0777639 -0.0298734 0.0106547 0.0118799 -0.0293368 -0.0544172 0.017791 0.00267199 0.0377082 -0.0229079 0.0386395 0.0210908 -0.0107544 -0.0146425 -0.00283623
weight: -0.0381201 -0.0397554 0.0130412 -0.00970101 0.0138865 0.0171522 0.0369769 0.0235226 0.0334527 -0.00615246 0.0399093 0.0166088 -0.0062873 -0.0842967 -0.0298455 0.0533535 -0.00726943 -0.0221216 0.0310631 0.0036611 -0.0351193 -0.0129487 0.0250659 0.0313324 -0.0418464 0.0159512 -0.0146269 -0.0400319 -0.0460061 0.0144977 -4.88528e-05 0.0117721 -0.0428831 -0.02223 -0.032866 -0.0343021 -0.10175 0.0407294 -0.0200618 -0.0304156 -0.140797 -0.0339641 -0.0278344 0.660288 -0.0688729 -0.123046 -0.0556124 -0.183941 -0.0309318 -0.0269853 -0.00883521 -0.0201358 0.0222635 0.0715589 0.00260214 -0.0503909 -0.0379043 -0.0072705 -0.0270052 0.0238927 -0.0107599 -0.0147678 -0.0214827 0.0699709 -0.0409568 -0.0131594 -0.0207799 0.0196636 0.064233 -0.0317953 -0.00188743 0.0225461 0.0482185 -0.0439777 -0.0117401 -0.0195278 0.0113253 -0.0354689 0.0498423 -0.0375253 -0.0134476 -0.0300096 0.0384983 0.0105455 0.019849 0.000296763 0.0208178 -0.039483
weight: -0.0326198 -0.0125514 -0.00310211 -0.0112684 0.0333233 -0.0512391 -0.0199029 -0.0459502 0.0604724 0.0109259 0.0178022 0.0198124 0.0228826 0.0257116 0.0714922 0.00229073 0.0317121 -0.0254862 0.061951 0.0315842 0.00703588 0.0225494 0.0685155 -0.0242652 0.015247 0.054728 0.0235345 0.0155128 -0.0683669 -0.00278149 0.0100619 -0.00454869 0.0828838 0.0148464 0.0110459 -0.031996 0.0022719 0.0402952 0.0140848 -0.108608 -0.103117 -0.0176331 0.0562192 0.197839 0.11703 -0.0157148 0.00040335 0.10355 -0.00767509 -0.0259163 -0.032449 0.0525657 0.0564076 0.000365356 0.00474433 -0.0419068 0.0309933 0.0134941 0.00867604 -0.0289182 -0.0318207 0.0038836 0.00844209 0.0083474 0.05641 -0.0301426 0.0150069 0.0230721 0.0270739 0.0059206 -0.000775686 0.0644964 -0.00964797 -0.0377142 -0.0210511 -0.00607317 -0.0270207 0.0297628 0.00455222 0.0263703 0.0562672 0.0297965 -0.00240531 0.0119357 0.000857307 0.0184978 -9.27286e-06 0.00741089
weight: -0.0174683 0.0645333 -0.0468177 -0.00129974 0.0330774 -0.0219811 0.0183205 0.0216925 0.0236368 -0.00808994 -0.0178354 -0.0069756 -0.0245395 0.00276586 -0.025362 0.00851103 0.0353351 -0.00144154 0.0437301 -0.009134 0.0372831 0.00986099 -0.0177813 -0.038959 0.00135952 0.0309919 0.025978 0.0558052 0.0124677 0.0679622 -0.0161212 0.000319526 0.0343282 0.00249679 -0.0346737 0.0157252 0.00199141 -0.00769795 0.0264971 -0.0493866 0.0066664 -0.100008 0.00307648 0.00668493 0.183302 -0.0354392 0.00628211 0.0267115 -0.0630141 -0.0473014 -0.041024 -0.0155174 -0.0225732 -0.00481865 -0.0498064 0.0241204 -0.00168312 -0.00407762 0.00681529 0.0233324 0.0481212 0.0321149 0.00102956 -0.00815862 -0.0151728 -0.00832706 -0.0278811 -0.00809974 0.0158505 -0.0406074 -0.000206449 0.0148876 -0.0385706 -0.0155507 -0.021561 0.0597857 0.0252151 0.0412757 0.00494173 0.0137459 -0.089177 0.00730166 0.0040403 -0.0123458 0.0154404 0.00728333 0.0237981 -0.0166481
weight: -0.090274 0.00577992 -0.0573803 0.012673 -0.00552039 -0.0188714 -0.00039395 0.0614714 0.0213263 -0.021156 -0.000272133 -0.0059413 0.021487 0.0176075 -0.029667 0.0476179 0.0127952 -0.00198644 0.0109612 -0.0462823 -0.00231309 0.0619525 0.0470063 -0.00723621 -0.00460574 0.0135043 -0.000551489 0.0493798 0.00102533 -0.0109584 -0.0148313 0.00839944 0.0252552 -0.0106078 -0.0392214 0.0403834 0.000428782 0.00127944 -0.0379208 -0.0657532 -0.0102236 -0.047622 -0.0296126 0.0238442 0.509132 -0.0759629 -0.125997 -0.117477 -0.03293 -0.07962 -0.0202908 0.0242899 0.0131137 0.0161369 -0.0104569 0.0120406 0.0537847 0.0264959 0.030352 -0.030129 0.0402103 -0.00939628 -0.0236289 -0.0225826 0.0743481 0.0250314 -0.0122735 0.00794411 -0.0313099 -0.0328059 -0.00544552 0.00355041 -0.0178032 -0.0321204 0.0169181 0.0115634 0.0104808 0.00657924 -0.0186159 0.01791 0.0364915 0.00555673 0.0382149 0.0181225 0.00973648 0.0247307 0.00766037 0.0292029
weight: -0.0691695 0.00396931 0.0634027 0.00446589 -0.00338991 -0.00689517 0.000439494 -0.0199777 0.0154214 -0.0242295 -0.01462 -0.0109154 -0.000457796 -0.00584285 0.0136819 -0.014612 0.031485 0.00515766 0.00186064 0.0237685 0.020258 0.00562356 0.0452547 0.0242877 -0.0181799 -0.0358414 -0.0254547 -0.034721 0.000504903 -0.0122781 -0.00740522 -0.00556669 0.0252224 0.0382176 0.0339098 -0.0186807 -0.0222618 0.0391952 0.0153782 -0.0578251 -0.092426 -0.0467581 -0.00859396 0.152385 0.0395806 0.0788338 -0.0565457 -0.00549937 0.016748 -0.0116666 0.0595206 -0.0094234 -0.0152134 0.0153779 0.0437453 -0.0244993 -0.0307595 0.0270059 0.0235269 -0.0585684 0.0421192 -0.0146183 0.0122708 -0.00646404 0.0362037 0.00355441 0.0260752 -0.0292651 -0.0553133 0.0375576 -0.0405277 -0.00738499 -0.0350555 -0.02001 -0.00313149 -0.0490696 -0.0153145 -0.0366291 0.0267071 0.0206298 0.0205677 0.000539298 0.049849 -0.0185847 0.024161 0.0330818 -0.0445651 0.00727042
weight: 0.0550067 0.00160594 -0.0198624 -0.0298297 -0.0740502 0.0407168 0.00901893 -0.00390959 0.0317677 0.0169535 -0.0255462 0.00923256 -0.00244374 -0.018611 0.00595554 0.0265961 0.0359729 0.0204042 -0.00904339 0.002242 0.0213326 -0.0255306 -0.000115909 0.020485 0.0296995 -0.0175772 -0.0369277 -0.027106 0.0551887 -0.0341754 -0.0145795 -0.0263619 -0.0153039 -0.0865578 -0.0011561 -0.013521 0.010303 0.00244505 0.00215954 -0.0112525 0.0360945 -0.0674986 0.0450861 0.047312 0.0677698 0.420046 -0.112848 -0.157797 -0.03577 -0.0462651 -0.07317 0.00931741 -0.0742246 -0.0290846 -0.0127161 0.031067 -0.0254022 -0.0176424 0.0320203 0.0746093 -0.0378329 0.0167427 -0.0137213 0.00658363 -0.0469974 -0.0102188 -0.00434559 -0.00441353 0.038347 0.00157366 0.0014025 0.00846743 0.0200234 0.0306897 -0.0657802 -0.00195854 -0.0270211 0.00560727 -0.077591 -0.0173996 -0.0267335 0.00725538 -0.00669834 -0.0475131 -0.00581645 -0.0563008 -0.0273253 -0.0494096
weight: -0.0152602 0.0148913 -0.0245961 -0.00682836 -0.0127673 0.0361147 -0.0532588 0.0145076 -0.0263814 -0.0100147 0.0213495 0.0580435 -0.00410497 0.00727112 0.00474308 0.0100397 0.00604376 0.0427993 -0.00519812 0.0139301 0.0315586 -0.031068 0.0200328 -0.0399636 -0.00508647 0.0562058 0.0242567 -0.045229 0.0431874 0.00709848 -0.0123495 -0.0236459 -0.0330903 0.0286631 -0.0139444 -0.0672893 -0.0200446 0.0153388 -0.0207648 0.0379019 0.0339938 -0.0299247 -0.0739873 -0.00148085 0.092211 0.349731 -0.00840742 -0.0591356 -0.0326432 -0.0100184 -0.00661247 0.0224518 0.0254367 0.0205007 -0.00902934 0.0474214 0.0104244 0.0270357 0.00839601 -0.0255132 -0.00823568 0.0322946 0.0278458 0.0167657 0.0299374 0.0197339 0.0479873 -0.00436352 0.00683698 -0.00177382 0.00651685 0.00621597 -0.0395927 -0.00782807 -0.00696002 -0.028984 0.0246511 0.0237889 0.00628662 -0.0310084 -0.029393 -0.00705229 0.0183629 -0.0370902 0.0295068 0.0330687 0.0634443 -0.00859656
weight: 0.0605203 -0.0118605 -0.0885481 0.0267175 -0.0569413 0.0180049 0.00728732 -0.0132116 -0.0199424 0.0365515 0.0826871 -0.0110351 0.0618153 0.0654885 -0.00781753 -0.0390282 -0.0270462 -0.0189005 -0.00764122 -0.020302 -0.0257011 -0.0169256 -0.0603609 -0.0141719 0.0382079 -0.0316168 0.0105553 -0.00997222 0.0813174 0.000133408 -0.0349514 0.030768 -0.105136 -0.0426181 0.018527 -0.00733598 -0.0262958 -0.0510748 -0.0260869 0.0455404 -0.0465548 -0.00631473 -0.031953 -0.0318493 0.104187 0.147762 0.0211154 -0.0764112 -0.0319362 -0.067405 0.0258364 0.00485939 -0.0133099 0.0608508 -0.0795106 -0.00131519 0.0204436 0.0221842 -0.052292 -0.00938855 -0.0671203 0.0500746 0.00394856 -0.042844 0.0524326 -0.0540479 -0.0232447 0.011115 -0.023151 0.0174706 0.0431239 0.0463571 0.0473532 -0.0538685 0.0104579 0.0361431 0.00719908 0.0665128 -0.0291142 0.0236722 0.0255614 -0.0223571 -0.0261145 -0.00377592 0.0327376 -0.0749589 0.0319976 -0.107684
weight: 0.0373615 -0.019291 -0.00355543 -0.00867902 0.0204236 -0.109363 -0.0304885 -0.0354707 -0.0136654 -0.0119526 -0.00297535 -0.0124713 -0.0618501 0.00647848 0.0590611 -0.016141 0.0202249 0.0366974 0.0699249 -0.0012288 0.0400141 0.0402023 0.0288173 0.022242 -0.0183722 0.0232575 0.0225942 -0.0434027 -0.014758 0.0263027 0.0199481 0.00752218 0.025966 0.010367 0.0127717 -0.0463454 0.0780093 0.0450558 -0.0343421 -0.1155 0.0485627 -0.0962007 -0.102709 0.0442824 -0.026942 0.0239907 0.619735 -0.12017 -0.158434 -0.104582 -0.179579 0.0180191 -0.0233292 -0.0608433 -0.00471439 0.0220853 -0.0347864 0.0201947 0.0224238 0.051387 0.0138059 -0.0281511 0.0255991 0.0270378 -0.017867 -0.0604474 0.054888 0.00800452 0.0146949 0.00250873 0.0173705 0.0294196 -0.0311987 -0.0118995 0.0507631 -0.068488 -0.0312876 9.96651e-05 -0.0465961 0.0749461 0.0653157 0.0418516 0.0335457 0.0264239 -0.00476524 -0.0237657 -0.00677406 0.0125125
weight: 0.0947237 -0.0673474 0.0493294 0.0257145 -0.0496231 0.078664 0.0561273 0.0221841 -0.00923686 -0.0224085 0.0185448 0.052575 -0.0611134 -0.0780714 -0.0354336 -0.0671553 -0.0165924 0.0238426 -0.00877231 0.00210759 0.0121694 -0.0444421 -0.0445288 -0.0259501 -0.0218304 0.0188324 0.0153203 -0.0305209 -0.0352402 0.0291874 0.0360768 -0.0385477 0.0445651 0.00440083 0.117127 -0.0233041 0.0118636 0.00702093 0.0799367 0.00320611 0.019008 -0.0503989 0.0600669 0.0559307 0.00130002 -0.00999969 0.128833 0.105271 -0.039165 -0.049117 -0.0875387 0.0433999 0.0477593 -0.0373094 -0.0354908 0.0200331 -0.0168136 -0.0325851 0.0653472 -0.033372 0.019668 -0.0192992 0.00601643 0.0872872 0.0117273 -0.0233351 -0.0167772 0.0390433 -0.0408874 0.00182209 0.0414744 0.0041059 0.0247329 -0.0223297 0.0469544 0.0193726 -0.0200557 -0.00219667 0.0673561 -0.0551786 -0.000474207 0.0533973 0.0283443 0.0809203 0.066639 0.0566662 0.0190969 -0.0400682
weight: -0.0728211 0.0486794 0.00635091 0.00825138 0.000724753 0.0839303 -0.0157097 0.0622306 0.0212848 0.0408316 -0.000695335 -0.0246812 0.0680643 0.0227253 0.0470813 0.0544316 -0.0274807 -0.0299554 0.0390799 0.0531748 0.0211774 0.0297061 -0.0157997 -0.0479683 -0.0180908 0.015509 0.0392792 -0.0672311 0.0110476 0.00182428 0.00687808 0.00599236 0.121503 -0.024776 0.0293721 0.0546572 -0.149369 -0.0173081 0.0259007 0.00495142 -0.0528882 0.0428345 -0.0182421 -0.166464 -0.0842118 0.0298294 0.101481 0.081358 0.00101926 -0.0175226 0.0468185 -0.034292 0.0130166 0.0209064 0.0157288 0.0810908 0.0354733 -0.00305223 0.0737879 -0.0373275 -0.0169956 0.0119107 0.010634 0.03324 -0.078732 0.0292065 -0.0308929 -0.038319 0.0700444 0.046441 -0.0132732 0.00657524 0.0445231 -0.00754772 -0.0516262 0.0189224 0.048156 0.023404 -0.031711 -0.0400512 -0.0502753 -0.0134482 0.0344861 0.0237556 -0.0711222 -0.0187043 -0.00147788 0.0436577
weight: 0.0067139 -0.00393604 -0.0599924 0.024453 -0.0120285 -0.0719364 0.0519406 -0.0507683 -0.0443824 -0.0111403 -0.06022 0.0375347 -0.0141081 -0.0041217 -0.048591 0.0249658 0.0838944 -0.0265617 -0.0477194 0.00754667 -0.00602981 -0.0326368 0.0081072 -0.0290001 -0.0195308 0.0123347 -0.0861828 0.0209454 -0.0615747 -0.0466248 0.0372317 0.013254 0.0544052 0.0123361 0.0486231 -0.0254668 0.0941257 -0.0149204 -0.00507065 -0.00194068 0.00174713 0.00432929 -0.0871898 -0.0647841 -0.00730993 -0.123624 -0.0463807 0.878292 -0.128827 -0.194928 -0.0574577 -0.10094 -0.00839588 -0.0146974 0.0529467 0.00107372 0.0334314 -0.0427117 0.0323111 -0.0266822 0.0293028 -0.0359001 0.016953 -0.033863 -0.0274372 0.0120379 0.0358274 0.0410227 -0.0132467 0.0235435 0.0260958 -0.0172689 -0.0229007 0.0722626 0.0388548 0.0839297 -0.0103357 -0.0219903 -0.00124927 0.0589857 0.01945 -0.0595701 0.0378823 -0.0389439 -0.0465062 0.0647343 0.0352751 -0.0242096
weight: 0.0979087 0.0434741 0.0216091 8.54548e-06 -0.0168903 -0.0384775 0.045797 -0.0105004 -0.0505014 -0.0308909 -0.0261214 0.0286194 -0.0699418 -0.0115528 -0.0460875 -0.128909 0.00116718 -0.0510698 -0.0130279 -0.0514345 0.0376756 -0.0803631 -0.0303126 0.0060525 0.0730273 -0.0272382 0.0314695 0.0410934 0.0339816 0.0345891 -0.0257233 -0.0123749 -0.0172313 0.0824099 0.0710149 -0.0319846 -0.0485954 -0.000249565 0.0422061 0.0227742 0.0398015 -0.0657658 -0.0237698 -0.0979069 -0.0100398 -0.0486305 -0.0673305 0.163336 0.0164567 -0.00579232 -0.0732485 -0.0236532 0.00602488 -0.0103714 0.0099381 -0.0380814 -0.0456317 -0.0260766 -0.0314887 -0.0571153 -0.0354833 -0.113639 -0.0023708 -0.0667174 -0.00498043 -0.0302157 -0.0286566 0.0393153 0.0210226 0.008221 -0.0389052 -0.0152412 0.0477694 0.00609361 0.0653564 -0.0841795 0.0026411 0.0070767 -0.0165272 0.00261733 -0.0399608 -0.0203047 -0.0223172 -0.0144597 -0.0208481 -0.0306623 0.0337219 -0.056159
weight: 0.0299804 0.0409205 -0.100775 0.0305814 -0.0012094 0.0198877 -0.0561077 -0.00925667 -0.0176801 0.017012 -0.0410182 -0.0334254 -0.0125472 0.0100393 0.0893626 0.00808063 -0.0406847 -0.0331541 -0.0229504 0.0165966 -0.00686651 -0.0645956 0.0701365 -0.0753012 0.000487191 -0.0239413 -0.0592679 -0.0086495 0.0211608 -0.0123035 0.024155 -0.0986824 -0.00747141 -0.0320513 0.00124312 0.00893259 0.0370631 -0.0192922 0.000204895 0.115355 -0.027961 -0.0235479 0.053668 -0.0853625 -0.13392 -0.0459022 0.00475156 0.0791509 -0.0402604 -0.125588 -0.0144456 0.0190191 -0.0484965 0.0680577 -0.0220796 -0.036128 0.00754948 -0.0600082 0.00416564 -0.000334484 0.0486907 0.0764137 0.0632134 0.0638402 -0.0328512 -0.0517788 0.0282631 0.00142013 0.0278861 -0.00471413 0.00804792 -0.0328123 0.0394268 0.0935207 -0.0102156 0.0403766 -0.03885 0.0358447 -0.00283872 0.0146161 -0.0394757 0.00526677 -0.0658084 0.046697 -0.0359761 -0.0201291 0.063904 0.0821264
weight: -0.0292573 0.0560493 0.0310849 0.0197127 0.00340284 -0.00130338 0.00592862 -0.00499444 -0.00993468 -0.0189733 0.0172221 0.031852 -0.030442 -0.0138048 -0.0341662 0.030391 0.0657514 0.039165 0.0658782 -0.0346987 -0.0153338 0.0428789 0.0089182 -0.0251198 0.00099703 -0.00435138 0.0128431 0.0449384 0.00204553 0.0201934 0.0069023 -0.00479278 -0.0127177 -0.00811095 -0.0204725 -0.0195924 -0.0012284 0.06312 0.0190952 -0.0308102 -0.017727 -0.0735093 -0.131617 0.0456086 -0.109079 -0.0553063 -0.0209316 -0.0797654 0.569502 -0.159168 -0.0573205 -0.145566 0.0202747 -0.0447847 -0.00525412 -0.0328369 -0.0143736 0.0122785 -0.0374975 -0.0181806 0.0124341 0.0463133 -0.00414827 -0.0509892 0.00263995 0.00628562 -0.000663167 -0.008704 -0.0203786 -0.0761316 -0.0642622 0.058488 -0.0289334 -0.0549907 -0.0174369 -0.0109305 0.00221528 -0.0403849 -0.00857274 -0.0620292 0.0525765 -0.0330099 0.0547141 -0.00329316 0.00934765 0.0015138 -0.0672005 0.0246651
weight: 0.0264459 0.0139809 -0.042387 0.056716 0.00315092 -0.0414711 -0.00617459 0.035445 0.0182188 0.0475639 0.0488193 -0.0397583 -0.0537303 -0.00170766 -0.0604842 0.00105219 0.0192959 0.0142273 0.0618792 -0.052384 -0.0824883 0.0930574 -0.000833127 0.0283499 -0.000820762 0.0130017 0.0437084 -0.00884038 -0.0239187 0.0182929 0.0200827 0.0236202 -0.00145221 -0.0108976 0.00185655 -0.0146139 0.0353063 0.00839299 0.0278106 -0.113787 0.0973806 -0.0141251 -0.128618 0.0654498 -0.0525561 0.0171939 0.0142857 -0.020465 0.406157 -0.0721396 -0.105091 -0.0266507 -0.00326448 -0.034443 0.013682 -0.0172696 -0.00619336 -0.00183532 -0.0609781 -0.0108771 -0.0655161 -0.0126697 0.0537445 0.0666974 0.0293917 -0.0906005 -0.0757852 -0.0181151 0.0273788 0.00540124 -0.0881382 -0.0253836 0.0445446 0.00834834 0.053815 -0.0826758 -0.0522742 0.00359156 0.032862 -0.0440889 0.10565 -0.00516006 0.0844299 0.00887888 0.0616443 0.0174221 -0.0255024 -0.0607653
weight: 0.0189199 -0.0494206 0.0456744 -0.023707 0.0752078 -0.0100721 0.0490411 -0.00451565 0.000149234 -0.0261249 -0.0115607 -0.048308 0.0562235 0.0025919 0.0154688 0.0269649 -0.0201957 0.0204152 -0.0303563 -0.0251047 -0.0154832 -0.0149057 -0.0556249 0.0534965 0.0314957 -0.083894 0.0554507 0.0607275 0.0219932 -0.0394471 -0.0663514 0.0745717 -0.0174958 -0.0456374 -0.0727002 0.0803121 -0.04987 -0.0481227 0.0102485 -0.00297804 0.036803 -0.0920976 -0.0122263 0.0167924 0.048085 -0.0124587 0.0274966 -0.0671352 0.0349597 -0.038548 -0.0458385 -0.0992731 -0.0330831 -0.0864153 -0.0774872 -0.0498918 -0.00234635 0.00940773 -0.0832652 0.0240234 0.100856 -0.0249604 -0.00495745 -0.0164613 -0.0206572 0.110942 -0.0146023 -0.00821406 -0.0286225 -0.00646388 0.0233206 -0.0336832 0.0480475 0.0198411 -0.0215674 0.0251311 0.0203011 -0.0188829 0.0375172 -0.0715961 -0.021267 -0.0971158 0.0108323 -0.00605148 -0.00197907 -0.104617 0.0236895 0.0203061
weight: -0.0813281 0.034051 0.0625007 -0.0238585 -0.0152497 -0.0933777 -0.0183379 0.0504311 -0.107889 -0.0415139 -0.0352921 0.0330654 0.0343956 -0.0543464 -0.0114527 0.00688972 -0.0464406 0.0699233 -0.0402737 0.0548985 0.0131775 0.0490176 -0.00284236 0.0373636 -0.0799372 0.0370199 -0.0216108 -0.0823518 -0.0376425 0.000987633 -0.0201831 0.0355717 -0.0054347 0.0368646 0.0402438 0.0707117 -0.0360723 -0.0200179 0.0157231 -0.00931356 0.0111484 -0.0202678 -0.0299936 -0.00858087 0.0101023 -0.00900883 -0.00628384 -0.0677775 -0.0280239 0.231491 -0.164117 -0.0571494 -0.0650918 0.00307457 -0.0078057 0.0389977 0.028347 -0.0377257 -0.0382796 -0.0352278 0.0571266 0.00839718 0.0311689 -0.00321583 -0.0348396 0.0518506 -0.0540633 -0.0604671 0.0224859 -0.00267197 0.0513691 -0.00615291 -0.0144176 0.0147291 0.00679567 0.0340304 -0.00105974 -0.0492119 0.069267 -0.0243339 -0.0155188 0.0211063 0.0659885 -0.0283158 0.0438367 0.0295567 -0.00698756 0.0473536
weight: -0.0371192 -0.0020316 0.0141049 -0.109486 -0.00110347 0.101259 0.0406182 -0.0591321 0.0673628 -0.015574 0.0125359 0.067039 0.0559429 0.0114288 -0.00524905 0.0150081 -0.0366737 0.0137536 -0.0291095 -0.00835857 0.00977894 0.0247459 -0.0488549 -0.0119611 0.0433873 0.0581676 0.0431481 0.0665519 0.0289226 -0.0353841 0.0492751 0.0113598 0.0579202 0.034307 0.0165457 0.050763 0.00131391 -0.0212194 -0.052885 -0.0154253 -0.0958996 0.0021849 -0.0607446 -0.0553129 0.00744339 -0.0595467 -0.00489229 -0.0780673 0.07696 0.667433 -0.0323138 -0.0779714 0.000755638 -0.00689799 -8.32652e-05 -0.000104208 -0.0607126 -0.0241836 0.0442817 -0.031058 0.0504104 -0.00548303 0.0645794 0.0338234 0.0488765 -0.00626656 0.023425 0.0030746 0.0699641 0.0361328 -0.106349 -0.0236334 -0.014061 -0.0234307 -0.0599619 0.0300323 -0.02514 -0.0278057 0.0168804 -0.0259593 -0.041969 0.0299008 -0.042397 0.0487592 -0.0164015 -0.0109042 0.0431168 0.00799549
weight: -0.0592892 -0.0255638 -0.0171846 0.0538147 -0.00981305 -0.0314074 -0.0826185 -0.0210997 0.0383739 -0.0195975 0.071765 0.0118317 -0.0825121 0.0375394 -0.00708959 -0.0525044 0.00946332 -0.0233224 -0.0341621 -0.0452953 -0.00428087 0.022532 0.053133 0.0418985 -0.0219106 -0.0446607 -0.0289225 -0.0338002 0.00361673 0.0519258 -0.0134064 0.00920087 -0.0234805 -0.0129636 0.0230368 -0.0385483 -0.028825 -0.0196823 0.000993984 0.118666 -0.0837835 0.103543 0.0362195 0.0678993 -0.0542794 -0.0833423 -0.0481942 -0.0211872 -0.03565 -0.0284744 0.0178712 -0.013995 0.0107422 0.00591691 -0.0112239 -0.121112 -0.0508425 0.0576829 0.0268019 0.00112598 0.0684299 -0.00564123 -0.03724 -0.0112671 -0.0703043 0.0131865 0.0379638 -0.0215817 0.0338234 -0.00325385 0.00108443 0.0253933 -0.0581619 0.0444385 0.0417478 -0.00550683 -0.034483 0.0463558 -0.027534 0.0210369 -0.105465 -0.0519942 0.00303477 0.00619046 0.00237458 -0.028333 -0.0338443 -0.0321879
weight: -0.00733445 -0.00121523 0.000469715 -0.0253946 -0.0464578 0.0554632 -0.044511 0.0178669 0.0105622 0.000939667 -0.0538292 0.010905 -0.0335928 0.0108217 0.0157567 -0.0403944 -0.00267705 0.0304055 -0.0113237 -0.03595 -0.0123749 0.0407602 -0.040047 0.0283938 0.038076 -0.0464104 0.0479232 -0.0323847 -0.00139315 0.0349718 -0.0563641 0.0144642 0.0655998 0.00110351 -0.00593652 0.0520398 0.0184186 0.048291 0.0297484 0.0370461 -0.0306843 0.0623529 -0.00019872 0.0557449 -0.00217255 -0.00413881 -0.0597321 -0.118095 0.0497476 0.123594 -0.0217125 -0.0345168 0.0575106 0.0527867 0.0749247 0.0211341 -0.00404725 0.0690867 0.020177 -0.0655325 -0.0809242 -0.0434896 -0.0017624 0.0103527 0.0175753 -0.00675652 0.0100697 0.0197214 -0.0181837 0.065071 -0.0845349 0.00899458 0.00853657 -0.0603297 0.0532303 -0.0168959 0.0393427 0.0230394 0.0101424 -0.0144462 -0.0217972 0.0104343 0.086253 -0.0230753 -0.0187156 0.0541614 -0.0202079 0.066057
weight: 0.0181047 0.00291656 0.0634912 -0.00953911 -0.0236107 -0.0800732 -0.0366929 0.0579292 0.0488705 0.0434803 -0.0287046 -0.0298077 -0.0156488 -0.0451529 -0.0389942 -0.0110243 -0.0185147 0.000139555 -0.0913537 0.0262846 -0.0181078 0.0699283 0.0954004 -0.00502046 0.02415 0.0397833 -0.104307 -0.0098988 -0.0272852 0.0383911 0.0223041 0.0391627 -0.0361117 -0.00120768 -0.0457864 -0.0358432 0.0123705 0.0102546 -0.00865192 -0.0855784 -0.15183 -0.0729171 -0.127031 -0.0332211 -0.115298 0.0189068 0.0195055 -0.00895003 -0.0750251 0.0465483 0.819965 -0.128431 -0.0576563 -0.0119677 -0.0179193 0.0546799 0.0194084 -0.0276156 0.030854 0.00420998 0.0131196 0.0443028 0.0454263 -0.0718054 0.0587628 -0.00115708 0.0408945 0.0640372 -0.0280531 -0.027997 -0.00156973 0.000723565 -0.0499761 0.0374189 0.0413691 0.0310711 -0.0215895 0.00577768 0.0373678 0.0581675 -0.00340741 -0.0150864 -0.0864004 -0.021308 -0.0946611 0.0174839 0.0568872 0.00177873
weight: -0.0520545 0.0813891 0.01727 0.0290506 -0.0131032 -0.0321585 0.0380322 -0.0346702 0.0121057 0.00291365 -0.0340068 0.0299615 0.00259045 0.0112009 -0.00550069 0.0249346 -0.0657608 -0.0901472 -0.0892102 0.0649651 9.63921e-05 -0.022545 -0.00743882 0.0417666 0.078275 -0.000827144 -0.0650371 0.00806708 0.0676538 -0.0505292 0.00306708 -0.00425472 0.0350138 -0.00126791 -0.00438808 -0.00277692 0.011318 0.000427222 0.0164943 -0.00927357 -0.00972246 -0.0244853 0.0839407 -0.0371741 0.0129989 0.00657562 -0.0436656 -0.0210073 -0.0894923 0.0447748 0.0689964 -0.102136 -0.0343398 0.0540837 0.0399131 0.0209653 0.0390559 -0.00646929 -0.00736002 -0.0315569 -0.0512083 0.0127315 -0.01446 -0.00248713 -0.0215942 -0.0100661 0.0462699 0.0193949 -0.01552 0.0278369 0.0603627 -0.013997 0.0876761 0.00894387 0.0170868 0.0252194 -0.00956683 -0.0234689 -0.0177959 0.0488581 -0.0266622 0.0315617 -0.0282735 0.00123797 -0.0180559 0.0320466 0.0102191 -0.00132692
weight: 0.0233372 -0.0234923 -0.0639726 0.0233619 -0.0962827 0.0600082 0.037387 -0.0279928 0.0629852 0.0506408 -0.0227134 -0.106399 -0.0162727 0.0197026 0.043135 -0.00928185 0.0863027 0.0399577 0.0194349 0.0548009 0.0282832 0.0509408 -0.050047 3.34861e-06 -0.0612281 0.0742505 0.142158 0.0265162 0.00486645 -0.0887751 0.0175232 -0.108729 0.0735948 0.0248903 -0.0273382 -0.00287384 0.0102435 -0.0668794 -0.00436232 0.00279023 -0.0898327 -0.0151694 0.0521708 -0.0176036 -0.0815442 -0.070745 -0.00228051 -0.100718 -0.0330038 -0.0709616 -0.088459 0.0238097 0.012912 -0.035814 -0.0118625 0.00707097 -0.0412559 0.0370452 0.0341211 0.036628 -0.0129219 0.0675326 -0.0462489 -0.0130129 -0.00107024 0.0153695 0.0772972 -0.0432111 -0.0465585 0.0939387 -0.0589312 -0.046119 -0.0431453 -0.0196098 -0.0376192 -0.0176914 -0.0379841 -0.00524596 -0.0803722 0.0308713 -0.0340082 0.0948371 -0.0494677 0.0343137 -0.0061444 -0.0422083 0.00767099 0.0146193
weight: -0.0418955 -0.0568993 0.0227108 -0.0131517 0.0381222 -0.0090225 -0.034937 0.0613981 0.00590231 -0.0472812 0.0308164 -0.0147056 0.041999 0.0844219 -0.0388573 0.0823881 -0.0321302 -0.0183595 -0.0312306 -0.0355371 0.0589646 -0.041952 -0.0160698 0.00796404 -0.0844248 -0.0482333 -0.0566981 0.0145374 0.066354 0.0704239 -0.0358053 -0.0946655 -0.00960314 0.0737129 0.0849684 -0.00293314 -0.0107055 0.0398134 0.0294158 -0.0134071 -0.0906433 -0.0393416 -0.0338631 -0.114545 -0.0281021 0.0606198 -0.00456197 -0.0227708 -0.0359409 0.0962197 0.0597241 0.131491 -0.00866639 -0.0213752 0.0075987 0.0489003 0.0729877 0.00963444 0.04255 -0.0236989 0.00640587 -0.0349433 -0.0403771 -0.0635422 0.0488609 0.00488556 -0.0413017 -0.0125334 -0.000392459 -0.031863 0.0209698 0.0467127 0.0140823 -0.0162823 0.0517991 0.0131459 0.0315591 0.0174984 0.0476278 -0.127729 0.0465367 0.0247234 0.0841944 0.00702282 0.00548484 0.0523034 0.00591499 -0.00173227
weight: 0.0979739 0.00664661 0.0340525 0.025596 0.0415739 -0.0399586 -0.018772 -0.0264294 -0.0224396 0.0521397 -0.0103958 -0.0564673 0.0131228 0.062173 -0.00884639 0.00113639 -0.0768871 0.0398823 -0.0285117 0.0237049 -0.0267172 -0.00209799 0.0351278 -0.00187477 -0.0123216 0.0485068 -0.0416463 -0.091106 -0.000512336 -0.0678751 -0.0117594 0.0247797 -0.0372162 0.0127461 -0.0814456 0.032366 0.0606496 -0.0505625 -0.0183927 -0.0490768 -0.179731 -0.190453 -0.198137 -0.0172977 -0.115221 -0.084139 0.01247 -0.107419 0.0618921 -0.0405578 -0.0666532 0.930233 0.0314073 -0.0275035 -0.101726 -0.0469983 0.050757 0.00490169 0.0214481 -0.0280169 -0.0218004 0.0766183 0.0317878 0.00335642 0.0619409 0.0134803 -0.0327725 -0.0191726 -0.00585911 -0.0337491 -0.0185185 0.0385429 0.000533889 0.0469368 -0.0791919 0.0510564 -0.0403126 -0.0475245 -0.0548609 -0.0350747 0.0725151 -0.0211376 -0.0120577 -0.0451398 -0.0105142 -0.0320164 -0.00772233 0.00817826
weight: -0.033171 0.00384228 -0.00723288 0.0899994 -0.0312463 0.00347086 0.000848263 -0.125607 0.00690804 -0.0518144 -0.0141971 0.0648005 -0.0768218 -0.0612712 -0.0354611 -0.0766286 0.158608 -0.0738042 -0.0284223 -0.0723446 0.0881962 -0.0523932 -0.0240417 0.0321225 0.0204467 -0.0254187 0.0818118 -0.0335843 -0.051084 0.11743 -0.0548785 -0.00555734 -0.11161 -0.0875161 -0.00397144 -0.033728 0.0147448 0.0248895 -0.0128046 -0.0854864 -0.0486805 -0.0336962 -0.0405597 0.00315026 0.00269816 0.000553806 -0.0544873 0.062775 -0.0282885 -0.0402058 -0.0230188 -0.0852472 0.0285233 0.00236385 0.0416534 -0.030356 -0.0926995 0.0385423 -0.0247574 0.0071691 0.0349903 -0.0852434 0.0149204 0.0547544 0.0473827 -0.073645 0.0224523 -0.0159232 -0.0147182 -0.0558084 -0.00197771 -0.0854255 -0.0572721 -0.0947303 0.0326297 -0.0168923 0.0299072 -0.0383511 -0.0803196 0.0462595 -0.11131 -0.0410533 -0.00886002 0.110405 -0.0186203 0.105247 -0.0949744 -0.0478903
weight: 0.0143506 0.0551213 -0.0262246 -0.0964962 0.0204641 -0.0453778 0.159798 0.0644681 -0.0184624 0.055971 0.0461508 -0.0569782 -0.0059393 0.0527259 0.0381442 -0.0535112 -0.055082 0.0832057 0.0469015 -0.00141199 0.0151328 -0.0369927 0.10449 -0.051967 -0.0286581 -0.0250214 0.0554911 0.109882 0.105767 -0.0747601 0.167694 0.0885239 0.0809835 -0.00912907 -0.104013 0.0736028 0.0215121 -0.063262 0.0319218 -0.0122043 0.0995504 0.0122966 0.0607339 -0.0422148 -0.157748 -0.0446393 -0.079284 -0.00828854 -0.0582641 0.0185585 0.15387 0.0173268 -0.0332498 0.114389 -0.00562872 0.0443335 0.103726 -0.0189663 0.0673196 -0.022692 0.0527156 0.052744 -0.0454988 -0.00677888 0.0335637 -0.0278834 -0.0185241 -0.0234315 0.0195121 0.0624005 -0.0545435 -0.005097 0.00222381 0.0241498 -0.0557942 -0.0433816 -0.0213972 -0.0556848 0.0631148 -0.00337927 0.039429 -0.0118605 -0.00761017 -0.0375854 -0.00524274 -0.130577 0.00708376 0.0147887
weight: 0.00348064 -0.0118776 0.0304605 0.0255086 0.0656263 0.0120731 0.0320514 -0.0831301 -0.0109107 -0.0550908 0.0662532 0.0987445 0.0533044 0.0585946 -0.0211336 0.0725812 -0.0579474 0.0504211 0.06208 0.0149732 -0.00138455 -0.00385038 -0.0424754 -0.0298674 0.108832 -0.0670697 -0.0917087 -0.0121891 -0.0110001 -0.0803574 -0.0148543 -0.0938298 0.021133 0.0168687 0.00705748 -0.0373232 0.00406862 -0.0178488 0.00553904 0.112392 -0.0912692 0.0474787 0.0714378 -0.0170968 0.141795 0.0196869 -0.0815923 -0.0403401 -0.0711474 -0.0286376 -0.0595321 -0.0595652 -0.107411 -0.0897548 0.0371696 0.0221258 -0.0501841 0.0254538 -0.103533 0.0144544 -0.0270614 -0.0281103 -0.0767745 -0.00453365 -0.122012 0.0114776 -0.0291035 0.0294283 0.0323442 -0.0483781 -0.00200646 -0.0660629 0.0677839 0.0261489 -0.0546101 0.0123448 0.115417 -0.00685456 -0.0156711 0.00626984 0.00535361 0.0188964 -0.0549001 -0.0577741 0.0192997 -0.0346208 0.0766105 -0.0153646
weight: -0.0925691 0.0631463 -0.16368 -0.0184469 0.142862 0.0671798 -0.11366 0.0452906 0.00214685 -0.0403888 0.0876207 -0.0316975 0.0447574 -0.0173095 -0.0437834 0.0163688 0.0393126 0.0802628 0.0306942 -0.0911705 -0.123805 0.0855812 0.011091 -0.00681899 0.0337429 -0.068452 0.0295152 0.0310227 0.00892034 0.0375986 -0.159239 -0.071788 0.0311592 0.0607439 0.112665 -0.0647538 -0.060765 -0.0616536 -0.00182583 -0.0599131 0.798141 -0.391963 -0.170608 -0.328208 -0.0432369 0.0493835 -0.0852406 0.01175 0.098882 -0.0952618 -0.0357403 -0.120735 -0.00788055 -0.0244107 0.159746 -0.0374834 -0.140407 0.0258363 -0.0449656 0.060465 -0.0819708 -0.0718724 -0.069192 0.0123476 -0.162929 0.0109602 0.0588534 -0.064605 0.0134655 -0.0044323 0.0347614 0.0783161 -0.0370668 -0.0670578 0.0265363 -0.00304329 -0.0841407 0.236941 0.133111 -0.0811066 0.0102606 -0.00923276 -0.0220886 -0.0841603 -0.0668733 -0.0409144 -0.0208419 0.0614091
weight: -0.131508 -0.0371829 -0.0526084 0.048714 0.0299527 -0.0789043 0.0666104 -0.0370907 0.0160822 0.0165646 -0.0441885 0.076423 0.107596 -0.0415111 -0.0267939 -0.0629216 -0.0152708 -0.149493 -0.103545 0.0509688 -0.0436394 -0.0665208 0.00826748 0.168612 -0.0136288 0.0923996 -0.00304846 0.0280165 0.0569566 -0.0771512 0.0420883 -0.0520485 -0.103782 -0.021235 -0.103765 0.0293491 0.0286151 0.0622385 0.0563882 -0.066075 -0.0507332 0.10945 -0.121942 0.0211306 -0.0631976 -0.0892639 -0.0377177 0.0220553 -0.0974279 -0.117474 0.0727849 -0.00503948 -0.0755449 0.0968604 -0.0122009 0.00801212 0.0192736 0.0132136 0.0622486 0.162298 0.0711868 -0.0937366 -0.155283 -0.0256493 0.0695169 -0.0397234 -0.0454239 -0.00493509 0.0299285 0.00809463 0.0981857 -0.0309233 0.00253813 -0.065664 -0.0918348 -0.0652837 0.0911199 -0.0185223 -0.0138412 0.0410725 -0.0142514 -0.0310785 -0.127796 0.160188 0.0276071 0.0325182 -0.0840584 -0.0210311
weight: 0.0557334 0.0484634 -0.0461819 0.029046 -0.08147 -0.0900087 -0.0822281 0.0275452 0.0715994 0.107742 -0.0843464 -0.000408268 0.0485979 0.103709 0.029909 0.124234 0.0254299 -0.0224321 -0.0580341 0.0212257 0.0684501 -0.0937895 0.0644931 0.0658577 -0.15359 0.0607445 -0.0371899 -0.0852165 0.0282993 0.0256233 0.0643195 0.0537795 -0.0618952 -0.0199764 0.0515517 0.000751236 -0.0489395 -0.0981123 -0.073886 0.0177566 0.0943233 0.0136918 0.0862333 0.199643 -0.0428711 -0.0475351 0.0627488 -0.000881004 -0.056207 0.00789155 0.0563023 -0.0971237 -0.00275742 -0.0577449 -0.0721768 0.0479718 0.0265589 -0.0585557 0.000787323 -0.0208377 0.145551 0.0124514 -0.0489177 -0.0204171 0.0395761 -0.003676 0.00438915 0.00814702 -0.0196943 0.00826334 -0.0349383 0.0655469 0.0309689 -0.0668186 0.116594 0.0508026 0.0428074 -0.0652513 -0.066641 0.0235212 0.054416 -0.0773297 0.00545463 -0.116606 -0.131231 0.0946315 -0.0304392 -0.0235636
weight: -0.0388922 -0.00396202 -0.0156799 -0.0328217 -0.00667317 0.0724578 -0.0391928 -0.0502318 0.0118423 -0.0998414 0.0494919 0.0328742 -0.0871516 -0.0567643 -0.0226377 0.124304 0.0525271 0.0605703 0.0832711 0.0290827 -0.0482549 -0.0593715 0.00227032 -0.0728462 -0.0967512 0.0893546 0.0932992 0.00998434 -0.0492416 -0.0655142 0.0577875 -0.0587629 0.0568136 -0.0706364 0.0202083 0.0104975 -0.0165545 0.0401737 0.106951 -0.0160255 -0.0253808 0.26063 -0.0136636 0.0652731 0.0673956 -0.0406778 -0.0155821 0.077267 0.0280677 -0.038919 -0.0356791 0.203666 -0.0848874 0.00297101 -0.00316621 -0.020658 -0.0494865 -0.0436078 -0.0118805 -0.0112542 -0.0537165 0.0915291 -0.0374038 0.0533485 -0.0159401 0.0145985 -0.0843267 -0.0523488 -0.0286086 -0.00654683 0.0447984 -0.0401166 -0.0223461 -0.0894102 -0.0240635 -0.0823961 0.00608647 0.0264235 -0.00103327 -0.0726867 -0.0511138 0.0704102 0.0489108 0.0341775 0.0866083 0.0252973 -0.0281048 0.0914655
weight: 0.101023 -0.101102 0.00995197 0.0152677 -0.023819 0.0163852 -0.0566694 0.0574333 0.0100209 0.0598016 0.0655646 -0.0107316 0.0294103 -0.0253154 0.0639815 -0.109656 -0.0386631 -0.0219204 -0.00574546 -0.143012 0.149565 0.016797 0.0901364 0.0110749 0.0691298 0.0864026 -0.111434 -0.048451 0.00415837 0.0406701 0.0223739 0.0364414 -0.0629439 -0.00664384 0.0201618 0.0760214 -0.0187784 0.114822 -0.0544826 0.101324 -0.0830131 0.923241 -0.298271 -0.193651 -0.256247 -0.100827 -0.357792 -0.187203 0.117223 -0.0971958 -0.0232084 -0.0487923 -0.0189842 0.0486411 0.0160855 0.0105335 0.0914656 -0.0260887 -0.0650023 0.000169269 -0.0700675 0.0965953 0.103048 -0.0203688 0.0635715 0.00640867 0.0213104 -0.0653735 -0.0445575 0.0874222 -0.049685 0.0143785 -0.124277 0.0567431 0.0248964 0.0254864 0.0235648 -0.0309067 -0.0658119 0.103406 0.00962083 0.0550365 0.0381747 0.0916214 0.00585671 -0.0193473 -0.0659432 -0.0604044
weight: 0.0120964 -0.0363483 -0.0376607 0.0932953 0.146476 -0.0354181 0.0707982 0.128092 0.200828 -0.0924647 0.0838685 -0.062294 -0.0170861 -0.0786856 -0.00969535 -0.01549 0.0310763 0.0360611 -0.128845 0.0580997 0.0159238 0.0687419 0.00128304 -0.0381426 0.0984995 0.00109353 -0.0884419 -0.0698609 0.0962104 -0.0126736 -0.0161659 0.00315614 -0.00629215 -0.00317747 0.0454274 -0.0662165 -0.00916123 0.0111447 -0.107638 -0.023574 -0.0351272 0.121714 -0.293268 -0.318603 0.00877759 0.0603524 -0.0868513 -0.0473051 0.103947 -0.267498 -0.0279412 0.0985362 -0.0248205 0.098774 -0.142125 0.0372303 0.0141655 -0.0293255 -0.0332452 0.063507 0.0511128 0.0549363 0.0151504 0.040911 0.0433979 0.0206058 -0.0726469 -0.0617502 -0.0253005 0.0234461 -0.171623 -0.0130467 0.0375281 0.138701 0.056094 0.0770451 -0.0319487 0.0353925 -0.0522507 -0.00881214 0.0694752 0.0317081 0.120045 0.00730343 0.0991803 0.125481 0.0457444 -0.0482311
weight: -0.00252859 0.0188176 0.0374922 -0.0332585 -0.164491 -0.0546712 -0.141112 -0.0267807 -0.166133 -0.0963249 -0.192778 0.0205393 -0.13358 -0.0045039 0.181478 -0.0146042 -0.084783 -0.0311975 0.144295 0.152098 -0.119071 -0.013225 0.00158422 -0.139069 -0.0650856 0.076095 0.0101393 0.00150443 0.00327728 -0.0508515 -0.0211614 0.0583693 0.258145 -0.0412449 -0.00524209 0.0127089 0.0544236 -0.0357736 0.0773981 -0.0132988 -0.0248116 0.0376036 0.153212 -0.0220772 0.127607 -0.0512303 -0.00616735 0.0938626 -0.142706 0.0349161 -0.213434 0.0185881 -0.0548671 -0.00156415 0.0323664 0.00576512 0.0170399 -0.0990932 0.0227346 -0.0131598 -0.0346938 -0.089518 0.15446 -0.0184641 0.0122972 -0.0916292 0.175484 0.039633 0.0166993 0.0507062 -0.0217222 0.0412173 -0.100759 -0.0245073 0.0714741 -0.0628349 -0.0754358 -0.0193855 0.188343 0.00959248 -0.170582 0.112666 -0.0209521 -0.14485 -0.0454918 0.0758497 0.109356 0.0190792
weight: 0.0260711 -0.0295444 0.225286 -0.140554 -0.0224728 0.0116704 0.136695 0.0705214 0.0782278 -0.0138062 0.0581417 -0.120831 -0.104051 -0.0916683 -0.00869992 0.0305829 0.0886445 -0.0695146 -0.065607 -0.0729255 0.0391422 -0.0438737 -0.0627123 0.182407 0.0630634 -0.169409 0.0410703 0.0548624 -0.135312 0.104622 0.164479 -0.0541965 -0.10746 -0.0595243 0.00334801 0.0394327 0.0168663 -0.0228071 0.0984067 0.169557 -0.105634 -0.202138 0.132514 0.199738 -0.0229232 -0.0512465 0.0556152 0.0685534 -0.172051 -0.0175731 -0.0713374 0.0643301 0.0194847 -0.0462649 0.0823222 -0.0397388 -0.115507 0.112291 0.0169793 0.0197402 0.0923682 0.060396 -0.163049 0.107283 -0.0602695 0.184053 -0.100499 0.122129 -0.125897 -0.0637795 0.00775881 -0.105899 -0.0203649 -0.0325841 0.08131 -0.0269744 0.127104 -0.00938624 -0.072642 0.114966 0.0878838 0.0225597 0.0616057 0.0853582 -0.163188 -0.0566534 0.00959817 0.0507246
weight: 0.0429562 0.00988037 0.0312246 -0.141848 0.0940189 0.127088 -0.199233 -0.0684651 -0.0709284 0.0300156 -0.119359 0.141439 -0.116579 -0.0125678 -0.152415 -0.0666544 -0.245032 0.170892 0.0209515 0.00160607 0.0381706 0.151462 0.0442337 -0.144474 0.0418254 -0.0877651 0.0754728 0.0148548 0.00163781 0.152012 -0.220718 -0.0301272 -0.0873942 0.108732 0.00707666 0.0202569 0.0789294 0.023523 0.0760354 -0.106238 -0.0538855 -0.0539184 0.291322 -0.150466 0.0353304 -0.244505 0.0664108 -0.0748038 -0.178305 -0.0680168 0.0242047 -0.0893994 0.244199 -0.117702 0.0915526 -0.0699154 0.0701702 -0.0473318 0.0853944 -0.0201041 -0.182761 0.0223491 0.043873 -0.0919977 0.110745 -0.117693 -0.00971021 0.00350781 0.137387 -0.0812559 0.0569083 0.239656 0.0374677 0.169276 -0.0251003 0.0573582 0.0748315 0.0656468 0.211794 -0.074646 -0.0428836 0.012916 -0.0536727 0.0803179 0.0292802 -0.0755381 0.152829 -0.0611139
weight: -0.0182049 0.0234239 0.0157232 -0.0516553 -0.178133 -0.0983399 0.0897392 0.175178 0.0363193 0.00783362 0.0647311 0.0846589 0.021594 0.0518033 -0.0870581 -0.185444 -0.0333772 0.0410553 -0.013057 -0.113435 0.02568 -0.0124637 -0.227823 -0.0587037 0.0279911 0.128783 -0.133694 0.12827 0.0924022 -0.0152323 0.171742 0.108295 -0.226516 0.104818 -0.0453208 0.0729458 0.040209 0.0794779 -0.0584095 -0.103871 0.0974695 -0.159173 0.836888 -0.460006 -0.207777 -0.136294 -0.0488253 -0.0677339 0.122824 0.0248702 -0.136619 -0.0215506 -0.0810312 -0.114168 -0.0591541 0.0595417 -0.0401172 -0.0771801 0.0216931 -0.0380551 0.079632 0.0161004 0.0271682 -0.206189 0.139658 0.0395729 -0.0873946 -0.00396513 -0.0160695 0.0538863 -0.101403 -0.0631219 -0.019786 -0.0769957 -0.0785824 -0.0251666 -0.229774 -0.107836 0.0877135 -0.0202906 0.00277691 -0.101929 0.043954 -0.0157106 0.0639176 -0.163176 0.163758 -0.140396
weight: 0.0122333 -0.0897221 -0.223921 -0.100949 0.0252978 -0.0405844 0.0107575 0.0527781 -0.0245491 0.0849749 0.0223612 -0.0103365 0.117828 -0.0202913 -0.0246971 0.253137 0.0600799 0.0884864 -0.0239597 0.00962035 0.0614521 0.18415 0.135885 0.0711491 -0.117425 0.118614 0.0397796 -0.107973 -0.0139643 -0.0839855 -0.0958185 -0.110725 0.232705 0.00460213 -0.00819368 -0.0526964 -0.175382 -0.154112 0.0487976 -0.0446444 -0.195073 -0.107865 0.151916 -0.241584 -0.151852 0.110472 -0.282486 -0.116125 0.0157109 0.117554 0.21652 0.0705022 -0.0272047 0.0893207 0.0517312 -0.074955 -0.0732559 0.128039 0.0921179 0.0584331 -0.130861 -0.0513183 0.020337 0.0367552 -0.100822 0.0693803 0.079083 -0.0754442 0.0569335 0.0444834 0.109302 0.14411 -0.0585277 -0.00252899 -0.165075 0.117314 0.140787 -0.0427895 0.00741786 -0.158629 0.101795 0.133835 -0.15598 0.0834561 0.0400043 0.045052 0.00839132 0.00700737
weight: 0.0168827 0.0614759 0.0653898 0.153791 0.0816721 -0.132863 0.133421 -0.155829 -0.0482682 -0.121395 0.0785934 -0.0204567 0.14806 0.0498963 -0.0952024 0.222669 0.130719 -0.0610246 0.178521 0.221888 -0.0354634 0.118568 -0.127803 0.126661 -0.0658116 -0.0208002 0.165003 0.010599 0.0194694 -0.0663555 0.0176966 -0.035741 -0.0640838 -0.129578 -0.0644787 0.0102905 -0.050992 0.0264644 -0.132908 0.19365 0.00318918 0.0149319 -0.201122 0.0641048 -0.119546 0.141688 0.0637088 0.102995 0.0427289 0.171683 0.0653424 -0.284271 -0.0899698 0.00628385 -0.179236 0.209092 0.0147825 -0.0983776 -0.0969854 0.192556 0.0331693 -0.0477592 -0.144134 0.0963723 -0.00104506 -0.0368066 -0.036091 0.0828704 0.184288 0.126207 0.1066 0.0166548 0.0147917 -0.0367886 0.0107538 -0.0512086 0.0334206 0.142224 0.107838 -0.0247822 -0.146742 -0.0309668 0.115452 -0.0249205 -0.152052 -0.0707647 -0.029042 -0.0335657
weight: 0.0653482 0.220122 0.192153 -0.0116481 -0.14325 0.0678903 -0.143816 0.000974283 -0.0363465 0.144493 0.063169 -0.047803 0.0393201 0.0435942 0.100068 -0.029323 -0.0572113 -0.0759887 -0.0042597 -0.0664166 0.048089 -0.157682 0.0811609 -0.00999448 0.0377171 0.1743 -0.0526797 0.0354614 0.183788 0.0189884 -0.00420082 -0.156063 0.0755664 0.0675969 -0.0392568 -0.142599 0.208757 -0.105333 -0.151244 -0.026106 0.119653 0.0274072 -0.150173 -0.0309616 -0.310996 0.229349 0.124511 0.0615444 -0.0543778 -0.0282066 0.177619 0.0694194 0.127874 0.0728121 0.118118 -0.1156 -0.0329224 0.126549 0.0404247 -0.095237 -0.0890862 0.0602922 -0.0451939 0.0656325 -0.102122 0.0203398 -0.0485931 0.130735 -0.0932418 -0.0238689 -0.170796 -0.15104 0.155084 -0.0671037 0.0183976 0.196216 -0.152054 0.0514442 -0.00877754 -0.0257996 -0.0031806 -0.0024723 0.0442956 -0.18267 0.101138 0.218802 -0.140844 0.136991
weight: 0.0544973 -0.100689 -0.159379 -0.185163 0.0474784 0.0708606 0.0422503 0.155204 -0.0296513 0.0329962 -0.0536878 0.00237473 0.0699853 -0.0535373 0.0893232 -0.138216 0.0410662 -0.0339242 -0.127485 -0.0625262 -0.0610117 0.0423868 0.061808 -0.0790946 -0.192264 -0.19027 -0.1247 -0.0170411 -0.0640686 -0.0328677 -0.024251 0.0153804 0.00122201 0.129664 0.0558985 0.220554 0.00104695 0.0531461 0.056141 0.0807054 0.0650947 0.0741516 0.0872561 0.794807 -0.249923 0.0384276 -0.110646 -0.136516 -0.0703785 -0.0759978 -0.131307 -0.00208602 0.017951 -0.0501785 0.0508743 -0.21062 0.107273 -0.0152488 0.0104654 -0.0188658 0.131483 0.00635709 0.0537035 -0.12289 -0.110902 -0.0298411 -0.054808 -0.182482 -0.092818 0.0882455 -0.087827 -0.0436729 -0.027257 0.213137 -0.0220971 -0.0262716 0.00143893 -0.0166672 -0.0881078 -0.0880582 0.12808 0.0383925 0.0278379 -0.00756788 -0.0322639 -0.131978 -0.024121 -0.107862
weight: 0.0520409 0.0696646 0.0437781 0.0201926 -0.075791 -0.000360216 0.161269 0.0181378 0.0219276 -0.0206375 -0.0767805 -0.0564401 0.10457 0.0305363 0.051997 -0.176869 0.0897202 -0.170633 -0.160202 -0.178111 0.0109602 0.047 0.00718769 0.0379537 0.0916324 -0.0327655 0.00544989 0.118549 0.0220006 -0.0410941 0.138922 0.11954 -0.086739 0.0680471 -0.060019 0.111452 -0.135082 -0.0460177 -0.0170723 0.0231094 -0.0156739 -0.0587788 0.0999692 0.712804 -0.312244 -0.155847 0.186342 0.115708 -0.0757644 0.175875 -0.130713 -0.0223113 0.00426916 -0.00499873 0.125709 -0.038708 0.108367 0.0688983 -0.00630745 0.0368912 -0.0778516 0.0531726 -0.0492872 -0.035635 0.0192164 -0.0281013 0.0370955 0.0979992 0.154519 -0.0120022 0.169689 -0.0577322 -0.0525392 0.187269 0.0502698 -0.140239 -0.23537 -0.148347 -0.169669 0.175863 -0.0247053 -0.0637034 -0.0234419 0.010857 0.105119 -0.036429 -0.0198756 -0.0164673
weight: -0.120898 0.0344209 -0.105083 -0.0829149 0.100153 0.00349236 0.0230832 -0.117851 0.130578 0.0154899 0.0243483 -0.229275 0.121098 0.116272 -0.26783 -0.108611 -0.00515671 0.0939746 0.217187 0.118474 -0.0698209 -0.126002 0.0405634 -0.0358544 -0.00709414 -0.0236077 -0.0608006 -0.0283157 -0.0397762 0.0758896 -0.247759 0.0336715 0.0684254 -0.175074 0.26706 -0.0941623 0.167365 0.136955 0.087245 -0.147647 -0.064207 0.116674 -0.238596 0.413262 0.00348022 -0.0623476 0.0268279 0.0286212 -0.0865068 -0.192257 0.12021 -0.0255932 -0.0317431 0.0657214 -0.230145 0.155482 0.172306 0.000163788 0.0380156 -0.0695256 0.0556901 -0.0297626 0.116397 -0.10638 0.113827 0.131367 0.125941 -0.0099051 -0.0815521 0.0965102 -0.0250196 0.0521134 -0.023971 -0.141532 -0.15293 -0.0472204 -0.00384305 0.0502274 -0.0042679 0.0251881 0.0954349 -0.0635382 -0.0501321 0.0100218 0.0853272 0.0477146 0.0784307 0.00782089
weight: -0.0380959 -0.116292 0.00987133 -0.0336584 -0.027506 -0.0406962 -0.0342376 -0.131142 -0.0398963 -0.130079 -0.0159824 0.0754277 -0.136012 -0.04884 0.0370484 0.0796636 -0.120727 -0.00898553 -0.164289 -0.0285608 0.132193 0.0365722 -0.033639 -0.0345084 0.00781943 -0.0843136 -0.100166 -0.0842566 0.0257106 0.0233914 0.17117 -0.181041 0.11285 0.058103 -0.130064 0.0214918 0.189137 0.0613373 0.089634 -0.109164 0.120091 0.0266944 -0.0213876 0.148207 0.100625 0.153845 0.170456 -0.10221 -0.239832 0.118752 0.041788 -0.0917898 -0.102834 -0.152851 -0.132666 0.030265 0.0742491 -0.151439 -0.00975673 -0.161069 0.134798 0.0155969 -0.0341253 -0.0454333 -0.0887966 0.0149311 -0.269831 -0.110537 0.00784027 0.0542225 -0.0947114 -0.065896 -0.0451973 -0.138177 0.153658 0.0450048 -0.0337166 0.0962481 -0.0377226 -0.134253 -0.100814 0.0925312 0.143906 -0.102253 -0.0172419 0.184843 -0.115917 0.0218289
weight: -0.0535033 0.0251142 0.00814327 0.213709 -0.0372216 0.0463815 0.109676 -0.0121986 -0.0721786 0.196467 -0.0218291 0.019538 -0.012374 0.143575 0.0766595 0.0369021 0.153055 0.0688501 -0.00380708 0.160592 -0.174654 0.0696853 0.201452 -0.160244 0.140371 0.175177 0.0624556 0.000669042 0.127081 -0.055316 -0.180453 0.0976502 -0.0797777 -0.070049 0.0264907 0.0481252 -0.259906 0.114725 -0.108444 0.101694 -0.128281 0.00377027 0.105978 -0.090315 0.228671 -0.245212 -0.0357971 0.151856 0.076863 0.035621 0.0362978 0.156857 0.0330529 0.0540557 -0.0109446 -0.0135476 -0.211114 -0.0940798 0.0782659 0.197822 0.0292455 0.185515 -0.0304845 0.159729 0.0794924 -0.083314 0.153533 -0.105197 -0.214741 -0.176169 0.012452 0.0192783 -0.00200894 -0.0209966 0.0490036 -0.0741234 0.118003 -0.125754 -0.247925 0.126796 0.0707896 -0.0239419 -0.115059 -0.145561 -0.111357 -0.122221 -0.00392873 -0.0703606
weight: 0.0427819 0.00243531 0.0553124 -0.0230878 0.00978671 0.0353091 -0.158592 0.131341 0.0641335 0.0383279 0.142231 0.158435 0.105332 -0.04024 -0.0122458 0.0444975 -0.207847 0.0296568 0.0120522 0.0664256 0.0820608 -0.00307323 -0.00337917 0.133833 -0.0368179 -0.0654888 0.135502 -0.14142 -0.112711 -0.0421081 0.0829577 0.0969809 -0.0572117 -0.0203538 0.141809 -0.0138625 0.239244 0.0512482 -0.0380098 0.118465 0.055913 0.0516642 -0.0573348 0.0199401 0.884714 -0.0991118 0.0604276 -0.20517 -0.0113966 0.00745202 0.14088 0.017663 -0.0144898 -0.117101 -0.0629727 0.0218062 0.0127141 0.138464 0.102298 -0.019782 0.00265952 -0.00279553 0.0758935 0.11996 -0.074404 0.0541148 -0.181531 -0.00224849 0.131307 0.000698724 0.0902423 0.290233 0.210622 -0.085502 0.044706 0.0480838 0.159018 0.0402047 0.0698357 -0.00754307 0.251769 0.0292639 0.137412 0.250005 0.12601 -0.115847 0.0089518 0.0773162
weight: 0.153048 -0.116281 0.0879568 -0.148285 0.0437389 0.0576564 -0.198374 -0.145144 -0.119889 -0.133809 -0.036915 0.000695988 0.0472103 -0.0939275 0.0533507 0.12363 0.129709 0.0313657 0.0314447 0.0894633 -0.208255 0.00457537 -0.0711071 -0.0705824 -0.0486179 -0.0665154 -0.11218 -0.0330086 -0.0409897 0.200749 0.0265756 -0.0237854 -0.0896325 -0.155932 -0.0845317 -0.244459 0.15242 -0.0417857 -0.0578494 -0.0209524 0.0639808 0.116406 -0.145655 -0.0431674 0.937032 -0.40525 -0.112861 0.0768062 0.17671 -0.0937936 -0.0668388 0.211722 0.1163 0.079641 0.180056 -0.091349 -0.062011 -0.0298308 -0.11576 -0.073726 0.0023207 0.0903157 0.0625111 0.0648338 -0.155633 -0.0533162 0.184841 -0.0445143 -0.0178582 0.172233 -0.0112322 -0.0141668 -0.0569585 0.112584 0.0386093 -0.0243848 -0.0659421 -0.0528522 0.00922705 -0.0738789 -0.042441 -0.0515506 0.0916101 -0.0216106 -0.100012 0.0560638 -0.189598 -0.129717
weight: -0.096292 0.0947327 0.0378003 0.194194 0.0613556 0.0630983 0.0735013 -0.160125 -0.0193588 0.148715 -0.0306481 0.0852061 -0.0453518 0.00634411 0.0894856 -0.153836 -0.09286 -0.0927835 -0.0480007 0.0209222 -0.0972029 -0.263491 0.0593216 -0.165148 -0.0116534 0.00130509 0.146245 -0.151126 0.0858141 -0.092568 -0.124253 0.0127723 -0.0127937 -0.119181 -0.157263 0.151088 -0.100376 0.23933 0.26594 0.144164 0.0275353 -0.201315 -0.228716 0.333179 0.182358 -0.328052 -0.28011 -0.226495 -0.242122 0.0890444 0.187172 -0.00873094 0.0542414 -0.107357 -0.00489613 0.175103 -0.0823244 0.166529 0.0365466 -0.0299751 0.126812 -0.122782 -0.00453034 -0.111165 0.206947 0.176544 -0.0832221 -0.253382 0.0675368 -0.104648 -0.180918 -0.141165 0.0988969 -0.0262095 -0.0145043 0.0475384 -0.0280136 -0.0495548 0.0216674 -0.0249598 -0.236057 -0.0993706 -0.18243 0.0815019 0.0286574 -0.180683 -0.0309975 0.0783586
weight: 0.100117 -0.0489051 -0.142024 -0.137756 -0.0785766 0.218254 0.0651133 -0.0589379 -0.0426979 -0.0287676 0.0200787 0.0718559 -0.0212592 -0.00124981 -0.00487784 -0.011707 0.137436 -0.0133506 0.0709118 0.0436707 0.158479 -0.170391 -0.20256 0.130072 0.0191781 -0.0157987 -0.0635261 0.0707673 -0.0321282 -0.199318 0.0975366 -0.135473 -0.02086 0.0239134 0.0735213 0.180082 -0.126854 -0.062267 -0.142968 -0.0597731 -0.00923104 0.171326 -0.0922025 -0.121414 0.0867742 0.0935526 -0.212265 0.334953 -0.0465394 -0.0821342 -0.0997923 0.0020235 -0.135826 0.000826663 -0.10338 0.0778594 0.0855085 -0.1506 0.128184 0.176115 -0.192805 -0.0814507 -0.136034 -0.133434 -0.18622 -0.0196095 0.0116943 0.149437 -0.000643294 0.110571 0.00373755 -0.157473 -0.0291832 -0.00768559 0.0218175 0.0684156 0.156421 0.210342 -0.0746972 0.033539 0.187517 0.040182 -0.0268411 -0.142584 0.0403727 0.147293 0.191191 -0.0908849
weight: 0.101388 -0.109675 0.1968 -0.178 0.0275876 -0.217952 0.0567613 0.0588158 0.0632759 -0.143724 -0.0920537 -0.236556 -0.0782921 -0.00284224 0.00174016 0.148189 -0.0209761 0.14361 -0.0293372 0.0638621 0.0988685 -0.063019 -0.0684426 0.115336 -0.107766 0.0136927 0.107433 -0.0974058 -0.0666256 0.0181545 0.00330776 -0.00898897 0.171731 0.0109576 -0.00570849 -0.101531 0.0295001 -0.0718324 -0.123017 -0.230968 0.100684 0.147148 -0.0621285 -0.182785 -0.00504944 0.00446528 0.218087 0.272502 -0.0103877 -0.0501429 -0.122298 -0.0470039 0.100691 -0.127604 0.159317 0.0117008 0.161285 -0.0279461 -0.101003 -0.0677871 -0.103357 0.0287189 -0.0250884 0.0244721 -0.0693828 -0.115017 0.158471 0.185862 0.0317929 -0.0389014 0.234217 -0.0954356 -0.19223 0.169133 -0.0214859 0.124638 -0.0437565 -0.0725435 0.16115 0.0280638 -0.0543556 0.0265418 0.146826 0.119373 -0.0616426 0.0878557 0.0268599 0.215336
weight: -0.0391921 0.0172904 -0.239246 0.144275 -0.0393457 0.0640814 -0.0123331 0.0834588 0.0288286 0.115409 -0.0177514 0.145665 -0.0666484 -0.213106 -0.0554451 0.0878949 -0.0672692 0.00759432 -0.028781 -0.0557102 0.0446249 0.280635 0.107225 -0.00812495 0.0427516 -0.116139 -0.0607753 0.0426581 -0.187796 -0.0361853 -0.0163251 -0.0103329 -0.0384307 0.033934 0.152304 0.0039066 -0.11808 0.0280361 -0.028318 0.0285578 -0.276814 -0.228205 0.201057 0.155324 0.0223156 0.315892 0.00122122 0.127667 0.0765798 0.0156048 -0.0943703 0.183799 0.210467 0.126908 -0.0431109 -0.0250599 -0.0467801 0.00786205 -0.063984 -0.00574833 -0.185319 -0.105287 0.110491 0.072535 0.073121 0.0384409 0.0567083 -0.0342203 -0.143712 -0.166092 0.245106 0.0716143 0.159718 0.095889 -0.119881 -0.192566 0.0799332 0.0434527 0.00582709 0.0766339 -0.0971831 0.189505 -0.121591 0.153278 0.197042 -0.00744518 0.00459683 -0.023467
weight: 0.0355167 0.00875607 0.0629102 -0.110939 -0.0295477 -0.0227363 0.0799476 0.115567 -0.131785 -0.108582 0.0910702 -0.0809481 0.0186983 -0.0450099 0.0968905 0.0430338 -0.0100026 -0.052112 -0.0561172 -0.0369066 -0.0990068 0.0317964 -0.0558181 0.0749133 -0.0236164 -0.0353629 0.156023 -0.115685 -0.207616 0.170003 0.0504032 0.0509878 0.0524715 0.142879 -0.0034401 -0.0435802 -0.00762494 -0.0104117 -0.0632264 0.0669327 -0.142171 -0.021823 0.0147415 0.135172 -0.0528383 0.725747 -0.382412 0.00950196 -0.0962277 -0.0287915 -0.0146797 0.058859 0.121165 0.0582496 0.0739854 -0.135739 0.0943921 0.0669188 0.0424904 -0.095473 -0.0806931 -0.0249662 -0.0189916 -0.151867 -0.0617297 -0.0533699 -0.0194815 0.0518472 0.0538465 -0.100243 -0.0240555 -0.0228371 -0.0934479 0.117599 -0.147714 0.0224996 0.135722 -0.104107 0.04774 -0.0492706 -0.0926205 -0.0368484 0.0120044 0.053259 0.061743 0.106844 0.0199661 -0.0511568
weight: -0.221607 0.0358364 -0.079658 0.0626676 -0.0259536 0.191974 0.0287007 0.275762 -0.0985579 0.295327 -0.200362 0.249903 -0.0602581 0.00190497 -0.0711342 0.0235639 0.00831579 -0.168935 0.0927519 0.0940203 -0.0173376 0.0562317 0.000196921 -0.12957 -0.100184 0.087632 -0.0722005 -0.0853002 -0.161296 -0.137278 -0.0483783 -0.105153 0.0273966 0.00478146 -0.036261 0.310735 0.0916821 0.0614498 0.0325969 0.240445 0.0185695 -0.129169 0.0592734 -0.244964 -0.0255089 0.277841 0.0886049 -0.0190752 0.182984 0.179358 0.0794559 -0.0388908 0.0241418 0.140216 -0.145117 -0.0140396 0.070525 -0.118855 0.0897492 0.108121 0.0688356 0.0211835 0.133625 0.163474 -0.0852567 0.100061 0.00658394 0.0269561 0.195079 -0.0152117 0.117162 0.175978 0.241973 -0.228338 -0.0107531 0.0562812 -0.0949815 -0.150986 -0.227599 0.0747761 -0.0941329 0.249269 -0.131086 -0.10052 -0.161822 0.0171351 -0.197393 0.218172
weight: 0.0862089 0.121103 0.0108211 -0.11405 -0.133235 -0.191272 -0.104023 -0.034885 -0.00702302 -0.130579 0.0497554 -0.180607 0.0638217 0.0813925 -0.123658 -0.1925 0.00848035 0.077606 -0.0395529 -0.0445383 -0.0189973 0.0673531 0.0727207 0.034091 0.194102 0.0428905 0.173408 0.0362343 0.249025 -0.0774042 0.151562 0.154143 -0.0423649 -0.0850596 0.061721 -0.115766 -0.123034 -0.0783818 -0.091284 -0.0273348 -0.00785775 0.193888 0.0329691 -0.0124141 -0.111394 -0.11512 -0.372947 -0.11986 0.195122 -0.0862975 -0.11403 -0.0394081 -0.0872401 0.00876965 0.0776732 -0.0668028 -0.000900337 -0.0559834 -0.151127 -0.167928 0.0951432 -0.026285 0.102413 0.0274335 0.0529715 0.0361318 -0.178097 -0.10269 -0.045629 0.0564818 -0.0777792 0.126331 -0.0159346 0.0413365 0.0361532 0.052101 -0.120682 0.00106797 0.270897 -0.000782951 0.152034 -0.143625 0.117647 -0.0753466 0.194144 -0.0368232 0.212634 -0.109383
weight: 0.0855917 -0.0861687 0.0707272 0.0766871 0.0806717 -0.0871162 0.115744 0.0253987 0.141085 -0.00733957 -0.0802609 0.0175617 -0.0909037 0.0416964 0.210393 -0.0281934 -0.0507544 -0.00287654 0.000999089 -0.174569 0.0954495 0.0551297 0.012634 0.221947 0.111985 -0.221626 0.108796 0.112149 -0.0460778 0.131902 0.0178533 0.11121 0.0469507 0.00929707 -0.214483 -0.100207 -0.0988455 -0.133739 -0.0853075 -0.019038 0.133222 -0.0786208 -0.151764 -0.0436381 -0.109704 -0.171262 -0.0177177 -0.252656 0.164005 0.0395849 -0.0372745 -0.260363 -0.180462 -0.104215 0.229915 -0.0696219 -0.00979148 0.0702046 -0.0235298 0.152461 0.183209 -0.0286638 -0.0667575 -0.01764 0.0301154 -0.0447908 -0.0148219 -0.0967642 0.0312217 -0.041658 -0.0132844 -0.0981827 -0.0558095 -0.0106569 0.13403 -0.0694799 0.10085 0.0656169 -0.0683958 -0.0235381 -0.031769 -0.0740086 0.0554798 0.0473088 -0.109797 -0.0758571 -0.0676702 0.0771099
weight: -0.080751 0.088765 -0.00344523 0.0260731 0.114812 0.04867 -0.109533 -0.0260274 -0.0165908 -0.0790843 0.152938 0.0325349 -0.0723448 0.0448084 -0.130261 -0.0309339 0.0184995 0.120827 0.156273 -0.0537737 0.0953196 0.153976 0.0503855 -0.0649004 0.0386037 0.0383835 -0.115829 0.0201245 0.0356497 -0.0522355 -0.175491 -0.138436 0.0444258 0.107376 0.0248467 -0.0299884 0.0906175 0.0913158 -0.175037 0.0503106 0.00434313 0.125841 0.0998642 -0.130873 0.0504239 0.197767 0.28911 -0.148438 -0.0821852 -0.0122737 -0.0334388 0.155349 -0.0409799 0.0777822 -0.123477 0.118231 0.0499236 -0.0942908 -0.105005 -0.153332 -0.0420451 -0.0338405 0.0870184 0.120557 0.0906858 -0.0843172 0.0446044 0.160657 -0.0357425 0.0988385 -0.0299198 -0.109142 -0.0285107 0.0654643 0.0532246 -0.164949 0.0288072 0.0224166 0.0229067 0.0785536 -0.0389203 0.0517372 0.0210625 -0.099314 0.0541088 0.0216518 -0.191247 0.127266
weight: -0.095655 -0.0822032 -0.00210334 0.156029 0.0583437 -0.0725228 -0.0159245 0.0571091 0.0952525 0.062097 -0.0693188 -0.134325 -0.0214366 0.0786548 -0.0153676 0.0591969 0.0907195 -0.108753 -0.104066 -0.0795821 -0.0513085 -0.00748186 -0.102036 -0.0186466 0.0712165 0.0308071 0.0507429 0.00956797 0.124858 -0.0562756 -0.080292 0.00354445 -0.030094 -0.0461237 0.0546735 -0.123141 -0.0425629 -0.203191 0.150236 0.241177 -0.177771 -0.176344 0.0245469 -0.030136 -0.243825 -0.177053 0.60618 -0.307882 -0.0608592 -0.082518 0.129203 -0.441744 -0.122148 0.0427531 -0.0499103 -0.118762 -0.15271 0.041495 0.0376483 0.0273305 -0.132604 -0.0121785 -0.218933 -0.0374806 -0.00647769 -0.0741952 -0.116662 -0.0423364 -0.0697151 0.0312206 0.123689 0.0510401 -0.0917266 -0.0574111 0.107687 0.0544112 0.0111029 0.0730971 -0.101985 -0.0477346 0.0159307 -0.112621 -0.0581618 -0.0436334 -0.0342916 -0.221251 0.082981 -0.116503
weight: -0.0477503 0.112733 0.0174209 -0.0730668 -0.130741 0.0815471 0.107924 -0.13134 -0.131556 0.0467963 -0.0851133 -0.143596 0.147944 0.180841 0.0988037 -0.0389405 -0.0978278 -0.0171166 -0.0384273 0.0178853 -0.0289899 -0.0146138 0.0101105 0.148085 0.00346071 -0.168389 0.0312506 -0.0364024 0.00431718 0.0645386 -0.0935973 -0.0647749 0.0263468 -0.110762 -0.188003 0.170174 -0.00317201 -0.00315384 -0.134049 0.135691 0.153034 -0.251035 0.121346 -0.0933625 -0.25507 -0.0386766 0.546547 -0.0633024 0.0374569 0.0939369 0.168056 -0.0609781 0.00451438 -0.0794975 0.076617 -0.0978317 0.0178145 -0.146408 -0.0281263 -0.00706075 0.0217566 -0.0173015 0.055249 -0.0691336 -0.094886 0.269655 -0.135404 0.0166845 0.113984 -0.045989 0.0451217 -0.0973901 0.143935 0.0277644 -0.0667658 0.0274465 0.04308 0.0539591 -0.0529475 -0.0570809 0.0529356 0.124269 -0.177835 0.0336951 -0.270162 0.0327719 -0.0193559 0.00275855
weight: 0.0887154 -0.180155 -0.0750995 -0.033842 0.0863664 0.0935934 -0.0730409 -0.0387467 -0.0402991 -0.0586707 0.202084 0.229003 0.056383 -0.0581029 -0.140675 -0.03169 0.031129 -0.0985235 -0.0862923 0.0680148 0.137337 -0.104324 0.0685277 -0.0119459 -0.0890083 0.133119 0.0597176 -0.0468111 -0.0773227 0.0370044 0.0868646 -0.157915 -0.158358 0.0385848 -0.0508338 -0.239887 0.0657045 0.10468 0.0355388 0.10552 0.0351027 -0.0391501 0.0747586 0.0768448 0.202248 -0.0603301 -0.143826 -0.214305 0.0560798 -0.168887 -0.0875101 -0.146747 -0.0284135 0.211123 -0.00167919 -0.0313321 0.136656 0.144811 -0.0323769 0.0706468 -0.0426613 0.0915405 0.10838 -0.108107 -0.00877962 0.0492647 0.00581116 0.0535658 0.176758 0.0464226 -0.0510027 0.099364 -0.185268 -0.0715088 -0.0796747 -0.151803 -0.042479 0.121391 0.0322737 0.223371 0.122539 -0.122962 -0.025701 0.0977627 0.0420998 0.102192 -0.200974 0.0139122
weight: -0.0125648 0.0227189 -0.0282314 0.160829 0.114002 -0.0717014 -0.0637915 -0.05445 -0.0192441 -0.0609102 0.203347 0.0124171 0.0100288 0.0391271 0.0453607 0.118376 -0.0039079 0.133588 -0.104773 -0.158301 -0.00753361 -0.0159557 -0.129141 -0.126878 -0.0519707 0.134439 -0.0427986 -0.050283 0.00430614 -0.125545 -0.0281408 0.107759 0.0616329 0.194564 0.122103 -0.185537 -0.181382 -0.24923 0.139412 0.0022783 -0.0578833 -0.0826469 0.250558 0.18063 -0.0608123 -0.0535833 -0.0368612 -0.026404 0.171363 -0.138622 -0.0277108 -0.138877 0.0565675 -0.105004 -0.0774796 0.169837 0.0369892 -0.0624286 0.124823 0.0001182 0.0651718 0.0925043 -0.102756 -0.106151 0.0588758 -0.127431 0.10001 0.0649645 -0.0125867 -0.184201 -0.131025 -0.120169 0.140933 -0.151067 0.0280558 0.115907 -0.0511859 0.0983843 0.117087 -0.102889 -0.158153 0.101329 -0.0584023 0.145226 -0.206036 -0.092397 0.0377213 0.0122088
weight: 0.0423367 0.056485 -0.137724 -0.0226176 0.0330572 -0.0733181 -0.0296319 -0.129118 0.171323 0.0225001 -0.197137 -0.134992 0.0831948 -0.0435486 0.137577 0.0944903 0.00242162 -0.0332087 -0.136573 0.0869602 -0.176097 -0.289536 -0.00911773 0.0143128 0.0846176 -0.0816597 -0.185881 -0.122258 0.0406895 0.0497602 -0.0625539 0.0685114 0.0735393 -0.142096 0.015884 -0.00097753 0.156936 0.0293981 -0.0217814 0.00154571 0.0475247 -0.0392994 0.141953 0.0857659 -0.0562621 -0.108128 -0.0169938 -0.0185753 -0.408973 0.269871 0.0638024 0.128988 -0.0730798 -0.0732151 -0.0146824 0.0185917 -0.0365124 0.0396535 0.0282684 -0.0258884 -0.0262625 0.013105 0.0287852 0.101214 0.103985 0.0229381 0.111152 -0.101424 0.0881943 -0.178261 -0.0771926 -0.194514 -0.0390353 0.0840956 0.0967098 0.128112 0.0117524 -0.113781 -0.038148 0.0841572 -0.12169 -0.0628079 -0.0624594 -0.0228708 0.0354463 -0.0949658 0.133736 -0.165829
weight: 0.0377538 -0.0767578 -0.0728112 0.0118511 0.0174312 -0.0367901 -0.0335717 -0.0731757 -0.10284 0.0830015 -0.0322138 0.0943934 -0.100094 0.064759 -0.0167843 -0.01002 -0.0284378 0.0869005 -0.0611176 0.0747682 -0.0519981 -0.043382 0.0343359 -0.0223796 -0.0851492 -0.0373616 -0.0505401 0.0237585 -0.11834 -0.051823 -0.0273712 0.115659 -0.0858503 -0.0141564 -0.0626845 -0.0170627 0.214946 0.0627346 0.0286151 -0.191272 0.166741 -0.0417749 0.198653 0.0779171 0.0791648 0.134059 0.0847535 0.481604 -0.116748 -0.0312735 0.0369388 0.0347614 0.107112 -0.122845 -0.173747 -0.00369524 -0.000844509 0.0718782 0.0168321 0.029088 0.00723289 0.0130668 0.0319089 0.016001 0.0651178 -0.120494 -0.012903 -0.0216014 -0.165819 0.0215633 -0.0829245 0.0737612 -0.0739919 0.036558 -0.0923413 0.0771776 -0.138103 -0.038675 -0.00683363 0.0417337 0.0229357 0.0267435 -0.0124232 0.026821 0.138544 0.0644304 -0.0258858 -0.0743234
weight: 0.0748221 0.0719715 -0.0114016 -0.026119 0.0897959 0.113159 0.023975 0.186418 0.0300435 0.0069475 -0.0595029 -0.021805 -0.0291525 -0.0151528 0.0985832 -0.0855076 -0.0545425 0.0450863 0.123625 -0.0500645 -0.0617052 0.0827296 -0.034894 -0.123856 0.0922081 -0.0218432 0.0373972 0.01727 0.03932 0.0319111 -0.102414 -0.0022162 0.104435 0.0346517 0.0297872 -0.0211075 -0.226193 0.00484 0.0936058 -0.13078 0.082305 0.049383 -0.168714 0.070805 0.0701728 0.01352 -0.0396234 0.64041 -0.0209111 0.138864 -0.0798397 -0.0251165 0.0613859 -0.000283194 0.0194116 0.0268296 -0.0434978 0.0024994 0.0189901 -0.035697 -0.0735193 -0.0207276 -0.014005 -0.0169453 0.0396339 -0.118545 -0.0147181 -0.141126 0.0465761 0.00195422 0.0347864 -0.0096786 0.0532886 -0.0270516 -0.00204776 -0.14749 0.0211158 0.0620105 -0.0220812 -0.0991256 0.0297289 -0.00291553 -0.0101434 0.0316676 0.107837 -0.0859382 0.0369547 -0.0267612
weight: 0.100684 0.010914 0.0261287 -0.0775526 -0.078937 -0.102669 -0.0164748 -0.0392479 -0.122469 0.0525751 -0.0208795 -0.0623337 -0.0738784 -0.0972963 -0.157198 0.00379196 0.0942824 0.0795142 -0.0846709 -0.0283478 0.0150126 0.0186668 -0.0340808 -0.00160875 -0.130742 0.172761 0.0316865 0.105168 0.0419945 -0.0388665 -0.0086623 -0.0321659 -0.133413 -0.104284 -0.213195 0.00697932 0.0674624 -0.084059 0.0121872 0.049484 0.266744 -0.028237 -0.176303 0.00611423 -0.0124421 -0.0326907 0.0346838 0.488211 -0.122417 0.16697 0.00948057 -0.0682525 -0.138957 -0.00451839 -0.100119 0.144757 0.0260391 -0.0148793 -0.0221584 -0.00183176 0.178356 0.0445103 -0.0544627 -0.0564751 0.0148241 0.0874556 0.0212732 0.123034 -0.0848635 -0.0833557 0.111705 -0.0991186 -0.0579438 -0.0431022 -0.0319569 0.118588 -0.043155 -0.0449741 0.0629294 0.0226495 0.0470177 -0.0848303 0.0487528 -0.100365 0.0602189 -0.0130788 0.0667839 0.0248441
weight: -0.181622 -0.0619785 0.0396795 -0.167013 -0.00935126 -0.137956 0.106652 0.0838893 0.0679041 -0.0838645 -0.0383155 -0.0406032 -0.0847887 0.0615461 -0.116421 -0.0676669 0.0596639 -0.155563 -0.0257044 0.0841468 0.114548 -0.00454846 -0.0479388 0.116229 0.0752762 0.0574357 0.0401516 0.0301712 -0.131018 -0.0595462 0.0208333 0.129023 -0.0296374 0.0449765 -0.0840936 0.0256649 -0.178103 0.0567398 0.0203695 -0.234424 -0.168919 0.204363 -0.0455202 -0.156596 0.128171 -0.072691 -0.199872 -0.0384901 -0.10406 0.12241 -0.200709 -0.0832894 -0.0675628 -0.014351 -0.0992454 -0.0277179 -0.0614506 -0.0572513 0.0472269 -0.00718361 -0.135738 -0.207896 -0.0895298 0.0717963 -0.0532445 0.0757085 -0.112067 0.0533804 -0.111289 -0.00937726 0.0723269 -0.11649 -0.0976634 -0.0207131 -0.0538703 -0.0257654 0.16631 0.00561695 -0.0820606 -0.0288538 -0.0538561 -0.0101261 0.14789 0.043266 0.0226589 -0.0528235 -0.0315638 -0.0661423
