weight: -0.0374004 0.0192222 -0.0367167 0.00359012 0.027498 0.0123417 -0.0384105 -0.0182461 -0.0387228 -0.0267496 0.0161089 -0.013228 -0.0327922 -0.0190222 -0.0332925 -0.0373251 -0.0365132 -0.0274483 -0.0346248 -0.0363971 -0.0353551 -0.0362671 -0.0379173 -0.0386171 -0.036231 -0.0376808 -0.0387808 -0.0380975 -0.0387544 -0.0216297 -0.0387881 -0.0362274 -0.024047 -0.0362131 -0.0362874 -0.0276634 -0.0374381 -0.029149 -0.035743 -0.203217 -0.111073 0.0496188 -0.0250684 -0.0196073 -0.013512 -0.258157 0.278332 0.160298 -0.00551411 0.129603 -0.0348879 0.160294 0.0530592 -0.244692 0.256519 0.042023 0.0759798 -0.135754 0.0808596 -0.0448046 0.0236764 -0.0859168 -0.0382503 -0.0131452 -0.0334438 -0.0269275 -0.0351821 0.0261702 -0.0371943 -0.0387835 -0.0367634 -0.0208146 -0.0370193 -0.026477 -0.0224483 -0.0334915 -0.0330403 -0.0387274 -0.0385091 -0.0385913 -0.038786 -0.0381992 -0.03821 -0.0374167 -0.031419 -0.0351886 -0.0386004 -0.037647
weight: -0.0378997 0.0181202 -0.0374022 0.00340014 0.0253678 0.00892419 -0.0385144 -0.0209897 -0.038576 -0.0288253 0.0127665 -0.0162547 -0.0341815 -0.0217148 -0.0346116 -0.0378465 -0.0372476 -0.0294562 -0.0357364 -0.0371588 -0.0363354 -0.0370584 -0.0382438 -0.0385814 -0.0370301 -0.0380907 -0.0385132 -0.0383523 -0.0385558 -0.0241363 -0.0384702 -0.0370277 -0.0263634 -0.0370159 -0.037074 -0.0296496 -0.0379263 -0.0309808 -0.0366463 -0.212973 -0.150777 0.0226746 -0.0152092 -0.0240359 -0.0148052 -0.183194 0.241603 0.130883 0.0123788 0.123485 0.00411325 0.245405 0.0815131 -0.213456 0.250849 0.0289717 0.048432 -0.0541697 0.0678461 -0.0471938 -0.0091217 -0.0930318 -0.0384366 -0.0161753 -0.0347408 -0.0289854 -0.0361949 0.0234251 -0.0377538 -0.0383997 -0.0374369 -0.0233812 -0.0376266 -0.0285786 -0.0248924 -0.0347814 -0.0343944 -0.0385738 -0.0385529 -0.0385766 -0.0384216 -0.03841 -0.0384154 -0.0379116 -0.0329875 -0.0362004 -0.0385784 -0.0380687
weight: -0.0353337 0.0187051 -0.0349291 0.00351753 0.0261622 0.0100182 -0.0357986 -0.0194572 -0.035817 -0.0271086 0.0137959 -0.0147911 -0.0321199 -0.020171 -0.0325072 -0.0352914 -0.0348016 -0.0277127 -0.0335054 -0.0347272 -0.0340266 -0.0346432 -0.0356028 -0.0358354 -0.0346193 -0.0354845 -0.0357504 -0.0356832 -0.0357933 -0.0225509 -0.0357084 -0.0346173 -0.0247275 -0.0346073 -0.0346564 -0.0278974 -0.0353545 -0.0291592 -0.0342937 -0.0981482 -0.0589032 -0.0544228 -0.0642086 0.0324863 0.0316605 -0.190472 0.196779 0.17961 -0.011559 0.0402091 -0.0379796 0.0827568 0.0480373 -0.127713 0.192596 0.0382994 0.0712168 -0.146797 0.091972 -0.0242592 0.0351363 -0.00747762 -0.0357448 -0.0147131 -0.0326231 -0.0272628 -0.0339053 0.0242853 -0.0352169 -0.0356429 -0.0349574 -0.0218103 -0.0351138 -0.0268709 -0.0232913 -0.0326592 -0.0323124 -0.035814 -0.0358225 -0.035834 -0.0356642 -0.0357251 -0.03573 -0.035343 -0.0310295 -0.03391 -0.0358343 -0.0354677
weight: -0.0240939 0.0154631 -0.0232347 0.00278255 0.0233565 0.0136178 -0.0255724 -0.00834166 -0.0262531 -0.0143922 0.0163657 -0.0048033 -0.0192124 -0.00888988 -0.019666 -0.0239957 -0.022991 -0.014909 -0.0209414 -0.0228543 -0.0216948 -0.0227036 -0.0248015 -0.0259761 -0.0226619 -0.0244693 -0.0265121 -0.0250656 -0.0263707 -0.0107283 -0.0266085 -0.0226579 -0.0124391 -0.0226414 -0.0227275 -0.015069 -0.0241434 -0.0161985 -0.022113 -0.0302345 -0.0920265 -0.115003 -0.0312073 0.0154758 0.0956665 -0.0727706 0.203732 0.0797401 0.0180142 0.0631556 -0.0127056 0.108378 0.0739643 -0.0757133 0.174699 0.0137322 0.0262929 -0.0281627 0.0262302 -0.069416 0.0119873 0.0110239 -0.0253033 -0.00474398 -0.0198056 -0.0145233 -0.0215111 0.0232456 -0.023828 -0.0267232 -0.0232906 -0.0101539 -0.0236065 -0.0141921 -0.0113057 -0.01985 -0.0194357 -0.0262694 -0.0257529 -0.0259199 -0.0266906 -0.0252228 -0.02524 -0.0241154 -0.0180243 -0.0215188 -0.02594 -0.0244237
weight: -0.0218056 0.0166261 -0.0203846 0.00297979 0.0256353 0.0176805 -0.0245664 -0.00281163 -0.026109 -0.00887154 0.02025 0.000528528 -0.0145746 -0.0033367 -0.0151739 -0.0216385 -0.0199968 -0.00943125 -0.0169306 -0.0197825 -0.0180205 -0.0195465 -0.0230599 -0.0254494 -0.0194815 -0.0224592 -0.0267852 -0.0235563 -0.02641 -0.00512316 -0.0270554 -0.0194752 -0.00683326 -0.0194496 -0.0195831 -0.00960748 -0.0218903 -0.0108775 -0.0186433 0.0142358 -0.0745958 -0.203383 0.0397284 0.0877577 0.168869 0.0594456 0.0569913 0.043742 0.0551543 0.0436464 -0.0283331 -0.0850031 0.170023 0.0147408 -0.119118 -0.0131594 -0.013787 0.0580063 0.0675645 -0.123714 0.0331207 0.0674584 -0.0240186 0.000583536 -0.0153612 -0.00901285 -0.0177524 0.0262462 -0.0213559 -0.0273924 -0.0204742 -0.00455996 -0.0209883 -0.00865744 -0.00569462 -0.0154212 -0.0148677 -0.0261509 -0.024951 -0.0253209 -0.0272954 -0.0238602 -0.0238939 -0.0218426 -0.0130597 -0.0177625 -0.0253671 -0.0223781
weight: -0.031806 0.0172165 -0.0292679 0.00278889 0.0299242 0.0249515 -0.0369975 0.000446309 -0.0400012 -0.00963596 0.027567 0.0053153 -0.0193883 -0.000374844 -0.0203902 -0.0315021 -0.0285891 -0.0106082 -0.0233379 -0.0282162 -0.0251869 -0.0278075 -0.0341255 -0.0387105 -0.0276942 -0.033005 -0.0413302 -0.0350637 -0.0405921 -0.00325598 -0.0418628 -0.0276842 -0.00612524 -0.0276401 -0.0278703 -0.0109131 -0.0319602 -0.013116 -0.0262521 0.160682 0.254672 0.418377 0.0596871 0.167734 0.0891505 0.219865 -0.0563507 0.0817684 0.146953 -0.0480799 -0.137782 -0.0683824 0.0358657 0.261739 -0.262251 -0.0136223 -0.143672 0.177534 -0.0570281 -0.197683 -0.153637 0.0242927 -0.0359454 0.0053911 -0.0207031 -0.00988019 -0.0247298 0.0325596 -0.0309922 -0.0425266 -0.0294266 -0.00233458 -0.0303358 -0.00926391 -0.00420422 -0.020802 -0.0198782 -0.0400828 -0.0377414 -0.038461 -0.0423358 -0.0356424 -0.0357059 -0.0318733 -0.0168456 -0.0247481 -0.0385509 -0.0328556
weight: -0.0216789 -0.00013338 -0.0233435 0.000259106 -0.00603894 -0.0199792 -0.018534 -0.0316803 -0.0169083 -0.0332743 -0.0182674 -0.0298681 -0.0297924 -0.0319443 -0.0292084 -0.0218752 -0.0238013 -0.0331539 -0.0273544 -0.024053 -0.0261192 -0.0243318 -0.0202255 -0.017591 -0.0244085 -0.0209177 -0.016229 -0.0196576 -0.0166041 -0.0327394 -0.0159627 -0.0244157 -0.0332414 -0.0244469 -0.0242888 -0.0331053 -0.02158 -0.0325886 -0.0253937 -0.0023061 0.330173 0.438159 0.22962 -0.0575696 0.104389 0.351122 -0.765728 -0.0147354 -0.527082 -0.208442 -0.0486223 0.103984 -0.447951 -0.222959 -0.280412 0.136714 -0.0378312 0.0397064 -0.272339 0.161945 0.0371833 -0.0917357 -0.0191379 -0.0298368 -0.0290193 -0.0332494 -0.0264286 -0.0113205 -0.0222041 -0.0156358 -0.0232379 -0.0325115 -0.0226357 -0.0333053 -0.0329441 -0.02896 -0.0295103 -0.016866 -0.0181186 -0.0177249 -0.0157298 -0.0193145 -0.0192768 -0.0216354 -0.0311281 -0.0264173 -0.0176758 -0.021013
weight: 0.0697253 -0.0283136 0.0690475 -0.00496962 -0.0407662 -0.0127832 0.0697767 0.0341388 0.0688853 0.0506972 -0.0185512 0.0256713 0.062369 0.0355321 0.0633155 0.0696647 0.0687955 0.0520913 0.0657861 0.0686445 0.0670594 0.0684675 0.0699772 0.0693599 0.068416 0.0698992 0.0682332 0.0699764 0.068615 0.0404294 0.06792 0.068412 0.0452327 0.0683909 0.0684949 0.0525172 0.0697528 0.055425 0.0676892 -0.217473 -0.360052 -0.209712 -0.147925 0.0878413 -0.0854181 0.0208701 -0.100339 -0.317443 0.117239 -0.137996 0.154264 -0.114983 0.210627 0.153112 -0.0181526 -0.141221 0.00656502 -0.0968572 0.0781289 0.155382 0.259837 0.321376 0.0699194 0.0255374 0.0636019 0.0510528 0.066767 -0.03621 0.0695533 0.0674876 0.0691027 0.0388633 0.0693827 0.0501494 0.0420311 0.0636899 0.062838 0.0688495 0.0696244 0.0694357 0.0676172 0.0699453 0.0699408 0.0697375 0.0597641 0.0667771 0.0694093 0.0698828
weight: 0.0724735 -0.0203267 0.0724576 -0.00410752 -0.0232223 0.00726161 0.0714428 0.0464764 0.0701533 0.0592957 0.00212815 0.0396677 0.0686351 0.0475696 0.0693117 0.0724897 0.0723916 0.0604256 0.0709233 0.0723438 0.0716392 0.0722819 0.0721871 0.0707771 0.0722622 0.0723597 0.0693862 0.0719917 0.0698284 0.0513404 0.0690376 0.0722604 0.054992 0.0722531 0.0722914 0.0607711 0.0724628 0.0631483 0.071952 0.0415585 -0.0165873 0.0933209 -0.0845069 0.137096 0.0114763 0.247184 -0.141347 -0.360385 0.00964412 0.0916343 0.0190458 -0.0772933 -0.011785 0.333319 0.123818 -0.0213791 0.0403057 0.186454 0.0885803 0.152885 -0.0111519 0.0915795 0.0717666 0.0395593 0.0695115 0.0595831 0.0714827 -0.0158464 0.0725068 0.0685705 0.0724693 0.0501456 0.0725074 0.0588556 0.0525552 0.0695715 0.0689742 0.0701096 0.0711753 0.0708855 0.0687095 0.0718489 0.0718326 0.0724689 0.0666529 0.0714891 0.0708474 0.0723776
weight: 0.0720213 -0.00191441 0.0731034 -0.000695022 0.00210272 0.0312488 0.0693754 0.0685813 0.0675503 0.0744089 0.0256093 0.0636487 0.0754005 0.0692649 0.0753142 0.0721571 0.0733652 0.0746819 0.0748771 0.073504 0.0744568 0.0736508 0.0709135 0.0683611 0.0736896 0.071464 0.0666796 0.0704319 0.0671662 0.0713699 0.0663203 0.0736942 0.0730107 0.0737085 0.0736285 0.0747586 0.0719518 0.0751806 0.0741593 -0.000446823 -0.215104 -0.420784 -0.0234452 0.0885795 0.055157 0.568099 0.00740213 -0.320361 0.00364241 -0.110866 -0.0268189 -0.247216 0.0537094 0.359184 0.308454 -0.187004 -0.0945352 0.194024 -0.0401719 -0.0508716 0.218984 0.338629 0.0699629 0.0635626 0.0752818 0.0744835 0.0745729 0.00845836 0.0723836 0.0658682 0.0730405 0.0707455 0.0726648 0.074294 0.0719598 0.0752705 0.075362 0.0674978 0.0689451 0.0685139 0.0659991 0.0701279 0.0700934 0.0719913 0.0754712 0.0745671 0.0684585 0.0715332
weight: 0.0110821 -0.0368186 0.00822271 -0.00622841 -0.0627183 -0.0688865 0.0170055 -0.0273483 0.0207751 -0.0145608 -0.0717849 -0.0347283 -0.00310177 -0.0262108 -0.00195018 0.0107422 0.00745081 -0.0134037 0.00143751 0.00702585 0.00355935 0.0065575 0.0136817 0.0191121 0.00643033 0.0124236 0.022568 0.0147466 0.0215632 -0.0223995 0.0233134 0.00641707 -0.0187898 0.00636702 0.00663041 -0.0130395 0.0112539 -0.0104135 0.00477959 0.214283 -0.0219814 0.213097 -0.115057 -0.0169336 0.00222743 -0.0251239 0.0767806 0.173013 0.0511131 0.106737 0.0003493 -0.152924 -0.126551 0.238466 0.376145 0.00351722 0.166528 -0.176122 -0.108355 0.0821735 -0.0489283 -0.0935625 0.0157641 -0.0348526 -0.00159223 -0.0142703 0.00303315 -0.0713254 0.0101703 0.0242618 0.00840067 -0.0235935 0.00943094 -0.0150058 -0.0211863 -0.00147767 -0.00253886 0.0208829 0.0179064 0.018798 0.0239853 0.0154131 0.0154855 0.0111559 -0.00603022 0.00305544 0.0189094 0.0122569
weight: -0.152588 0.0242493 -0.153543 0.00497044 0.0224071 -0.0487812 -0.149023 -0.127347 -0.145911 -0.143401 -0.0365351 -0.116681 -0.151985 -0.128927 -0.152509 -0.152729 -0.153707 -0.144543 -0.15361 -0.153783 -0.153929 -0.153851 -0.151263 -0.147357 -0.153866 -0.151957 -0.144227 -0.150603 -0.145186 -0.134106 -0.143491 -0.153867 -0.138685 -0.153872 -0.15384 -0.144885 -0.152515 -0.147182 -0.153973 -0.493883 0.12467 -0.120925 0.249406 -0.00411349 0.139652 -0.230233 0.0474159 0.110713 0.108434 -0.110717 -0.0427947 0.29273 -0.0294651 -0.0200261 -0.228624 -0.0729979 -0.0279468 -0.218819 -0.0922022 0.0570748 -0.140436 -0.219243 -0.149922 -0.1165 -0.152659 -0.143696 -0.153878 0.00448101 -0.152952 -0.142522 -0.153499 -0.132509 -0.153205 -0.142949 -0.135685 -0.152702 -0.152249 -0.145813 -0.148333 -0.147615 -0.142807 -0.150165 -0.150114 -0.152556 -0.150347 -0.153879 -0.147523 -0.15204
weight: 0.0513453 0.00290643 0.0558243 -0.00189332 0.0325944 0.0830149 0.04277 0.10723 0.0380107 0.0939652 0.0770414 0.108395 0.075454 0.106664 0.073373 0.0518721 0.0570606 0.0922473 0.0672626 0.0577456 0.0635443 0.058506 0.0474196 0.0400654 0.0587162 0.0492961 0.0358248 0.0458764 0.0370486 0.103805 0.0349132 0.0587353 0.0998153 0.0588196 0.0583884 0.0917039 0.0510799 0.087712 0.0614594 -0.160088 -0.0235598 0.223824 0.0997776 0.0204192 -0.101696 0.0267494 0.0816054 -0.059438 -0.181559 -0.104102 0.0508687 -0.133768 -0.106854 -0.0973014 -0.337302 0.189344 -0.0604087 0.0235436 0.175989 0.0433445 -0.0434648 0.0271138 0.0444486 0.108385 0.0727183 0.0935367 0.0644509 0.0521605 0.0527576 0.0337386 0.0555381 0.104859 0.0539156 0.0946128 0.102599 0.0725145 0.0744386 0.0378776 0.0415927 0.0404588 0.0340826 0.0449369 0.0448345 0.05123 0.0806117 0.0644151 0.0403155 0.049552
weight: -0.0179417 -0.00631165 -0.0155189 -0.00196292 0.00360145 0.0315478 -0.0222123 0.0222817 -0.0243343 0.0088188 0.0292303 0.0275238 -0.00446161 0.0213101 -0.0056533 -0.0176646 -0.01483 0.00741658 -0.00905955 -0.0144433 -0.0111494 -0.0140147 -0.0199547 -0.0234467 -0.0138959 -0.0190044 -0.0252078 -0.0207196 -0.0247276 0.0177116 -0.0255452 -0.0138846 0.0138193 -0.0138372 -0.0140814 0.00697321 -0.0180805 0.00380611 -0.0123342 0.0913743 -0.260855 -0.124571 -0.083699 0.0163635 0.166861 0.17241 0.352356 0.0560538 0.131507 0.106637 0.0296072 -0.0142141 -0.0661812 -0.081798 -0.112393 0.187536 -0.0111217 -0.0950852 0.00763928 0.0684074 0.0256955 0.0389922 -0.0214141 0.0275961 -0.00602065 0.00846684 -0.010637 0.0153499 -0.0171917 -0.025952 -0.0156766 0.0188983 -0.016567 0.00935466 0.016457 -0.00613679 -0.005048 -0.0243894 -0.0227581 -0.0232726 -0.0258358 -0.0211781 -0.0212277 -0.0180008 -0.00129279 -0.010658 -0.0233357 -0.0188761
weight: 0.131897 -0.0669919 0.128435 -0.0132887 -0.0936241 -0.0376867 0.138746 0.0640882 0.142745 0.0910772 -0.0516606 0.0483045 0.111969 0.0665372 0.113864 0.13149 0.127474 0.0933501 0.119186 0.126937 0.122295 0.126343 0.134967 0.14102 0.126176 0.133491 0.14453 0.136201 0.143538 0.0747792 0.145247 0.12616 0.0824618 0.126095 0.126435 0.0940534 0.132103 0.0990367 0.123991 0.426243 0.219883 -0.242206 -0.189747 -0.185288 0.112434 0.201564 -0.197154 -0.0453447 0.0621552 -0.299337 0.0514548 -0.463072 0.062323 0.175717 0.0929269 0.147788 0.0695571 0.0861932 -0.146116 0.00994714 0.149341 0.231764 0.137359 0.048046 0.114448 0.0916524 0.121545 -0.0886282 0.130805 0.146139 0.128655 0.0721977 0.129913 0.0901997 0.0773782 0.114629 0.1129 0.142855 0.139731 0.140686 0.145883 0.136963 0.137046 0.131987 0.106965 0.121574 0.140807 0.133292
weight: -0.129145 0.0247775 -0.133207 0.00671189 0.00935645 -0.0495552 -0.118649 -0.116165 -0.11108 -0.136293 -0.0412845 -0.103965 -0.141331 -0.118115 -0.141086 -0.129666 -0.134172 -0.137501 -0.13962 -0.13468 -0.138127 -0.135216 -0.124837 -0.11448 -0.135359 -0.126989 -0.107322 -0.122923 -0.109439 -0.124701 -0.105731 -0.135374 -0.130596 -0.13543 -0.135135 -0.137844 -0.128878 -0.139837 -0.137054 0.0502219 -0.410051 0.121755 -0.00290891 0.0730949 0.198168 -0.00915918 -0.236585 0.2739 -0.00138076 0.105855 -0.127694 0.0773335 0.212066 -0.17601 0.48014 -0.221359 -0.128776 0.181864 -0.236729 0.0385727 0.000530939 -0.0854005 -0.121031 -0.103773 -0.140981 -0.136613 -0.13854 -0.0104012 -0.130521 -0.103677 -0.132974 -0.122648 -0.131581 -0.135787 -0.12674 -0.140945 -0.141227 -0.110857 -0.116883 -0.115109 -0.104279 -0.12169 -0.121552 -0.129031 -0.141387 -0.138521 -0.114881 -0.127269
weight: -0.209643 0.100873 -0.202626 0.0198703 0.143191 0.0949169 -0.221956 -0.06559 -0.227907 -0.12323 0.110375 -0.0349205 -0.168912 -0.0705162 -0.172862 -0.208837 -0.200636 -0.128369 -0.183704 -0.199524 -0.189974 -0.198288 -0.215472 -0.22545 -0.197944 -0.212725 -0.230283 -0.217679 -0.228984 -0.0874783 -0.231192 -0.197911 -0.103891 -0.197776 -0.19848 -0.129958 -0.210044 -0.141038 -0.193435 0.139083 0.319516 0.0532915 0.2957 0.205156 0.302108 -0.0571564 0.0652258 0.228616 -0.172261 -0.0780191 -0.227707 -0.307212 -0.402035 -0.0940301 -0.475515 -0.0182359 0.0806635 -0.249581 -0.0706791 -0.300325 -0.108178 0.0107323 -0.219675 -0.0344312 -0.174073 -0.124532 -0.188458 0.14542 -0.207467 -0.232289 -0.203084 -0.0821047 -0.20566 -0.121237 -0.0929462 -0.174445 -0.170861 -0.228058 -0.22351 -0.224957 -0.231976 -0.218996 -0.219139 -0.209818 -0.158266 -0.188517 -0.225137 -0.212345
weight: -0.0685513 0.0506462 -0.0620593 0.00894956 0.0824793 0.0799359 -0.081463 0.022714 -0.0890459 -0.00467187 0.0843228 0.035241 -0.033963 0.0205951 -0.0369765 -0.0677868 -0.0602762 -0.00751406 -0.0456883 -0.0592864 -0.0509806 -0.0581935 -0.0743417 -0.0857512 -0.0578913 -0.0715566 -0.0925426 -0.0766669 -0.0905855 0.0130328 -0.0939893 -0.0578603 0.00526588 -0.0577425 -0.0583607 -0.00841048 -0.0689409 -0.0149741 -0.0539573 -0.488471 -0.0197084 0.250552 0.0086132 0.151066 -0.00104302 -0.363076 -0.0268724 0.254515 -0.189806 0.0838349 -0.263772 0.326188 -0.0728024 -0.185182 0.392356 -0.0241356 0.0138861 -0.087113 0.11239 -0.198334 -0.0974651 -0.178535 -0.0788527 0.035431 -0.0379155 -0.00538303 -0.0496878 0.0908415 -0.0664978 -0.095833 -0.0624709 0.015474 -0.0648198 -0.00359406 0.0104987 -0.0382086 -0.0354376 -0.0892575 -0.0833175 -0.0851227 -0.0952968 -0.0781023 -0.0782602 -0.0687229 -0.0262623 -0.0497393 -0.0853507 -0.0711817
weight: 0.140725 -0.0367232 0.13996 -0.00833939 -0.038577 0.00407603 0.141455 0.0896953 0.141371 0.118731 -0.00448239 0.0731183 0.133554 0.0923429 0.13448 0.140646 0.139707 0.120827 0.13683 0.139558 0.138041 0.139386 0.141197 0.141442 0.139336 0.140997 0.141263 0.141321 0.141324 0.10141 0.141221 0.139331 0.109882 0.139313 0.139413 0.121453 0.140764 0.12553 0.138639 -0.256527 -0.197221 -0.358943 0.00193369 -0.148704 -0.47118 -0.0578504 0.0354045 -0.498618 -0.0417173 0.178456 0.20804 0.14782 0.115778 0.221567 0.0118521 0.138949 -0.00758395 -0.0181117 0.133978 0.417977 0.130462 0.00446748 0.141404 0.07285 0.134757 0.119273 0.137763 -0.0295973 0.14051 0.141165 0.140015 0.098551 0.140313 0.117888 0.104296 0.13484 0.134015 0.141365 0.141463 0.141448 0.14118 0.141378 0.141382 0.140742 0.130834 0.137773 0.141447 0.140967
weight: 0.442517 -0.206811 0.433157 -0.0407276 -0.27333 -0.102458 0.456787 0.207981 0.462022 0.306233 -0.139716 0.154536 0.381597 0.216478 0.387982 0.441483 0.430386 0.314803 0.405198 0.428814 0.414822 0.427053 0.449692 0.460059 0.42656 0.44639 0.463556 0.452227 0.462767 0.245645 0.464019 0.426513 0.273675 0.426319 0.427327 0.317442 0.443036 0.335834 0.419992 0.381436 -0.352119 -0.481123 -0.603477 -0.027505 -0.393237 0.312615 -0.342843 -0.289516 0.229205 -0.345404 0.502228 -0.396336 0.642256 0.45609 -0.432654 0.0662311 0.230777 0.33345 0.357545 0.341306 0.344887 0.618289 0.454419 0.153671 0.389927 0.308407 0.412524 -0.247601 0.439691 0.46447 0.433787 0.236422 0.437288 0.302901 0.255014 0.390529 0.384751 0.462131 0.458298 0.459629 0.464355 0.453686 0.453842 0.442744 0.364222 0.412617 0.459788 0.445923
weight: -0.0281965 -0.00527124 -0.032394 0.000544654 -0.0276255 -0.0588599 -0.0195579 -0.0645619 -0.0144953 -0.0584199 -0.0566108 -0.0656274 -0.0473028 -0.064263 -0.0459234 -0.0287024 -0.0335069 -0.0575138 -0.0416976 -0.0341136 -0.0389146 -0.0347755 -0.0243393 -0.0166875 -0.0349587 -0.0262023 -0.0121981 -0.0227777 -0.0134789 -0.0629554 -0.0112625 -0.0349742 -0.0612357 -0.0350465 -0.0346728 -0.0572191 -0.0279409 -0.0549715 -0.0372564 -0.0884769 0.0660544 -0.104583 -0.0349431 -0.0893051 -0.0667271 0.0967063 0.176564 -0.213063 0.123948 -0.00758273 -0.0581718 0.0522554 -0.117775 0.00640058 -0.308888 -0.094131 -0.0985918 0.300303 0.0665626 0.122693 0.175217 -0.137275 -0.0213108 -0.065635 -0.0454852 -0.0581974 -0.0396125 -0.0425413 -0.0295472 -0.0100857 -0.0321346 -0.0634155 -0.0306352 -0.0587545 -0.06244 -0.0453467 -0.046632 -0.0143546 -0.0183143 -0.017107 -0.0104272 -0.0218155 -0.0217102 -0.028085 -0.0506347 -0.0395867 -0.0169548 -0.0264526
weight: -0.0803427 -0.00139218 -0.0844359 0.0012097 -0.0253074 -0.0903023 -0.0714138 -0.113871 -0.0656171 -0.109538 -0.0827933 -0.113711 -0.0991731 -0.113754 -0.0978277 -0.0808405 -0.0855168 -0.108764 -0.0936154 -0.0861041 -0.0908255 -0.0867502 -0.076475 -0.0681917 -0.086926 -0.0783621 -0.0627853 -0.0748582 -0.0643822 -0.113019 -0.0615869 -0.0869442 -0.111777 -0.0870136 -0.0866507 -0.108506 -0.0800905 -0.106464 -0.0891813 0.206215 -0.00330066 -0.0702845 0.0667991 -0.085725 0.207841 0.359224 -0.113086 -0.0127168 0.204013 -0.211549 0.0034372 0.0353031 0.0397876 0.07011 -0.211109 -0.0507234 -0.112862 -0.270206 -0.306541 -0.0797518 -0.104995 0.170668 -0.0733098 -0.113696 -0.0973955 -0.109349 -0.0915227 -0.0484558 -0.0816657 -0.0600303 -0.0841838 -0.11331 -0.0827277 -0.109815 -0.112666 -0.0972598 -0.098522 -0.0654481 -0.0700376 -0.0686727 -0.0604869 -0.0738457 -0.0737325 -0.0802338 -0.102369 -0.0914954 -0.0684992 -0.078613
weight: -0.172667 0.0971037 -0.167954 0.0189672 0.133606 0.0766773 -0.180632 -0.0620422 -0.184329 -0.109 0.0913316 -0.0369354 -0.143734 -0.066065 -0.146644 -0.172133 -0.166593 -0.11304 -0.154587 -0.165828 -0.159116 -0.164974 -0.176489 -0.18282 -0.164734 -0.174699 -0.185742 -0.17791 -0.184975 -0.0799753 -0.186263 -0.164713 -0.0934605 -0.164619 -0.165106 -0.114283 -0.172934 -0.122859 -0.161578 -0.202526 0.188869 0.398317 0.144729 -0.00697312 0.0373452 -0.25332 -0.136256 0.516181 -0.0772173 -0.0646073 0.0173056 0.164487 -0.0717871 -0.129753 0.0456605 -0.146968 -0.0128846 -0.062446 -0.140933 -0.375877 -0.0768243 -0.0673906 -0.179186 -0.036529 -0.147532 -0.110027 -0.158029 0.128746 -0.171219 -0.186873 -0.168262 -0.0755589 -0.170006 -0.10742 -0.0844773 -0.147807 -0.145169 -0.18442 -0.181607 -0.182515 -0.1867 -0.178754 -0.178846 -0.172784 -0.135855 -0.158071 -0.182626 -0.174451
weight: -0.0318124 0.0247834 -0.0271058 0.00403976 0.048661 0.0616063 -0.0409851 0.0325895 -0.0461844 0.0136538 0.0628955 0.0402555 -0.00674534 0.0312194 -0.0089012 -0.0312573 -0.0258107 0.0116682 -0.0151992 -0.0250924 -0.0190481 -0.0242971 -0.0359703 -0.0439407 -0.024077 -0.0339773 -0.0485485 -0.0376233 -0.0472264 0.0261267 -0.049523 -0.0240561 0.0206732 -0.0239694 -0.0244198 0.011043 -0.032092 0.00650382 -0.0212138 -0.135162 0.121357 -0.113301 0.0708035 0.339007 0.0213924 -0.241916 0.138271 -0.11412 -0.124359 0.314811 -0.100814 0.243898 -0.129884 -0.110095 -0.0798839 -0.0522137 -0.0155116 -0.0152591 0.17388 0.00652353 -0.0760169 -0.14903 -0.0391636 0.0403674 -0.00957763 0.0131557 -0.0181067 0.0596926 -0.0303258 -0.0507655 -0.0274069 0.0278028 -0.0291097 0.0144088 0.024364 -0.00978775 -0.00779831 -0.0463288 -0.04227 -0.0435099 -0.0504037 -0.038636 -0.0387461 -0.0319342 -0.00130712 -0.0181432 -0.0436665 -0.0337064
weight: 0.0827912 0.0156705 0.0890593 0.0013735 0.0498217 0.120735 0.0697954 0.142226 0.0619143 0.132618 0.11342 0.143173 0.113088 0.141847 0.110739 0.0835431 0.0907399 0.131044 0.103665 0.0916587 0.0991447 0.0926719 0.0770368 0.06536 0.0929494 0.0798206 0.0582476 0.0746898 0.060298 0.140023 0.0567392 0.0929761 0.13734 0.0930867 0.092516 0.130527 0.0824093 0.126536 0.0965159 0.0553558 -0.0787214 0.170732 -0.0992717 -0.107818 -0.30125 -0.162213 0.256554 0.218526 -0.145752 -0.0750159 -0.010525 -0.163065 -0.0415784 -0.273312 0.00303023 -0.101661 0.00573906 0.105073 0.213208 -0.114563 0.116465 -0.0422541 0.07247 0.143168 0.109996 0.132233 0.100268 0.0773095 0.0847981 0.0548247 0.0886677 0.140693 0.0864238 0.133192 0.139247 0.109762 0.111943 0.0616909 0.0678836 0.0660119 0.055381 0.0732343 0.0730734 0.0826257 0.118847 0.100224 0.0657752 0.0801941
weight: 0.0863463 -0.0071944 0.0896185 -0.00186663 0.00322877 0.066475 0.079222 0.10221 0.0747906 0.103199 0.0575561 0.10003 0.0991365 0.102436 0.0984137 0.0867474 0.0904523 0.103032 0.0959945 0.0909001 0.0942371 0.0913833 0.0832258 0.0767373 0.0915164 0.0847434 0.0726983 0.0819374 0.0738725 0.103059 0.0718293 0.0915262 0.103385 0.0915793 0.0913092 0.102969 0.0861439 0.102372 0.0931302 0.1274 0.123879 -0.312677 -0.20146 0.092509 0.262855 0.156764 -0.186546 0.0275061 0.0616244 -0.134329 0.103109 -0.195281 0.00159907 0.264922 0.0719915 0.108432 -0.119727 0.0847678 -0.050082 0.065698 0.0653853 0.122479 0.0807098 0.099985 0.0981779 0.103161 0.0946888 0.022056 0.0874169 0.0707164 0.0894201 0.102886 0.0882683 0.103251 0.103203 0.0981022 0.0987875 0.0746636 0.0781551 0.0771034 0.0710404 0.0811335 0.0810449 0.0862576 0.100727 0.094672 0.076971 0.0849465
weight: -0.0455453 0.0516533 -0.0434403 0.0103901 0.0718399 0.0630853 -0.0492586 0.00412779 -0.0511474 -0.0166085 0.067712 0.0156604 -0.0327348 0.00231328 -0.0340607 -0.0453049 -0.0428393 -0.0184548 -0.0375907 -0.0425014 -0.0395654 -0.0421234 -0.0472916 -0.0503524 -0.0420204 -0.0464667 -0.0519418 -0.0479546 -0.0515053 -0.00384006 -0.0522488 -0.0420104 -0.00969121 -0.041968 -0.0421821 -0.0190235 -0.0456659 -0.0229902 -0.0406385 -0.173171 -0.128782 0.0608114 -0.100547 -0.00497971 -0.0974247 -0.391339 -0.0215602 0.127217 0.106094 0.00291587 -0.000995774 0.037622 0.0165143 -0.158912 0.056895 -0.137844 0.00782247 -0.236912 0.0140875 -0.042467 -0.042546 0.0305835 -0.0485594 0.0158443 -0.0344635 -0.0170758 -0.0390917 0.0750866 -0.0448949 -0.0526247 -0.0435775 -0.00190804 -0.0443525 -0.0158916 -0.00579466 -0.0345867 -0.0333903 -0.0511994 -0.0497393 -0.0501955 -0.0525171 -0.0483527 -0.0483957 -0.0455986 -0.0290732 -0.03911 -0.0502532 -0.0463544
weight: 0.0156791 -0.0509351 0.00980677 -0.00837004 -0.0930513 -0.115806 0.0279209 -0.0656124 0.0353897 -0.0389103 -0.117802 -0.0780067 -0.0134914 -0.0635013 -0.0110215 0.0149757 0.00823759 -0.0362864 -0.00394965 0.00737516 0.000367748 0.00642975 0.0210824 0.0321288 0.00617006 0.018464 0.038852 0.0232917 0.0369156 -0.0559937 0.040276 0.00614484 -0.0483757 0.00604267 0.00657555 -0.0354672 0.0160347 -0.0295888 0.00283682 -0.00456432 -0.205203 0.453373 0.0419163 -0.0468813 0.00830445 0.0221578 -0.132956 0.225622 0.161878 0.225618 0.0999473 -0.323792 0.0751551 0.17596 -0.111875 0.0105402 0.0297898 0.202838 -0.0560198 -0.0284887 -0.167367 -0.14817 0.0253899 -0.0781951 -0.0102571 -0.0382506 -0.000693949 -0.1108 0.0137949 0.0420816 0.0101714 -0.0584093 0.012275 -0.0399159 -0.0534929 -0.0100185 -0.012281 0.0356004 0.0297331 0.0315078 0.0415577 0.0246669 0.0248168 0.0158347 -0.0198925 -0.000651206 0.0317325 0.0181161
weight: -0.0110975 0.00948426 -0.0139541 0.00259286 0.00291199 -0.0216483 -0.00532595 -0.0359288 -0.00200003 -0.0321896 -0.0181666 -0.0356594 -0.0245605 -0.0358435 -0.0235789 -0.0114387 -0.0147203 -0.0315756 -0.0205296 -0.01514 -0.0185238 -0.0156012 -0.00850471 -0.00343669 -0.0157279 -0.00975384 -0.000489494 -0.00746174 -0.00133331 -0.0352172 0.000129263 -0.0157387 -0.0341086 -0.0157893 -0.0155302 -0.0313762 -0.0109246 -0.0298556 -0.0173432 0.18988 -0.128888 -0.227449 0.19109 -0.203214 0.00593327 -0.0745887 0.00941457 -0.39305 0.0874564 0.117433 0.0831657 0.100687 0.0256453 0.160969 0.1175 0.0901938 -0.00710537 -0.0237816 0.0526891 0.0668951 0.0148271 -0.0772664 -0.00648614 -0.0356464 -0.023264 -0.0320382 -0.0190242 -0.00504692 -0.0120109 0.000915786 -0.0137754 -0.0354727 -0.0127513 -0.0324164 -0.0349042 -0.0231651 -0.024085 -0.00190684 -0.0045058 -0.00371238 0.000686632 -0.00682116 -0.00675088 -0.0110215 -0.0268931 -0.0190055 -0.00361216 -0.00992181
weight: -0.107584 0.015989 -0.11031 0.0037514 0.00654182 -0.0645984 -0.101449 -0.1154 -0.0973504 -0.121615 -0.0543456 -0.10993 -0.119154 -0.116161 -0.11848 -0.107918 -0.111019 -0.121745 -0.116133 -0.111403 -0.114433 -0.111825 -0.104955 -0.0991816 -0.111939 -0.106243 -0.0953259 -0.103844 -0.0964676 -0.118548 -0.0944686 -0.111951 -0.120385 -0.111996 -0.11176 -0.121766 -0.107414 -0.121672 -0.113393 0.0819613 0.185971 0.0680441 0.175414 -0.073366 0.176595 0.053125 -0.274022 0.139888 0.0255954 0.022907 -0.182226 0.0209306 -0.0210451 -0.115276 0.00456604 -0.0417366 -0.0499173 -0.130947 -0.141261 -0.159598 -0.0672803 0.0133709 -0.102771 -0.109832 -0.118255 -0.121658 -0.114867 -0.0144548 -0.108472 -0.0933612 -0.110142 -0.117834 -0.109179 -0.121542 -0.119226 -0.118183 -0.118833 -0.0972292 -0.100482 -0.0995202 -0.0936857 -0.103142 -0.103064 -0.10751 -0.120547 -0.114851 -0.0993977 -0.106414
weight: -0.117915 0.0438746 -0.116131 0.00808698 0.0618179 0.0206571 -0.120169 -0.0598153 -0.120696 -0.0853888 0.0299384 -0.0458213 -0.104507 -0.0620348 -0.106064 -0.117725 -0.115574 -0.0875974 -0.110128 -0.115255 -0.112288 -0.114893 -0.119142 -0.120538 -0.114792 -0.118596 -0.12075 -0.119536 -0.120733 -0.069648 -0.120741 -0.114781 -0.0769496 -0.114742 -0.114949 -0.0882766 -0.118007 -0.0929881 -0.113409 -0.150844 0.17813 0.138731 0.311024 0.0672519 -0.0853102 0.0157203 0.235998 0.0641198 -0.0971458 0.231333 -0.12995 0.32668 -0.371102 0.0121801 -0.244433 -0.111465 -0.0309801 -0.134664 -0.112685 -0.103085 -0.123325 -0.271981 -0.119853 -0.0455945 -0.106534 -0.0859493 -0.11178 0.05602 -0.117393 -0.120707 -0.116256 -0.0672418 -0.116938 -0.0845285 -0.0720903 -0.106678 -0.105278 -0.120703 -0.120352 -0.120495 -0.12072 -0.11975 -0.119772 -0.117955 -0.100186 -0.111801 -0.120511 -0.118515
weight: -0.0429643 -0.0167051 -0.0467856 -0.00247652 -0.0371629 -0.0742068 -0.0346037 -0.0762711 -0.0292209 -0.069761 -0.0709056 -0.0783793 -0.0599428 -0.0758582 -0.0587397 -0.0434299 -0.0477818 -0.0689329 -0.0550287 -0.0483224 -0.0525734 -0.0489129 -0.0393338 -0.0316051 -0.0490739 -0.0411038 -0.0266202 -0.0378209 -0.0280844 -0.0742703 -0.0255265 -0.0490892 -0.072445 -0.0491524 -0.0488219 -0.0686663 -0.0427277 -0.0666501 -0.0511105 -0.0393134 -0.000737745 0.170568 -0.0174059 -0.0903405 0.0205503 0.0121867 0.0666345 -0.0751255 0.1728 -0.0478535 -0.194797 0.137212 0.0934926 -0.364476 -0.119144 0.0480999 0.0352336 -0.0130476 -0.0626761 0.0323237 -0.0115316 -0.00118005 -0.0363725 -0.0784074 -0.0583566 -0.0695563 -0.0531897 -0.052325 -0.0442057 -0.0241179 -0.0465515 -0.0748013 -0.0451971 -0.0700694 -0.073699 -0.0582352 -0.0593585 -0.0290651 -0.0333213 -0.0320523 -0.0245293 -0.0368737 -0.036769 -0.0428608 -0.0628423 -0.053166 -0.0318908 -0.0413391
weight: -0.00730201 -0.00646099 -0.00941469 -0.00059161 -0.0185477 -0.0350087 -0.00328955 -0.0343646 -0.00115282 -0.0273961 -0.0337825 -0.0364642 -0.0184537 -0.0339128 -0.0174972 -0.00754876 -0.00999653 -0.0265735 -0.0147177 -0.0103193 -0.0130169 -0.0106769 -0.00545777 -0.00205461 -0.0107755 -0.00633815 -0.000254094 -0.0047367 -0.000748857 -0.0321546 9.66584e-05 -0.0107842 -0.0301592 -0.0108228 -0.0106212 -0.0263104 -0.0071762 -0.0243552 -0.0120543 -0.0412495 -0.190352 0.0988807 -0.0120105 -0.107079 -0.0368441 -0.15535 0.115492 0.108278 -0.0446774 0.0448049 0.248424 0.0330443 -0.000640135 -0.176856 0.199057 0.0783414 0.0403823 0.0301859 -0.0721887 -0.0595622 -0.109005 -0.176876 -0.00406993 -0.0364875 -0.0171995 -0.0271917 -0.0134341 -0.0263788 -0.00796763 0.000523189 -0.00927999 -0.0327454 -0.00851338 -0.0277051 -0.0315222 -0.0171049 -0.0179851 -0.00109668 -0.0027479 -0.00223158 0.00040118 -0.00429727 -0.00424926 -0.00724755 -0.0208799 -0.013417 -0.00216766 -0.00645658
weight: -0.0812459 0.0121957 -0.0819626 0.00248771 0.0107944 -0.0307695 -0.0791082 -0.072502 -0.0773625 -0.0799078 -0.0236161 -0.0673879 -0.0827661 -0.0732481 -0.0828432 -0.0813423 -0.082121 -0.0803817 -0.0828541 -0.0822012 -0.0826989 -0.0822838 -0.0804099 -0.0781692 -0.082307 -0.0808364 -0.0764336 -0.0800195 -0.0769618 -0.075683 -0.0760297 -0.0823091 -0.0778118 -0.0823175 -0.0822726 -0.0805207 -0.081197 -0.0813943 -0.0825564 0.792901 -0.00240985 0.00920995 0.149831 0.0630592 -0.0441322 -0.165127 0.0574446 -0.000998114 -0.0245244 -0.0122043 0.109802 -0.371619 0.136886 0.0101716 0.112374 0.170042 -0.00352564 0.00427535 -0.110549 -0.0492796 -0.234187 -0.0736517 -0.0796223 -0.0672992 -0.0828602 -0.0800311 -0.082749 0.000688394 -0.0814973 -0.0755011 -0.0819228 -0.0749347 -0.081686 -0.0797157 -0.0764216 -0.082864 -0.0828071 -0.077308 -0.078716 -0.0783131 -0.0756566 -0.0797625 -0.0797327 -0.0812247 -0.0823981 -0.0827463 -0.0782603 -0.0808898
weight: 0.116104 -0.0622505 0.112416 -0.0119754 -0.0898536 -0.0637496 0.122152 0.0294142 0.124814 0.0642099 -0.0725336 0.0113217 0.0925387 0.0323475 0.0949765 0.115689 0.111336 0.0673709 0.101583 0.110726 0.105302 0.110043 0.11904 0.123743 0.109851 0.117671 0.1258 0.120119 0.125267 0.0425023 0.126161 0.109833 0.0524134 0.109757 0.110149 0.0683488 0.116312 0.0752097 0.107305 0.501062 0.00273036 0.277648 -0.290019 0.0508506 0.00775564 0.109229 -0.287129 -0.11482 0.0161985 -0.0528964 0.00464814 -0.495973 0.133757 -0.0394087 -0.103003 0.0813227 0.0560097 0.186195 0.0107889 0.174669 0.128174 0.224593 0.121078 0.0110373 0.0957214 0.0650099 0.104412 -0.0915432 0.11498 0.126582 0.112662 0.0392767 0.114032 0.0629875 0.0457944 0.0959498 0.0937421 0.124879 0.122867 0.123523 0.126463 0.120754 0.120823 0.116195 0.0859301 0.104447 0.123604 0.11748
weight: 0.0185795 -0.00449138 0.0170097 -0.00056378 -0.0103023 -0.0119982 0.0213412 -0.00539356 0.0227242 0.00120749 -0.0124794 -0.00752837 0.00958437 -0.00497355 0.010413 0.0183999 0.0165608 0.00200706 0.0127541 0.016309 0.0141506 0.016029 0.0198782 0.0221466 0.0159512 0.0192656 0.0232951 0.0203728 0.0229811 -0.00334845 0.023517 0.0159439 -0.0014664 0.0159137 0.016073 0.00226188 0.0186689 0.00414615 0.0149314 -0.176115 0.286803 -0.270679 0.0757367 -0.0734339 -0.0476712 0.200819 0.00227869 -0.182085 0.0629006 -0.0182573 0.0437576 0.0265081 -0.0592487 -0.0315441 0.103129 -0.0290482 0.00419557 -0.0762956 0.0716866 0.00785634 -0.116755 -0.0091305 0.0208227 -0.00755702 0.0106698 0.00140653 0.0138108 -0.0126943 0.0180943 0.0237887 0.0171125 -0.00389556 0.0176902 0.000908105 -0.00275837 0.01075 0.0099925 0.0227601 0.0216975 0.022032 0.023711 0.0206706 0.0207023 0.0186186 0.00741207 0.0138237 0.0220742 0.019181
weight: 0.0725573 -0.00101022 0.07515 -0.000916051 0.0121903 0.0533406 0.0663876 0.0847459 0.0622324 0.086083 0.0478155 0.0816555 0.0827863 0.0850895 0.0821913 0.0728828 0.0757967 0.0859391 0.0801892 0.0761436 0.0787634 0.0765185 0.0699429 0.0640817 0.0766206 0.0712337 0.0602117 0.0688219 0.0613487 0.0859354 0.0593645 0.0766301 0.0862651 0.0766699 0.0764608 0.085886 0.0723907 0.0853931 0.0778809 0.118703 0.624106 0.0451712 0.00757107 -0.145752 -0.254851 0.0282088 -0.0736242 0.155875 -0.123319 -0.321449 0.176861 0.0321874 -0.476786 -0.186067 0.113374 -0.0825984 0.00537513 0.0839059 0.129246 0.0431747 0.15469 -0.0555073 0.0677316 0.0815949 0.0819953 0.0860506 0.0791276 0.0256787 0.0734179 0.0582747 0.0749971 0.0857233 0.0740941 0.0861289 0.0860976 0.0819328 0.0825015 0.0621105 0.0654042 0.0644266 0.0585925 0.0681106 0.0680313 0.072485 0.0840788 0.0791129 0.0643016 0.0714029
weight: 0.0857821 -0.0548762 0.0823422 -0.0108153 -0.0764896 -0.0541648 0.0918698 0.0185706 0.0949093 0.04508 -0.0612963 0.00454015 0.0658833 0.0208482 0.0677504 0.0853866 0.0813656 0.0473929 0.0730007 0.0808193 0.0761025 0.0802113 0.0886506 0.0936398 0.0800425 0.0872975 0.0961642 0.0897411 0.0954737 0.0287092 0.0966542 0.080027 0.0362986 0.0799595 0.0803061 0.0481079 0.0859806 0.0531069 0.0778167 -0.100685 -0.221538 0.446617 -0.163794 -0.000707729 -0.174137 0.15238 -0.120972 0.0464974 0.157789 -0.0711634 0.101368 0.0502551 0.0978576 0.253216 0.100846 0.066261 0.0496038 0.13419 0.0589105 0.0480329 -0.0277736 0.123438 0.0907309 0.00431729 0.0683255 0.0456659 0.0753509 -0.0769151 0.0847141 0.0972497 0.0825667 0.0262169 0.0838284 0.0441814 0.0312461 0.0685064 0.0668017 0.0949882 0.0926519 0.0933871 0.0970793 0.0903941 0.0904649 0.0858688 0.0609453 0.0753797 0.0934785 0.0871116
weight: 0.0396749 -0.00586449 0.0427348 -0.00194918 0.00549267 0.0407573 0.0330222 0.0587235 0.0289189 0.0587114 0.0368118 0.0571598 0.0526409 0.0589024 0.0517932 0.040047 0.0435293 0.058347 0.0491169 0.0439604 0.0472787 0.0444281 0.036769 0.0307088 0.0445557 0.0381851 0.0270242 0.0355626 0.0280827 0.0593602 0.0262478 0.0445682 0.0594352 0.0446183 0.0443562 0.0582189 0.039485 0.0571215 0.0461527 0.0520778 0.265782 0.836652 -0.0990607 0.0579756 0.0740895 -0.236894 0.0495309 -0.167916 -0.0225561 0.00406768 -0.0733075 -0.151918 -0.225469 -0.158782 0.142701 0.0548961 -0.00646522 0.0567475 0.1065 0.0727228 -0.0133239 0.10994 0.0344136 0.0571278 0.0515207 0.0586263 0.0477464 0.01867 0.0406687 0.0252656 0.0425473 0.059246 0.0414629 0.0588327 0.059438 0.0514348 0.0522291 0.0288039 0.0320244 0.0310494 0.0255507 0.0348102 0.0347266 0.0395924 0.0546522 0.0477273 0.0309258 0.0383736
weight: -0.140787 0.0569027 -0.139451 0.0116527 0.071189 0.0119536 -0.14248 -0.0865773 -0.14285 -0.113011 0.0244982 -0.070691 -0.130326 -0.0890218 -0.131611 -0.140647 -0.139032 -0.115126 -0.134864 -0.138791 -0.136538 -0.138519 -0.14171 -0.142748 -0.138442 -0.141299 -0.142866 -0.142006 -0.142868 -0.0971929 -0.142849 -0.138434 -0.104705 -0.138404 -0.138561 -0.11577 -0.140857 -0.120178 -0.137394 -0.105458 -0.0341544 -0.215683 0.261189 0.0107266 0.265345 -0.102315 -0.165512 0.211149 -0.0411214 0.191857 -0.100087 0.0787144 -0.00722389 0.316469 -0.470098 0.0166725 -0.0513052 -0.0541134 -0.215968 -0.170637 -0.0233231 -0.205105 -0.142244 -0.0704284 -0.131994 -0.113551 -0.136148 0.0610157 -0.140397 -0.142806 -0.139546 -0.0946472 -0.140056 -0.112182 -0.0997427 -0.132113 -0.130967 -0.142854 -0.142616 -0.142717 -0.142822 -0.142168 -0.142184 -0.140818 -0.126644 -0.136163 -0.14273 -0.141238
weight: -0.0258037 0.00168785 -0.0245878 -0.000358438 0.00885435 0.00539708 -0.027466 -0.00451316 -0.0278621 -0.0108695 0.00678003 -0.00235038 -0.0181235 -0.00493451 -0.018862 -0.0256705 -0.0242238 -0.0115785 -0.0209545 -0.0240175 -0.0221838 -0.0237858 -0.0266925 -0.0277458 -0.0237208 -0.0262907 -0.0278893 -0.026986 -0.0278867 -0.00656231 -0.0278687 -0.0237152 -0.00839754 -0.0236893 -0.0238215 -0.0118029 -0.02587 -0.0134282 -0.0228582 -0.045061 -0.0843806 0.0607373 0.428303 -0.0286342 0.0883323 -0.0870226 -0.0665196 0.0246135 -0.0392814 -0.221277 0.0185714 -0.0715761 0.0167765 0.0360778 -0.128691 0.0584132 0.0494856 -0.048993 -0.082113 -0.0275754 -0.00542943 -0.437286 -0.0272256 -0.00232109 -0.0190913 -0.0110469 -0.0218875 0.0101516 -0.0254403 -0.0278176 -0.0246703 -0.00601749 -0.0251282 -0.0106002 -0.00714485 -0.0191622 -0.0184847 -0.0278669 -0.0276041 -0.027714 -0.0278352 -0.0271472 -0.0271639 -0.0258319 -0.0162183 -0.021899 -0.0277252 -0.0262331
weight: 0.206103 -0.0506886 0.209623 -0.0120217 -0.038033 0.0692158 0.196972 0.185761 0.190317 0.208992 0.0524911 0.169052 0.216639 0.188188 0.216539 0.206558 0.210461 0.210448 0.215337 0.210901 0.213972 0.21137 0.202352 0.193326 0.211495 0.204226 0.186946 0.200686 0.188854 0.195953 0.185508 0.211506 0.202536 0.211557 0.211297 0.210872 0.205871 0.213496 0.213 0.265008 -0.0342603 -0.14171 -0.510029 0.0408364 -0.124627 -0.114743 -0.0816777 0.0226017 -0.00991885 0.169098 0.101862 -0.161696 -0.0252617 -0.0407371 0.23249 -0.00972131 0.0141637 0.191861 0.271515 0.152591 0.0225377 0.0835941 0.199041 0.168765 0.216473 0.209373 0.214347 -0.00750358 0.207298 0.183641 0.209421 0.193595 0.208218 0.208398 0.198254 0.216449 0.216611 0.190116 0.195432 0.193879 0.184188 0.199616 0.199496 0.206002 0.21615 0.214335 0.19368 0.204469
weight: 0.0136981 0.026891 0.0198474 0.00319894 0.0628096 0.104057 0.00130872 0.0920286 -0.0058936 0.0700452 0.101175 0.099413 0.0447918 0.0905711 0.042177 0.0144307 0.0215071 0.0675759 0.0345884 0.0224212 0.0299295 0.0234262 0.00814001 -0.00277767 0.0237043 0.0108174 -0.00915888 0.00590623 -0.00733772 0.0849499 -0.0104891 0.02373 0.0786149 0.0238389 0.0232716 0.0667974 0.0133266 0.0611331 0.0272712 0.137202 0.0747751 -0.101486 0.0208636 0.699569 0.0554809 0.0783109 0.130542 0.145762 -0.214241 -0.0775809 -0.110634 -0.25952 -0.227181 -0.00746973 -0.094808 -0.0388456 0.0091533 -0.168114 0.0245892 -0.206925 -0.0518959 0.123636 0.00380942 0.0995085 0.0413605 0.069427 0.0310741 0.082175 0.0156599 -0.0121707 0.0194621 0.0868314 0.0172516 0.0709824 0.0829382 0.0411056 0.0435118 -0.0060939 -0.000462004 -0.00218053 -0.0116831 0.00453024 0.00437924 0.0135361 0.0514456 0.0310292 -0.00239703 0.0111779
weight: 0.0473783 -0.0211914 0.0460743 -0.00373991 -0.0320731 -0.0244817 0.0489534 0.0102934 0.0491455 0.0261823 -0.0271574 0.00266158 0.0382659 0.0115854 0.0392717 0.0472396 0.0456759 0.0275943 0.0419342 0.0454476 0.043384 0.045191 0.0482783 0.0491241 0.0451191 0.047881 0.0490725 0.0485514 0.0491233 0.0161759 0.0490163 0.0451125 0.0207617 0.0450842 0.0452305 0.0280277 0.0474481 0.031001 0.0441527 -0.0907599 0.035403 -0.296257 0.0661977 -0.264988 -0.275984 -0.0845729 0.0317782 0.0441482 0.00844281 -0.0942355 -0.0312943 0.135374 0.0732113 0.136148 -0.0702968 -0.104874 0.0191333 -0.0974501 0.066012 -0.0276459 0.0232501 0.0387114 0.0487631 0.00254475 0.0395765 0.0265415 0.0430413 -0.0327556 0.0469952 0.0489273 0.0461647 0.0147015 0.0466608 0.0256296 0.0176924 0.0396705 0.0387632 0.0491445 0.0490485 0.0491104 0.0489556 0.048695 0.0487092 0.0474093 0.0355107 0.0430548 0.0491156 0.0478221
weight: 0.104883 0.0110737 0.11332 -6.34058e-05 0.0523737 0.146472 0.0868513 0.181005 0.0756783 0.16891 0.136243 0.181801 0.143975 0.180545 0.14102 0.105902 0.115545 0.166896 0.132146 0.116759 0.126435 0.118088 0.0969764 0.0805751 0.118452 0.100819 0.070445 0.0937165 0.0733758 0.178283 0.0682828 0.118487 0.174914 0.11863 0.117884 0.166237 0.104363 0.161121 0.123076 0.225211 0.1297 0.164489 -0.165861 -0.00822381 0.280882 -0.294521 -0.46972 -0.0747279 -0.0819768 0.103692 -0.102508 -0.241826 -0.104188 0.0181068 -0.135208 -0.0470283 -0.0450172 0.0610431 0.20738 0.00249398 0.144798 0.207328 0.0906105 0.181785 0.140086 0.168418 0.12786 0.0881945 0.107606 0.0655292 0.112799 0.179117 0.109795 0.169643 0.177308 0.139794 0.142535 0.07536 0.0841516 0.0815015 0.0663305 0.0916823 0.0914569 0.104656 0.151277 0.127803 0.0811659 0.101333
weight: -0.000608602 -0.0391628 -0.00865885 -0.00529028 -0.0878176 -0.124475 0.0159849 -0.0907244 0.025864 -0.0675633 -0.125207 -0.0998771 -0.0397615 -0.0890742 -0.0366826 -0.00157393 -0.0108146 -0.0649977 -0.0274694 -0.0119957 -0.0216209 -0.0132961 0.00676488 0.0215755 -0.0136531 0.00320061 0.0303622 0.00976366 0.0278539 -0.0829665 0.0321926 -0.0136865 -0.0763599 -0.0138284 -0.013095 -0.0641812 -0.000120845 -0.058147 -0.0182368 -0.222788 -0.032945 -0.188847 -0.0173939 -0.043908 0.450526 0.110393 -0.13905 -0.373473 0.185522 -0.34215 0.206808 0.153675 0.142927 0.222118 0.254763 0.0628756 -0.0246319 0.109112 -0.0878648 0.259645 0.179074 0.176106 0.0125907 -0.10001 -0.035711 -0.0669242 -0.0230698 -0.111652 -0.00318907 0.0344945 -0.00815715 -0.0849754 -0.00527387 -0.0685309 -0.0808459 -0.0354059 -0.0382603 0.0261386 0.0184023 0.0207559 0.0338276 0.0116175 0.0118219 -0.000396498 -0.0474141 -0.0230136 0.0210528 0.00272232
weight: -0.194674 0.0903661 -0.191674 0.0179887 0.113364 0.0338948 -0.19899 -0.104271 -0.200379 -0.147167 0.0496422 -0.0797012 -0.1744 -0.108155 -0.176559 -0.194345 -0.190774 -0.150526 -0.18239 -0.190261 -0.185637 -0.189687 -0.196902 -0.199889 -0.189526 -0.195887 -0.200694 -0.197664 -0.200546 -0.121353 -0.20076 -0.18951 -0.133695 -0.189448 -0.189777 -0.151545 -0.194837 -0.158449 -0.187361 -0.119287 0.28545 0.0809584 0.159475 -0.0977303 0.140712 -0.292849 0.128327 0.313227 0.0531793 0.0650056 -0.102562 0.158897 -0.296131 -0.059459 -0.129485 0.0032879 0.00619999 -0.161225 -0.175503 -0.224696 -0.11369 -0.0918882 -0.198308 -0.0793013 -0.177216 -0.148027 -0.184864 0.0972161 -0.193775 -0.200791 -0.191875 -0.117207 -0.193006 -0.145838 -0.125532 -0.177422 -0.175467 -0.200405 -0.199414 -0.199775 -0.200789 -0.198094 -0.198139 -0.194745 -0.168492 -0.184895 -0.199817 -0.195743
weight: 0.0263311 -0.0327015 0.0214798 -0.00555831 -0.056692 -0.0661252 0.0358136 -0.0398506 0.0411621 -0.0207243 -0.0672523 -0.0473814 0.000908377 -0.0384853 0.00311544 0.0257597 0.02015 -0.0186177 0.00945343 0.0194152 0.0133002 0.0186036 0.0306273 0.0388655 0.0183794 0.0285674 0.0435366 0.0323356 0.0422175 -0.0334435 0.0444932 0.0183577 -0.0280051 0.0182693 0.018729 -0.0179534 0.0266205 -0.0130962 0.0154791 -0.0882066 -0.078224 0.00911935 -0.0808329 -0.0399874 -0.0887634 1.45645 -0.313203 -0.351193 0.027939 -0.0752024 -0.0325922 -0.0770673 0.0312515 -0.123416 0.0601853 0.143308 0.0110819 0.00960838 -0.134877 0.156767 0.026283 -0.00244042 0.0339275 -0.0474881 0.00380245 -0.0201978 0.012357 -0.0651271 0.0247963 0.045692 0.0217867 -0.0350989 0.023542 -0.0215224 -0.0316993 0.00401634 0.0019907 0.0413084 0.0371419 0.0384222 0.045346 0.0333822 0.0334969 0.0264576 -0.00476114 0.0123942 0.0385835 0.0282884
weight: 0.00652194 0.0265199 0.0139861 0.00349809 0.0620442 0.103928 -0.00866668 0.0947167 -0.0176222 0.073288 0.101502 0.101195 0.044119 0.0933957 0.0409861 0.00741085 0.0160026 0.0706097 0.0318641 0.0171116 0.0262309 0.0183341 -0.000254618 -0.0137383 0.0186708 0.00301527 -0.0217037 -0.0029969 -0.0194268 0.0882101 -0.0233684 0.0187038 0.0821317 0.0188367 0.018146 0.0697561 0.00607068 0.0633954 0.0230051 0.106929 -0.153171 -0.0546883 0.0432558 0.0450005 -0.064134 0.559112 -0.0998885 0.168257 -0.201002 -0.0230077 -0.0607617 -0.0483563 -0.11608 0.25073 -0.312863 -0.241179 -0.0306977 -0.060023 0.118325 -0.147904 -0.0255507 0.0605067 -0.00557787 0.101274 0.0400054 0.0726234 0.0276192 0.0830824 0.00890272 -0.0254712 0.0135174 0.0899622 0.0108351 0.0742896 0.0863156 0.0397011 0.0425862 -0.0178718 -0.0108624 -0.0129959 -0.0248624 -0.00469131 -0.00487787 0.00632452 0.0520631 0.0275649 -0.0132661 0.00345582
weight: 0.041056 0.0202344 0.0473061 0.00228558 0.0534009 0.102658 0.0280836 0.102658 0.0202526 0.0894232 0.0987526 0.106568 0.0705164 0.10185 0.0683051 0.0418076 0.0489707 0.0877671 0.0615722 0.0498808 0.0572091 0.0508801 0.0353056 0.0236694 0.0511544 0.0380877 0.0166239 0.0329621 0.0186533 0.0986527 0.0151306 0.0511797 0.0948766 0.0512884 0.050726 0.0872337 0.0406756 0.0832428 0.0546517 -0.0639264 0.138201 0.136865 0.00718006 0.0385719 -0.0281734 -0.232023 0.127077 0.228699 -0.101317 0.0440819 0.0389875 0.00697587 -0.00337243 -0.496015 -0.00249015 -0.0218852 0.0222395 -0.141166 0.181422 -0.225136 -0.061497 0.0267443 0.0307484 0.106615 0.067603 0.0890127 0.058296 0.0747991 0.043063 0.0132344 0.046918 0.0997371 0.0446827 0.0900433 0.0974745 0.0673825 0.0694403 0.0200323 0.0261798 0.0243185 0.0137863 0.0315112 0.0313515 0.0408911 0.0759153 0.0582542 0.024084 0.0384605
weight: -0.0693881 0.0318892 -0.0678661 0.00602146 0.0457626 0.0209901 -0.0719202 -0.030829 -0.0730585 -0.0472071 0.027269 -0.0218861 -0.059584 -0.0322521 -0.0606237 -0.0692164 -0.0674239 -0.0486225 -0.0634098 -0.0671741 -0.064951 -0.0668945 -0.0706116 -0.0725978 -0.0668162 -0.07004 -0.0734874 -0.0710633 -0.0732551 -0.0371325 -0.0736453 -0.0668086 -0.0418077 -0.0667782 -0.0669375 -0.049058 -0.0694746 -0.0520853 -0.0657739 -0.230259 -0.122201 0.138811 0.110262 -0.0450685 -0.0137963 -0.205643 1.51608 -0.147517 -0.0906088 -0.0646408 -0.160347 0.0617985 -0.132959 -0.0745608 -0.210722 0.0252336 -0.0382722 -0.159274 -0.02402 -0.052412 -0.0969026 -0.0481954 -0.0714665 -0.021742 -0.0609399 -0.0475664 -0.0645838 0.0438465 -0.0689223 -0.0738315 -0.0679672 -0.0355907 -0.0685312 -0.0466564 -0.0386974 -0.0610372 -0.0600974 -0.0730867 -0.0722243 -0.0725041 -0.0737791 -0.07133 -0.0713588 -0.0694261 -0.0567432 -0.0645987 -0.0725379 -0.0699601
weight: 0.132607 -0.0511286 0.132891 -0.0103656 -0.0606811 0.00622287 0.130574 0.0945829 0.128426 0.116605 -0.00632299 0.0810368 0.129332 0.0966382 0.130089 0.132665 0.132889 0.118305 0.131739 0.132873 0.132379 0.132846 0.131944 0.129447 0.132834 0.132312 0.127195 0.131564 0.127902 0.103501 0.126644 0.132834 0.109775 0.132831 0.13285 0.11882 0.132576 0.122255 0.132629 0.224082 0.108154 -0.129424 -0.269169 0.0804673 -0.0967273 -0.131255 0.380708 -0.140952 -0.106524 0.0730944 0.138177 -0.141978 0.0374229 -0.0691408 0.0426505 -0.0480023 -0.059617 0.257342 0.126214 0.218033 0.272206 0.0586435 0.131149 0.0808119 0.130305 0.11704 0.132246 -0.0467419 0.132747 0.125906 0.132886 0.101365 0.132828 0.115931 0.105635 0.130368 0.129713 0.128355 0.130115 0.129627 0.126123 0.131297 0.131265 0.132594 0.126948 0.132251 0.129562 0.132354
weight: 0.00210713 -0.0423109 -0.00721455 -0.00654645 -0.0880592 -0.143298 0.021092 -0.110066 0.0323966 -0.0791344 -0.140772 -0.122179 -0.0440128 -0.107851 -0.0402972 0.000996144 -0.00972708 -0.075769 -0.0293143 -0.0111088 -0.0224081 -0.012629 0.0105682 0.0274759 -0.0130474 0.00648538 0.0376132 0.0139939 0.0346968 -0.099662 0.0397601 -0.0130877 -0.0908171 -0.0132522 -0.0123947 -0.0747037 0.00266911 -0.0669028 -0.0184259 -0.0306305 -0.217646 -0.130978 0.165428 -0.107293 -0.104883 0.304282 -0.175071 0.309143 -0.0974768 -0.196652 -0.0637302 0.067799 0.160869 0.123333 0.161252 0.0698943 0.0224658 -0.0775921 -0.0226471 0.00210012 -0.0683673 -0.0285931 0.0172211 -0.122352 -0.0391312 -0.0782929 -0.0241161 -0.115374 -0.000868371 0.0424861 -0.00662969 -0.102355 -0.00328113 -0.0804097 -0.0968184 -0.0387652 -0.0421967 0.032715 0.0238506 0.026539 0.0416938 0.0161121 0.0163451 0.00235138 -0.053381 -0.024048 0.0268785 0.00593785
weight: 0.00438773 0.0226847 0.00857605 0.00369045 0.0450214 0.0726623 -0.00425812 0.0562374 -0.00948815 0.041535 0.0713035 0.0621912 0.0251655 0.0551669 0.0234582 0.00488887 0.00969996 0.0399489 0.0184665 0.0103174 0.0153658 0.0109965 0.000554617 -0.00720423 0.0111836 0.0024081 -0.0119205 -0.00100571 -0.010559 0.0512423 -0.012924 0.0112019 0.0470555 0.0112751 0.0108921 0.0394481 0.00413363 0.0357942 0.0135851 -0.0554771 -0.151768 0.0687215 0.00255793 0.00154156 -0.0192662 -0.193057 -0.101149 1.49123 -0.141509 -0.140412 -0.0603816 -0.0219213 0.124195 -0.0732626 -0.29998 -0.0448691 -0.0301544 -0.143007 0.0785609 -0.581052 -0.0120423 0.05692 -0.00248176 0.0622762 0.0229242 0.041138 0.0161308 0.0584207 0.00572796 -0.0142014 0.00831406 0.0525263 0.00681248 0.0421368 0.0498935 0.022757 0.0243305 -0.0096362 -0.00552834 -0.00677029 -0.01383 -0.00197342 -0.00208022 0.00427716 0.0295009 0.0161006 -0.00692776 0.00265633
weight: -0.0915275 -0.00750893 -0.0969377 -0.000900557 -0.0297466 -0.103085 -0.0799141 -0.134377 -0.0725751 -0.129677 -0.0939628 -0.133778 -0.116288 -0.134294 -0.114523 -0.0921832 -0.0983662 -0.128708 -0.109023 -0.0991451 -0.105373 -0.0999993 -0.0864567 -0.0758097 -0.100233 -0.0889224 -0.0690872 -0.0843562 -0.0710448 -0.133648 -0.0676369 -0.100256 -0.132371 -0.100348 -0.0998677 -0.128385 -0.0911943 -0.125802 -0.10321 0.153696 -0.125917 0.0178307 0.100587 -0.107237 0.21852 0.0489678 -0.109515 -0.529926 -0.0782662 -0.000799828 -0.031807 -0.0536443 -0.0229385 0.128778 -0.00315961 0.202272 0.0741842 0.116334 -0.0937862 0.189049 0.170032 -0.0594238 -0.0823519 -0.133753 -0.113959 -0.129442 -0.106287 -0.0541382 -0.0932735 -0.0657858 -0.0966025 -0.133916 -0.0946761 -0.130024 -0.13331 -0.113779 -0.115433 -0.0723644 -0.0781539 -0.0764182 -0.0663255 -0.083044 -0.0828985 -0.0913823 -0.120493 -0.106252 -0.0761976 -0.0892511
weight: 0.16607 -0.00737075 0.169727 -0.00177788 0.00545232 0.0933232 0.157128 0.170321 0.150788 0.180113 0.0796317 0.161657 0.179433 0.171491 0.178816 0.166531 0.17063 0.180492 0.176484 0.171112 0.174662 0.171631 0.162335 0.153648 0.171772 0.164185 0.147586 0.160709 0.149399 0.17509 0.146217 0.171784 0.17789 0.17184 0.171551 0.180591 0.165834 0.181009 0.17349 0.371137 -0.0849508 -0.154747 -0.241986 0.118507 -0.0251843 -0.0311112 -0.114664 -0.251926 -0.12785 0.0278208 -0.0727012 -0.55291 -0.0859738 0.139093 0.256294 -0.114155 0.131103 0.199338 0.211834 0.362741 0.234083 0.223197 0.159117 0.161501 0.178604 0.180218 0.175137 0.0297054 0.167291 0.144437 0.169511 0.174021 0.168241 0.179943 0.176105 0.178532 0.179141 0.150597 0.155655 0.154174 0.144958 0.15967 0.159556 0.165967 0.180564 0.17512 0.153982 0.164428
weight: -0.0838688 0.0398468 -0.0821118 0.00800484 0.053774 0.0256971 -0.0865265 -0.0344137 -0.0875126 -0.0558968 0.0324234 -0.0230883 -0.0716922 -0.0362642 -0.0730126 -0.0836747 -0.0815851 -0.0577254 -0.0765635 -0.0812842 -0.0785267 -0.0809461 -0.0852094 -0.0871349 -0.0808507 -0.084592 -0.0878309 -0.0856811 -0.087663 -0.0426744 -0.0879404 -0.080841 -0.0488472 -0.0808038 -0.0809984 -0.0582879 -0.0839655 -0.0621748 -0.0795624 -0.155692 0.00631801 0.00414483 0.0530593 0.00506327 0.0102971 -0.163065 -0.193101 -0.0885012 1.71816 -0.202869 0.0198192 0.171889 -0.10202 -0.0153463 -0.138568 0.0580393 0.0221293 -0.128641 -0.0218121 -0.00902022 -1.33374 0.0315259 -0.0860881 -0.022909 -0.0734142 -0.0563616 -0.0780611 0.0507431 -0.0833403 -0.0880595 -0.0822306 -0.0406405 -0.0828898 -0.0551823 -0.0447421 -0.073538 -0.0723442 -0.0875339 -0.0868061 -0.0870541 -0.0880274 -0.0859508 -0.0859808 -0.0839114 -0.068097 -0.0780797 -0.087084 -0.0845055
weight: 0.0722546 -0.0535767 0.0693334 -0.0107791 -0.0748406 -0.0593967 0.0772924 0.00572505 0.0797571 0.0328891 -0.0649239 -0.00812187 0.0538617 0.00802406 0.0557125 0.0719222 0.0684874 0.0352505 0.0608279 0.0680111 0.063754 0.067476 0.0746492 0.0787255 0.0673265 0.073523 0.0807898 0.0755502 0.0802189 0.0160531 0.0812004 0.067313 0.023869 0.0672536 0.0675593 0.0359786 0.072421 0.0410504 0.0653299 -0.105223 0.000892118 -0.0790375 -0.0340225 -0.142858 -0.0234437 0.17154 0.0525536 0.0691827 0.253236 0.00327452 -0.0682334 0.131998 0.0878709 0.025363 0.128686 0.125504 -0.050602 0.108113 -0.032313 -0.01508 -0.205827 0.079943 0.0763635 -0.00833811 0.0562799 0.0334883 0.0630525 -0.0764895 0.0713557 0.0817082 0.0695261 0.0134955 0.0706044 0.0319692 0.0186624 0.056458 0.0547737 0.0798213 0.0779261 0.0785223 0.081562 0.0760861 0.0761454 0.0723274 0.0489312 0.0630802 0.0785964 0.0733681
weight: -0.094093 0.0609177 -0.0879494 0.0110159 0.098356 0.0865241 -0.105905 0.00461477 -0.112564 -0.0288998 0.0939239 0.0211527 -0.0605308 0.00188795 -0.0635677 -0.0933735 -0.0862464 -0.0321465 -0.0721786 -0.0853012 -0.077315 -0.0842541 -0.0994586 -0.109703 -0.0839641 -0.0968922 -0.115519 -0.101583 -0.113877 -0.00765922 -0.116709 -0.0839381 -0.0171905 -0.0838224 -0.0844161 -0.0331646 -0.0944557 -0.0404827 -0.0801851 0.145294 0.329893 0.209247 0.150651 0.164532 0.16397 -0.232783 0.462066 -0.0814394 -0.309802 0.0212442 -0.127429 -0.19777 -0.292496 -0.192586 -0.215323 0.00249036 0.00812366 -0.120763 -0.0444801 -0.0798961 -0.11254 -0.0803603 -0.10356 0.021411 -0.0645075 -0.0297156 -0.0760644 0.106405 -0.0921599 -0.1182 -0.0883427 -0.00460511 -0.0905736 -0.0276581 -0.0108003 -0.0648018 -0.0620226 -0.112745 -0.107557 -0.109151 -0.117769 -0.102882 -0.103026 -0.0942503 -0.0525971 -0.0761133 -0.109351 -0.0965443
weight: 0.116602 -0.0315912 0.118472 -0.00739359 -0.0237011 0.046929 0.111824 0.110103 0.108312 0.121192 0.0363839 0.101855 0.12304 0.111304 0.122819 0.116841 0.11893 0.121758 0.121814 0.11917 0.12094 0.119432 0.114638 0.109909 0.119501 0.11562 0.106489 0.113767 0.107526 0.115151 0.105699 0.11951 0.118345 0.119537 0.119393 0.121917 0.116481 0.122792 0.120362 -0.0845636 -0.0758816 -0.1853 -0.228678 0.0496293 -0.215407 -0.183443 -0.115114 0.351868 -0.146794 0.174022 0.0992513 -0.151231 0.0012348 -0.339182 0.163873 0.0517722 -0.0276775 0.125353 0.132915 -0.0611586 0.280604 0.101857 0.112906 0.101711 0.122734 0.121344 0.121173 -0.00300343 0.117229 0.104657 0.118363 0.113985 0.117719 0.120951 0.116282 0.122709 0.122941 0.108204 0.111017 0.1102 0.104963 0.113206 0.113144 0.116548 0.123302 0.121163 0.110096 0.115745
weight: -0.0178922 0.00664959 -0.0174032 0.00128258 0.00956372 0.00192726 -0.0187416 -0.00998986 -0.019127 -0.0129307 0.00369938 -0.00831352 -0.0152636 -0.010252 -0.0154948 -0.0178358 -0.0172672 -0.0131811 -0.0161584 -0.0171912 -0.0165585 -0.0171075 -0.0182995 -0.0189719 -0.017084 -0.0181087 -0.0192679 -0.0184515 -0.0191926 -0.0111382 -0.0193174 -0.0170824 -0.0119709 -0.0170728 -0.0171205 -0.0132582 -0.0179208 -0.0137959 -0.0167841 -0.0240297 -0.131378 0.00624038 0.0149029 -0.0120381 -0.0717717 -0.1059 -0.0352425 -0.165087 -0.0896642 1.83389 -0.0455221 0.0394707 0.00610457 0.120401 -0.0379651 -0.0144275 0.0130791 -0.0317671 -0.0786209 0.0329552 0.0230331 -1.00689 -0.0185873 -0.00828577 -0.0155668 -0.0129947 -0.0164606 0.00859154 -0.0177395 -0.0193733 -0.017435 -0.0108607 -0.0176137 -0.0128333 -0.0114176 -0.0155895 -0.0153769 -0.0191367 -0.0188447 -0.0189398 -0.019358 -0.0185415 -0.0185512 -0.0179044 -0.0146707 -0.0164642 -0.0189517 -0.0180814
weight: -0.0280378 -0.0109796 -0.0307201 -0.00168068 -0.0232578 -0.059683 -0.022551 -0.0643162 -0.0191192 -0.0535884 -0.0549459 -0.0678429 -0.0420254 -0.063593 -0.0408368 -0.028356 -0.0314505 -0.0524291 -0.0373706 -0.0318549 -0.0352361 -0.0323021 -0.0256098 -0.0206403 -0.0324258 -0.0267824 -0.0174427 -0.0246213 -0.0183894 -0.0608021 -0.0167295 -0.0324374 -0.0576924 -0.0324857 -0.0322331 -0.0520665 -0.0278768 -0.0494464 -0.0340289 0.120882 -0.0429013 0.0161215 0.0713891 -0.0942326 -0.0672632 0.0811133 -0.40614 -0.0764476 -0.161777 -0.359218 -0.0625372 -0.114146 -0.0475483 -0.160008 -0.197584 0.0374718 0.0675502 0.0245796 0.0688492 -0.108202 0.181694 0.185771 -0.0236841 -0.0678851 -0.0404654 -0.0532969 -0.035761 -0.0347919 -0.0288909 -0.0158029 -0.0305499 -0.0617345 -0.029585 -0.0540307 -0.059808 -0.040349 -0.0414435 -0.0190181 -0.0217329 -0.0209246 -0.016075 -0.0240067 -0.02394 -0.0279674 -0.0450381 -0.0357402 -0.0208221 -0.0269401
weight: 0.00548325 0.0137836 0.00703092 0.00234475 0.0240204 0.0380265 0.00307723 0.031631 0.00210887 0.0230174 0.0365703 0.0349795 0.0147133 0.0310058 0.0138762 0.00565659 0.00748449 0.0221557 0.0114488 0.00773935 0.00997827 0.00802531 0.00428192 0.0024944 0.00810451 0.00483642 0.00175179 0.00385388 0.00194392 0.028672 0.00161893 0.00811228 0.0261754 0.00814342 0.00798106 0.0218867 0.00539777 0.0199827 0.00916024 -0.265791 0.162814 -0.0283591 -0.133315 0.0925166 0.000997606 -0.119996 -0.0328933 0.302379 0.0400318 0.0587759 -0.724964 0.252199 -0.153721 0.128317 0.108656 -0.104963 0.0927881 0.292809 0.193162 -0.0614299 0.13377 -0.0900316 0.00348372 0.0350264 0.0136147 0.0228002 0.0103364 0.0293024 0.00595336 0.00146366 0.00692729 0.0294397 0.0063517 0.0233499 0.0278653 0.0135329 0.0143035 0.00208442 0.00281336 0.00257356 0.00150806 0.00360743 0.00358119 0.00544612 0.0168422 0.010322 0.00254501 0.00491445
weight: 0.00923377 -0.00477485 0.0106647 -0.00160502 0.00228992 0.0143615 0.00589885 0.0204513 0.00362273 0.0194244 0.013506 0.0199972 0.0156896 0.0204708 0.0152086 0.00941028 0.0110322 0.0191558 0.0137496 0.0112324 0.0128126 0.0114504 0.00782265 0.00463884 0.0115099 0.00851797 0.00250221 0.00721707 0.00313448 0.0204119 0.00202868 0.0115152 0.0201333 0.0115388 0.0114161 0.0190662 0.0091433 0.018341 0.0122648 0.00177366 -0.164717 -0.00749382 0.0786461 -0.0381914 -0.00257862 -0.22603 -0.0703017 -0.186484 -0.0303795 0.0394454 1.81754 -0.147841 -0.0395774 -0.106223 -0.270933 -0.0887722 -0.0834036 -0.215259 -0.155096 0.11077 -0.222508 -0.0162443 0.00662842 0.0199854 0.0150559 0.0193597 0.0130461 0.00829645 0.00970334 0.00141658 0.0105779 0.0204532 0.0100745 0.0195192 0.0203466 0.0150077 0.0154554 0.00355546 0.00536281 0.00482869 0.00159579 0.00683278 0.00679014 0.0091942 0.0168525 0.0130369 0.00476029 0.00860948
weight: -0.0269244 0.0207271 -0.0263213 0.00418686 0.0295278 0.0309607 -0.027634 -9.10081e-05 -0.0278137 -0.0129837 0.032392 0.00696076 -0.0217553 -0.00122763 -0.0224138 -0.026861 -0.0261266 -0.0140599 -0.0240732 -0.0260148 -0.024916 -0.0258848 -0.027322 -0.0277461 -0.0258482 -0.0271466 -0.0278834 -0.0274441 -0.0278423 -0.00511522 -0.0279149 -0.0258453 -0.00879266 -0.0258297 -0.0259044 -0.0143885 -0.0269545 -0.0166232 -0.0253404 0.0923868 -0.253281 0.227611 -0.00402921 0.215956 0.0284628 -0.379636 0.0257141 0.0511194 -0.0260188 0.216596 0.384856 -0.0732217 0.391109 -0.276924 -0.0816863 -0.0560077 -0.0127968 -0.00667341 -0.0249363 -0.16795 -0.0549283 -0.0736678 -0.027541 0.00707081 -0.0226106 -0.0132587 -0.0247208 0.0325232 -0.0267513 -0.0279626 -0.0263651 -0.00389064 -0.0265972 -0.0125611 -0.00635068 -0.0226703 -0.0220831 -0.0278177 -0.0276881 -0.0277323 -0.0279476 -0.0275098 -0.0275165 -0.0269377 -0.019882 -0.0247279 -0.0277379 -0.0271208
weight: 0.0188091 -0.0380889 0.0139908 -0.00652352 -0.0668398 -0.0821946 0.0280525 -0.0511387 0.0332751 -0.0298849 -0.0831067 -0.0598796 -0.00735338 -0.0495728 -0.00504562 0.0182445 0.0126554 -0.027663 0.0016136 0.0119135 0.00563987 0.0110917 0.023016 0.0310215 0.0108641 0.0210043 0.035638 0.0246781 0.0343195 -0.0438232 0.0366029 0.010843 -0.0377289 0.0107529 0.0112194 -0.026964 0.0190933 -0.0218875 0.00789633 -0.0932515 0.220282 -0.119481 0.0379495 -0.0301258 -0.116827 0.0939945 -0.0499646 -0.303679 0.0517637 -0.0847377 -0.0216201 -0.027054 -0.0476075 0.0492802 0.191841 0.100957 0.037 0.0725578 0.0995578 0.104939 0.160341 -0.187828 0.0262236 -0.0600063 -0.00432598 -0.0293279 0.00465696 -0.0778491 0.0172934 0.0378246 0.0142985 -0.0457053 0.0160486 -0.0307302 -0.0418491 -0.00410096 -0.006223 0.0334203 0.0293429 0.0305884 0.0374702 0.0256944 0.025805 0.0189328 -0.0132455 0.00469604 0.0307457 0.0207319
weight: -0.0521869 0.0202644 -0.0522075 0.00398671 0.0244884 -0.00315437 -0.0517841 -0.0395644 -0.0512444 -0.048066 0.0016431 -0.0339479 -0.0514082 -0.0404128 -0.0515786 -0.0521933 -0.0522007 -0.0485877 -0.0519518 -0.0521948 -0.0520903 -0.0521874 -0.0520779 -0.0515098 -0.0521851 -0.0521425 -0.0509077 -0.0520026 -0.0511025 -0.0432278 -0.0507534 -0.0521854 -0.0457048 -0.0521841 -0.0521884 -0.0487412 -0.0521822 -0.0497061 -0.052142 -0.459201 -0.147422 0.0603945 0.0551988 -0.0563892 0.086888 0.0322573 0.193519 0.349034 -0.044852 -0.325677 -0.0473107 0.0187507 0.0372378 0.0192857 -0.258663 -0.0146742 -0.060618 -0.0633506 -0.0565944 -0.0594584 -0.0129808 0.210728 -0.0519144 -0.0338521 -0.0516273 -0.0482019 -0.0520629 0.0175169 -0.0522021 -0.0505447 -0.0522077 -0.0423563 -0.052208 -0.047852 -0.0440904 -0.0516417 -0.0514938 -0.0512258 -0.051674 -0.0515546 -0.0506069 -0.0519461 -0.0519388 -0.0521847 -0.0508665 -0.0520639 -0.0515388 -0.0521504
weight: 0.0284978 0.00490391 0.0304236 0.000493371 0.0158363 0.0419458 0.0243081 0.0479896 0.0216359 0.0437963 0.039144 0.0490326 0.0375862 0.0477441 0.0368791 0.0287317 0.0309302 0.0432485 0.0347694 0.0312065 0.0334313 0.0315092 0.0266753 0.0228167 0.0315927 0.0275636 0.0203544 0.0259174 0.0210745 0.046755 0.0198188 0.0316007 0.0455718 0.0316335 0.0314632 0.0430728 0.0283788 0.0417532 0.0326532 1.24608 -0.160682 -0.111151 0.00146482 -0.00536613 -0.163061 -0.115897 -0.173456 -0.0686428 -0.049198 -0.110328 -0.128522 0.554815 -0.0802069 -0.0190709 -0.165128 -0.11383 -0.0243548 -0.0918939 -0.178775 -0.00787407 0.0798387 0.0620059 0.025192 0.0490411 0.0366558 0.0436608 0.0337636 0.0256197 0.0291209 0.019131 0.0303046 0.0470919 0.0296205 0.0440006 0.0463892 0.0365863 0.0372413 0.0215581 0.0236689 0.0230379 0.0193315 0.0254428 0.0253898 0.0284458 0.0393403 0.0337504 0.0229576 0.027682
weight: -0.0283976 0.0131767 -0.0270648 0.00255318 0.0189028 0.0178103 -0.0306213 -0.00165075 -0.0316187 -0.0117017 0.0187086 0.00311228 -0.0205082 -0.00245607 -0.0212885 -0.0282473 -0.026681 -0.0126612 -0.02341 -0.0264661 -0.0246216 -0.0262269 -0.029471 -0.0312153 -0.0261603 -0.0289691 -0.0319942 -0.0298678 -0.0317914 -0.00530689 -0.0321336 -0.0261542 -0.008172 -0.0261277 -0.0262631 -0.012959 -0.028473 -0.015058 -0.0252896 0.0650056 0.180399 0.110942 0.0357928 -0.0811095 0.061412 -0.0738663 0.102282 0.00860154 0.0273949 -0.251515 -0.206525 -0.109306 -0.0737145 0.164884 0.0296893 -0.0133708 0.00760258 0.0164329 -0.148401 -0.0386978 -0.106865 0.0655069 -0.0302217 0.00318468 -0.021527 -0.0119439 -0.0243291 0.0199261 -0.0279888 -0.0322997 -0.0271529 -0.00439266 -0.0276454 -0.0113313 -0.0062483 -0.0216006 -0.0208933 -0.0316435 -0.0308871 -0.0311335 -0.0322533 -0.0301018 -0.0301272 -0.0284304 -0.0184027 -0.024341 -0.0311636 -0.0288996
weight: -0.0553666 0.0186287 -0.0569218 0.00455093 0.0125278 -0.0317902 -0.0520462 -0.0657408 -0.049867 -0.0658925 -0.0250012 -0.063353 -0.0628183 -0.0659515 -0.0623111 -0.0555546 -0.0573393 -0.0657208 -0.0606202 -0.0575676 -0.0594656 -0.0578202 -0.0539191 -0.0508461 -0.0578905 -0.0546229 -0.0487638 -0.0533188 -0.0493901 -0.0663389 -0.0482852 -0.057897 -0.0662944 -0.0579247 -0.0577817 -0.06566 -0.0552718 -0.0651401 -0.0587927 -0.378455 -0.124507 -0.351714 0.136371 -0.0187036 -0.0199264 -0.108237 0.0290831 0.110144 -0.206536 -0.18109 -0.049406 -0.163593 -0.120657 0.0903316 0.179419 0.186079 0.037757 0.0480664 0.243226 0.174068 0.203027 0.0234567 -0.052747 -0.0633011 -0.062144 -0.0658522 -0.0597536 -0.000303465 -0.0558665 -0.0476586 -0.056825 -0.0662706 -0.0562697 -0.0659521 -0.0663631 -0.0620912 -0.0625746 -0.0498018 -0.0515358 -0.0510262 -0.0478426 -0.0529449 -0.0529034 -0.0553254 -0.0639263 -0.0597426 -0.0509611 -0.0547163
weight: -0.138868 0.0569928 -0.137728 0.0114459 0.0734485 0.0166971 -0.139766 -0.080906 -0.139416 -0.109527 0.0291045 -0.0644878 -0.128081 -0.0834954 -0.129465 -0.138755 -0.13734 -0.111815 -0.132997 -0.13711 -0.134806 -0.136847 -0.139502 -0.139648 -0.136771 -0.139244 -0.139042 -0.139653 -0.139267 -0.0922757 -0.13885 -0.136763 -0.100475 -0.136733 -0.13689 -0.112512 -0.138922 -0.117253 -0.135709 -0.0297323 -0.17752 0.270787 0.120067 0.0618111 0.17391 0.101707 0.0344027 -0.116027 -0.0355331 0.124118 -0.192433 0.12127 -0.00622351 -0.175642 0.118575 -0.0690799 -0.0175908 -0.131305 -0.156391 -0.162713 -0.0898482 -0.222844 -0.139738 -0.0642203 -0.12988 -0.110112 -0.134388 0.0647156 -0.138553 -0.138575 -0.137813 -0.0895204 -0.138265 -0.108627 -0.0950501 -0.130007 -0.12877 -0.139397 -0.139741 -0.139678 -0.138658 -0.139715 -0.13972 -0.138892 -0.124151 -0.134404 -0.139667 -0.139201
weight: -0.0248547 0.0115405 -0.0230911 0.00185051 0.0216566 0.022902 -0.0282318 0.00314124 -0.0301215 -0.00605603 0.0244033 0.00741875 -0.0152069 0.00242132 -0.0160834 -0.0246488 -0.0226017 -0.00698935 -0.0185577 -0.0223297 -0.020032 -0.0220281 -0.0263924 -0.0293102 -0.021945 -0.0256572 -0.030963 -0.0269995 -0.030495 -0.0001327 -0.031303 -0.0219369 -0.00274149 -0.0219041 -0.0220745 -0.00728234 -0.0249589 -0.00939473 -0.0208573 -0.075698 1.5006 -0.0987859 -0.016387 0.0522672 0.0495814 -0.294163 -0.127976 -0.0721151 -0.0815775 0.00386009 -0.140525 -0.0381711 0.315988 0.0123767 -0.242258 0.0155522 -0.0521062 -0.170071 -0.0502974 -0.304158 -0.0229671 0.0520857 -0.027564 0.00748401 -0.0163546 -0.00628995 -0.0196728 0.0255273 -0.0243005 -0.0317307 -0.0232045 0.00069 -0.0238453 -0.00570038 -0.000984336 -0.0164388 -0.0156376 -0.0301736 -0.0287013 -0.0291532 -0.0316071 -0.027371 -0.0274116 -0.0249005 -0.0129076 -0.0196866 -0.0292103 -0.0255575
weight: -0.0862407 0.0386682 -0.0873225 0.00838848 0.038753 -0.0151439 -0.083399 -0.0754988 -0.081206 -0.0870898 -0.00628458 -0.0669861 -0.0901052 -0.0767319 -0.0900048 -0.0863797 -0.0875913 -0.0877543 -0.0893881 -0.0877326 -0.0888213 -0.0878883 -0.0850907 -0.0822145 -0.0879299 -0.0856672 -0.0800285 -0.0845718 -0.0807015 -0.0806726 -0.0795104 -0.0879341 -0.0839832 -0.0879517 -0.0878642 -0.0879443 -0.0861695 -0.0890747 -0.0884558 0.00120887 -0.0336381 0.00697608 0.0419488 -0.00464078 0.176432 0.192165 0.0574428 0.0331789 -0.178682 -0.071491 -0.176658 -0.0988871 -0.331774 0.225174 0.118691 0.0218085 -0.0268238 -0.0303416 -0.124041 -0.0888806 0.109449 0.0493951 -0.0840558 -0.0668377 -0.0899603 -0.087265 -0.0889708 0.0244083 -0.0866041 -0.0788191 -0.0872592 -0.0794775 -0.086886 -0.0868135 -0.0818378 -0.0899452 -0.0900635 -0.0811372 -0.0829033 -0.0823972 -0.0790242 -0.0842359 -0.0841981 -0.086209 -0.0900541 -0.0889662 -0.0823318 -0.0857425
weight: -0.0217769 0.0114037 -0.0209776 0.00202723 0.0176716 0.00429328 -0.0235561 -0.0147069 -0.0247063 -0.0162444 0.00758821 -0.0130231 -0.0179707 -0.0149036 -0.0182354 -0.0216793 -0.0207652 -0.016354 -0.0191078 -0.0206496 -0.0196938 -0.0205211 -0.0225384 -0.0242044 -0.0204864 -0.022166 -0.0252309 -0.0228614 -0.0249391 -0.0154666 -0.0254423 -0.020483 -0.0158759 -0.0204685 -0.0205412 -0.0163908 -0.0218257 -0.0166983 -0.0200321 -0.121343 -0.0941299 -0.0666843 0.131045 -0.105061 -0.172143 -0.0787981 0.153932 -0.210012 -0.0384102 -0.0554972 0.0793045 0.0527458 -0.140525 -0.124857 0.123422 -0.00172138 0.063884 0.185077 0.277609 0.179605 0.0830455 0.0037941 -0.0231726 -0.0129885 -0.018322 -0.0162712 -0.0195486 0.0164339 -0.0215181 -0.0257058 -0.0210263 -0.015305 -0.0213109 -0.0162054 -0.0156174 -0.0183502 -0.0180978 -0.0247379 -0.0238339 -0.0241079 -0.0256292 -0.0230652 -0.023088 -0.0217978 -0.0173815 -0.0195541 -0.0241423 -0.0221159
weight: 0.0629815 -0.00268958 0.065156 -0.000838208 0.00549852 0.0499058 0.0580663 0.0771779 0.0547392 0.0765929 0.0435343 0.0755557 0.0726055 0.0773066 0.0719948 0.0632479 0.0657229 0.0763353 0.0699446 0.0660318 0.0685066 0.0663706 0.0608792 0.0562321 0.0664634 0.0619099 0.0530751 0.0599888 0.0540163 0.077481 0.0523645 0.0664727 0.0772635 0.0665092 0.0663185 0.0762475 0.0628454 0.0755263 0.0676465 0.0584938 0.110533 -0.135211 -0.0938687 -0.061541 -0.0712007 -0.0703782 -0.0395202 -0.000174342 -0.142214 -0.119753 0.0607662 -0.198429 0.126534 -0.425915 0.142714 0.0875283 -0.0528098 -0.0863411 0.0762518 0.0239646 0.102261 0.0782253 0.0591283 0.0755181 0.0717939 0.0765312 0.0688699 0.0185284 0.0636893 0.0514406 0.0650232 0.0774715 0.0642539 0.0766835 0.0774484 0.0717302 0.0723127 0.0546402 0.0572867 0.0565087 0.0517115 0.0594272 0.0593648 0.0629218 0.0739602 0.0688561 0.0564085 0.0620464
weight: -0.0505703 0.00497885 -0.0524669 0.00149372 -0.00270376 -0.0364639 -0.0462599 -0.0590964 -0.0434383 -0.0608425 -0.0318657 -0.0568864 -0.058127 -0.0593844 -0.0576792 -0.0508037 -0.0529507 -0.0607428 -0.0562165 -0.0532113 -0.0551715 -0.0534927 -0.0487197 -0.0446885 -0.0535693 -0.049627 -0.0420768 -0.0479376 -0.0428422 -0.0602368 -0.0415058 -0.0535767 -0.0607802 -0.0536066 -0.0534493 -0.0607023 -0.0504506 -0.0602867 -0.0545159 -0.197027 -0.276593 1.20515 0.0753942 -0.0154301 -0.0344874 0.0532169 -0.318059 0.0731242 -0.00719772 -0.0168673 -0.0985406 0.179556 0.0880793 0.524627 -0.234546 -0.0242518 -0.0212211 -0.100593 -0.0969986 -0.0709763 -0.357621 -0.076913 -0.0471838 -0.0568443 -0.0575335 -0.060822 -0.0554404 -0.0135285 -0.0511922 -0.0407724 -0.0523525 -0.0599919 -0.0516854 -0.0608682 -0.0604568 -0.0574876 -0.0579105 -0.0433567 -0.0455877 -0.0449229 -0.0409868 -0.047445 -0.0473903 -0.0505182 -0.0591502 -0.0554296 -0.0448377 -0.0497473
weight: 0.050937 -0.0022853 0.0538111 -0.00144575 0.0130588 0.0567239 0.0446047 0.0736564 0.0404436 0.0712774 0.0518917 0.0732156 0.063893 0.0736328 0.062958 0.0512872 0.0545638 0.0707361 0.0600974 0.0549733 0.0582133 0.0554204 0.0482004 0.0422987 0.0555429 0.0495363 0.0383929 0.0470548 0.0395503 0.0733624 0.0375217 0.0555544 0.0727391 0.0556033 0.0553515 0.0705551 0.0507586 0.0691056 0.0570935 0.0403013 0.000869217 0.211675 -0.0342009 -0.0180494 -0.081535 -0.0169054 0.172429 -0.00945985 -0.0525778 0.0265821 0.0374758 -0.166617 -0.0857059 0.166644 -0.143613 -0.0109305 0.0636797 -0.0538136 0.114488 0.0071659 -0.128802 0.0999258 0.0459532 0.0731986 0.0626614 0.0711473 0.0586865 0.0291134 0.0518692 0.0363923 0.0536347 0.0734813 0.0526152 0.0714706 0.0732047 0.0625678 0.0634386 0.0403211 0.0436212 0.0426442 0.0367235 0.0463349 0.0462554 0.0508586 0.0661622 0.0586687 0.0425194 0.0497144
weight: -0.118033 0.0724639 -0.110786 0.0130135 0.115505 0.0913214 -0.131638 -0.00104919 -0.138795 -0.0407902 0.100859 0.0174693 -0.0782853 -0.00417211 -0.0819108 -0.117186 -0.108778 -0.0446742 -0.0921653 -0.107663 -0.0982433 -0.106428 -0.12431 -0.135783 -0.106086 -0.12132 -0.141797 -0.126757 -0.140143 -0.0153226 -0.142973 -0.106053 -0.0266978 -0.105919 -0.106618 -0.0458862 -0.118461 -0.0545544 -0.101631 0.254293 0.141929 0.254861 0.218555 0.0288985 0.154947 -0.375175 0.407234 0.164678 -0.322068 0.0673131 -0.381044 -0.124474 -0.259143 -0.159243 -0.203868 -0.0924456 -0.0973426 -0.302508 -0.0301138 -0.103335 -0.0967202 -0.0446007 -0.129009 0.0177545 -0.0830347 -0.041768 -0.0967668 0.121447 -0.115754 -0.144415 -0.11125 -0.0117233 -0.113884 -0.0393013 -0.0190506 -0.0833829 -0.080065 -0.138982 -0.13346 -0.135189 -0.144002 -0.128241 -0.128403 -0.118219 -0.0688473 -0.0968246 -0.135405 -0.120911
weight: 0.00578679 0.0374606 0.0106001 0.00702466 0.0616888 0.0967482 -0.0041116 0.0712992 -0.0101415 0.0505105 0.0950123 0.0802177 0.0298618 0.0697101 0.0278513 0.00635986 0.0118965 0.0483998 0.022047 0.0126115 0.0184553 0.0133956 0.00139694 -0.00749884 0.0136122 0.00351861 -0.0129806 -0.000388126 -0.0113882 0.0639825 -0.0141623 0.0136325 0.0580464 0.0137173 0.0132738 0.0477382 0.00549524 0.0429749 0.0163932 0.242789 0.199601 -0.273818 -0.104671 0.171541 0.212643 0.040295 0.0115313 0.104821 -0.100843 0.160232 0.079758 -0.0909558 -0.13286 0.216163 0.0391875 -0.222019 -0.0159211 -0.000855665 0.0471064 -0.0107009 0.244882 0.101052 -0.00207727 0.0803472 0.027228 0.0499807 0.019342 0.0775475 0.00732441 -0.0156725 0.0102981 0.0658402 0.00857004 0.0513167 0.0620474 0.0270306 0.0288747 -0.0103138 -0.00557134 -0.00699782 -0.0152328 -0.00149505 -0.0016171 0.00565914 0.0350705 0.0193067 -0.00717929 0.00380224
weight: -0.0110328 -0.0334905 -0.018637 -0.00458195 -0.0755529 -0.119991 0.0042725 -0.100343 0.0131806 -0.0770046 -0.117932 -0.108843 -0.0489545 -0.098736 -0.0458846 -0.0119384 -0.020691 -0.0743869 -0.0367903 -0.0218201 -0.0310917 -0.0230648 -0.00416712 0.0093234 -0.0234073 -0.00747326 0.0172319 -0.0014059 0.0149711 -0.0926674 0.0188884 -0.02344 -0.0859875 -0.0235755 -0.0228722 -0.0735559 -0.0105752 -0.067438 -0.0278163 -0.105298 0.02441 -0.17086 -0.0152463 -0.0630941 -0.00961857 0.333588 -0.209924 -0.0963741 0.217974 -0.0580921 0.0210707 0.0974915 0.0997228 0.0752916 0.146355 0.0851081 0.100435 0.171881 -0.11081 0.116807 0.0988375 -0.0141181 0.0011837 -0.108958 -0.0449193 -0.0763514 -0.0324975 -0.0987709 -0.0134578 0.0209815 -0.0181595 -0.0946787 -0.0154259 -0.0779922 -0.0905336 -0.0446169 -0.0474561 0.0134284 0.00646212 0.00858538 0.0203738 0.000293965 0.000480983 -0.0108335 -0.056626 -0.0324429 0.00885305 -0.00791872
weight: 0.0466028 0.0021454 0.0502444 -0.000511321 0.0202756 0.0640674 0.0386131 0.0756569 0.0334916 0.0715343 0.0595881 0.0762237 0.0629177 0.0754774 0.0617904 0.0470469 0.0511984 0.0708765 0.0582296 0.0517165 0.0558363 0.0522849 0.0431397 0.0357537 0.0524401 0.0448298 0.0310427 0.041692 0.0324183 0.0746556 0.0300195 0.0524554 0.0735002 0.0525169 0.0521975 0.0706594 0.0463777 0.0689603 0.0544111 0.0945339 0.013794 0.0688865 0.0939166 -0.0626406 -0.179851 -0.169977 -0.0699535 -0.0323381 -0.0958052 0.0548296 -0.0475326 -0.194845 -0.119075 -0.197627 1.13292 -0.0842518 -0.0684788 -0.146029 0.0254848 -0.0397394 -0.13153 -0.290512 0.0403059 0.0762241 0.0614277 0.0713737 0.0564384 0.0372887 0.0477845 0.0287095 0.0500213 0.074953 0.0487294 0.071773 0.0743163 0.0613133 0.0623718 0.0333443 0.0373882 0.0361789 0.0290921 0.040785 0.0406846 0.0465047 0.0655779 0.0564153 0.0360248 0.0450546
weight: 0.141108 -0.0505027 0.142164 -0.0118714 -0.0433912 0.0188745 0.137211 0.110279 0.133671 0.132296 0.00852722 0.0955248 0.142062 0.112469 0.142429 0.141263 0.142366 0.13381 0.142956 0.142462 0.142941 0.142558 0.13967 0.135333 0.142582 0.140423 0.131699 0.138953 0.13283 0.119603 0.130825 0.142585 0.125861 0.142594 0.142543 0.134259 0.141027 0.137141 0.142832 -0.138495 0.0178893 0.0631587 -0.253325 -0.0265819 -0.422522 0.0267578 -0.173195 0.0209715 -0.0104017 -0.292851 -0.0371869 -0.0270593 -0.113478 -0.147324 -0.452714 0.0255659 0.0999597 0.25249 0.216324 0.0859046 0.229629 0.381478 0.138204 0.0952743 0.142524 0.132687 0.142964 -0.0249443 0.141502 0.129659 0.142113 0.117413 0.141781 0.131686 0.121763 0.142551 0.142254 0.133558 0.136437 0.135628 0.130003 0.13847 0.138415 0.141073 0.140629 0.142964 0.135522 0.140515
weight: -0.0877727 -0.0109862 -0.0920723 -0.000698029 -0.039495 -0.123942 -0.0786043 -0.145209 -0.0727353 -0.127194 -0.113164 -0.150059 -0.109461 -0.144092 -0.107667 -0.0882905 -0.0932241 -0.125311 -0.102383 -0.0938568 -0.0991035 -0.0945554 -0.0837635 -0.0753453 -0.0947479 -0.0857121 -0.0698533 -0.0821092 -0.0714818 -0.139506 -0.0686264 -0.0947669 -0.134137 -0.0948421 -0.0944488 -0.124728 -0.0875097 -0.120618 -0.0972375 -0.331265 -0.341588 0.027413 0.237345 0.0250319 0.217312 0.0737181 0.244345 -0.157551 0.161251 0.204936 -0.0820274 0.144877 0.269033 -0.308642 -0.376064 0.200236 0.0302696 0.144822 -0.190055 0.0737812 -0.319557 -0.236002 -0.0805272 -0.150109 -0.107104 -0.126719 -0.0999091 -0.0674931 -0.0891539 -0.0670305 -0.0918051 -0.141077 -0.0902681 -0.127925 -0.137805 -0.106929 -0.108585 -0.0725636 -0.0772096 -0.0758313 -0.0674985 -0.0810734 -0.0809596 -0.0876578 -0.113969 -0.0998783 -0.0756545 -0.0859728
weight: -0.139342 0.0520679 -0.136688 0.00908313 0.0760206 0.0473482 -0.1427 -0.0386964 -0.143626 -0.0823797 0.0550864 -0.0186567 -0.116998 -0.0421659 -0.119746 -0.139065 -0.13584 -0.0863967 -0.126837 -0.135344 -0.130526 -0.13478 -0.141154 -0.143308 -0.134619 -0.140347 -0.143835 -0.141737 -0.143732 -0.0546185 -0.143888 -0.134605 -0.0672557 -0.134542 -0.13487 -0.0876332 -0.139481 -0.0962421 -0.132391 -0.0578969 0.129535 -0.0200907 0.00558607 0.200538 0.373833 -0.0958853 0.106142 -0.181433 -0.0441364 -0.080048 -0.0224865 0.197928 -0.0783225 0.12836 0.13723 0.163575 -0.0141752 -0.145521 -0.0856581 0.101958 0.0071687 0.0218415 -0.142217 -0.0183549 -0.120568 -0.0833989 -0.129671 0.0743435 -0.138574 -0.143929 -0.136877 -0.0505932 -0.1379 -0.0808223 -0.0587829 -0.120825 -0.118362 -0.143642 -0.142994 -0.143231 -0.143921 -0.14206 -0.142092 -0.139403 -0.109302 -0.129703 -0.143259 -0.140229
weight: 0.024374 -0.029573 0.0199358 -0.0050077 -0.0507983 -0.0369107 0.0342224 -0.0101858 0.0404244 -0.00430852 -0.0418965 -0.0128039 0.00550222 -0.00978344 0.00676504 0.023828 0.0187962 -0.00354461 0.0107376 0.0181776 0.0134216 0.0175105 0.0286437 0.0377122 0.0173269 0.0265573 0.0432904 0.0304297 0.0416897 -0.0083287 0.0444626 0.0173095 -0.00669708 0.0172378 0.0176125 -0.00329451 0.0246499 -0.00134353 0.0150427 0.149417 -0.134716 -0.0616407 0.0221425 0.0830238 -0.0487854 0.184645 -0.145615 -0.161479 0.140855 0.0760546 -0.0687772 -0.254747 0.154282 -0.205306 0.0389158 0.19649 -0.0519805 -0.00568853 -0.0282847 0.180834 -0.107075 0.0751086 0.0321397 -0.012851 0.00717078 -0.00412212 0.0127438 -0.0537532 0.0229219 0.0459397 0.0202044 -0.00880793 0.0217705 -0.00458905 -0.00781439 0.00729757 0.00611442 0.0405983 0.0357234 0.0371967 0.0455117 0.0315489 0.0316724 0.0244937 0.00250517 0.0127698 0.037383 0.02628
weight: 0.0704446 0.0123476 0.0770794 0.00104319 0.0423565 0.0913006 0.0552187 0.106787 0.045334 0.105452 0.0867352 0.105507 0.0967254 0.106914 0.0952259 0.07127 0.0787559 0.104967 0.0901368 0.0796572 0.0864609 0.0806307 0.0639088 0.0496981 0.0808964 0.0671189 0.0406206 0.0611438 0.0432677 0.107059 0.0386554 0.0809215 0.106678 0.0810253 0.080483 0.1048 0.0700258 0.10339 0.0841771 0.108224 -0.007076 0.198074 -0.0940525 -0.00705827 -0.301896 -0.11248 0.0494375 0.0653704 -0.149699 -0.159553 -0.0406181 -0.0525806 -0.221514 0.0303951 -0.329779 0.0614416 0.016595 -0.0351843 0.0583784 -0.155576 0.0448167 0.207677 0.0584794 0.105483 0.09473 0.105336 0.0874047 0.0635844 0.0726319 0.0361396 0.0766829 0.107066 0.0743589 0.105622 0.106995 0.094575 0.0960084 0.0450501 0.052855 0.0505181 0.0368739 0.0594024 0.0592096 0.0702621 0.0999781 0.0873684 0.0502214 0.0675429
weight: -0.426706 0.0582664 -0.44753 0.0190542 -0.0345201 -0.34379 -0.381642 -0.563912 -0.353423 -0.565417 -0.302159 -0.544341 -0.520587 -0.565983 -0.514056 -0.429239 -0.452998 -0.562723 -0.493441 -0.455973 -0.47965 -0.459233 -0.407024 -0.365829 -0.460127 -0.416611 -0.340072 -0.398864 -0.347561 -0.57062 -0.334519 -0.46021 -0.571057 -0.460563 -0.458732 -0.561785 -0.425419 -0.553802 -0.471447 -0.603494 -0.019587 -0.107269 0.16018 0.30544 0.594451 0.289695 -0.234634 -0.277905 0.118322 0.0268051 0.0510621 0.847412 0.149808 0.258745 0.515881 -0.0665476 -0.25063 0.200954 -0.425932 0.028232 0.236534 -0.205899 -0.39108 -0.543935 -0.511952 -0.564786 -0.483113 -0.138472 -0.43345 -0.327418 -0.44625 -0.569579 -0.438853 -0.566328 -0.571254 -0.511295 -0.517429 -0.352617 -0.374848 -0.368169 -0.329488 -0.393769 -0.393207 -0.426145 -0.53578 -0.482981 -0.367321 -0.417888
weight: 0.141555 -0.0239141 0.133937 -0.00236931 -0.0585659 -0.0464346 0.156186 0.0379836 0.164161 0.0712216 -0.0545881 0.0218693 0.102955 0.0406273 0.106123 0.140659 0.13185 0.0744698 0.115412 0.130698 0.121222 0.12943 0.148244 0.160766 0.12908 0.145047 0.16763 0.150881 0.165705 0.0499775 0.169016 0.129047 0.0594654 0.128907 0.129625 0.0754883 0.142009 0.0827671 0.124571 -0.198404 0.133376 -0.546423 0.0857726 -0.259514 0.0700875 0.595347 0.0275476 -0.177171 0.355812 0.184883 0.240864 0.150181 0.292061 0.225315 0.622852 -0.0797391 0.0524428 0.0736925 0.15042 0.231164 0.260884 -0.156309 0.153319 0.0216154 0.107117 0.0720387 0.119788 -0.068545 0.139146 0.170745 0.134423 0.0469693 0.137177 0.0699782 0.0530887 0.107425 0.104503 0.164376 0.158188 0.160104 0.170246 0.152485 0.15266 0.141752 0.0948532 0.119843 0.160343 0.144612
weight: 0.559337 -0.280216 0.5547 -0.0575816 -0.349869 -0.119061 0.56451 0.312655 0.565159 0.437482 -0.169463 0.23866 0.516993 0.324155 0.522642 0.558867 0.553188 0.447403 0.536617 0.552295 0.543535 0.551281 0.562312 0.565091 0.550991 0.561016 0.56487 0.563198 0.565077 0.36272 0.564648 0.550964 0.398276 0.550852 0.551441 0.450419 0.559572 0.470953 0.546952 0.333844 -0.798248 -0.199555 -0.53608 -0.0753039 -0.697075 -0.125269 -0.248741 0.468214 0.306899 -0.247981 0.377558 -0.472751 0.583271 0.0133528 0.271164 0.176363 -0.0706064 0.647229 0.251807 0.114097 -0.244698 0.120536 0.563886 0.237445 0.52431 0.440018 0.541945 -0.311992 0.558019 0.564283 0.555034 0.350687 0.556843 0.433579 0.374785 0.524826 0.519814 0.56515 0.564832 0.56504 0.564399 0.563668 0.563714 0.559442 0.500549 0.542011 0.56506 0.560826
weight: 0.00973996 0.137842 0.0349072 0.0214071 0.279041 0.42209 -0.0417659 0.318147 -0.0723842 0.232048 0.418027 0.352492 0.134895 0.311972 0.124693 0.0127474 0.0416828 0.222666 0.0946863 0.0454072 0.0759385 0.0495071 -0.0131912 -0.0590732 0.0506372 -0.00211679 -0.0864341 -0.0224906 -0.0785865 0.289165 -0.0921896 0.050745 0.264592 0.0511899 0.0488767 0.219702 0.00821936 0.198045 0.0651583 0.0818982 0.264411 0.43828 0.0671988 0.233145 -0.198712 -0.708907 0.29339 0.784347 -0.684955 0.198132 -0.352727 -0.461883 -0.756817 -0.290381 -0.848975 -0.310202 0.264413 -0.514876 0.292996 -0.48075 -0.280313 -0.140366 -0.0312573 0.352984 0.12149 0.229704 0.0805662 0.35667 0.0177852 -0.0994755 0.0333309 0.296656 0.0242993 0.235602 0.28127 0.120496 0.129909 -0.073241 -0.0492487 -0.0565355 -0.0973598 -0.0282413 -0.0288738 0.0090771 0.160695 0.0803858 -0.0574562 -0.000628397
weight: 0.0902234 -0.137967 0.0718141 -0.0229292 -0.246407 -0.292303 0.126838 -0.159811 0.147938 -0.083821 -0.298819 -0.192762 -0.00423474 -0.154104 0.00377765 0.0880412 0.0668054 -0.0758931 0.0269598 0.064042 0.0411899 0.0609945 0.106697 0.13883 0.0601535 0.0987767 0.157441 0.113298 0.152148 -0.133435 0.161299 0.0600728 -0.111766 0.0597416 0.0614637 -0.0733984 0.0913241 -0.0553269 0.049301 0.202171 -0.104969 -0.549073 -0.158248 -0.257236 0.329117 0.664287 -0.392314 -0.73843 0.549343 -0.110236 0.196464 0.042075 0.374131 0.17143 0.342572 0.220766 0.417828 0.229329 -0.231129 0.541493 0.190714 0.190502 0.11948 -0.193253 0.0062777 -0.0818346 0.0376928 -0.288036 0.0843736 0.166157 0.072976 -0.14016 0.079614 -0.0868374 -0.126411 0.00705311 -0.000310531 0.148521 0.132043 0.137082 0.16475 0.117359 0.117803 0.090703 -0.0248005 0.0378306 0.137717 0.0977059
weight: -0.316506 0.174167 -0.303406 0.0311844 0.270463 0.18649 -0.341773 -0.0777796 -0.356023 -0.169201 0.215008 -0.0292544 -0.244659 -0.0855529 -0.251361 -0.31497 -0.299789 -0.17748 -0.269953 -0.297777 -0.280856 -0.295556 -0.327986 -0.349889 -0.294942 -0.322494 -0.362426 -0.332532 -0.358855 -0.112348 -0.365039 -0.294882 -0.138357 -0.294638 -0.295898 -0.180049 -0.317283 -0.198126 -0.286932 -0.571898 -0.198493 0.768317 0.208301 0.339696 0.247622 -0.681522 0.480283 -0.13014 -0.504235 0.501102 -0.419981 0.546874 -0.173074 -0.359119 -0.428937 -0.232344 0.0173465 -0.667843 0.0241345 -0.519611 -0.434632 -0.326488 -0.336768 -0.0284788 -0.253423 -0.171293 -0.278208 0.27866 -0.312376 -0.368347 -0.304243 -0.103854 -0.308997 -0.165998 -0.121005 -0.254058 -0.247959 -0.356414 -0.345302 -0.34871 -0.367385 -0.335315 -0.335618 -0.316845 -0.226722 -0.278312 -0.349136 -0.321745
weight: -0.105366 0.122273 -0.0936493 0.0231988 0.185913 0.167038 -0.12867 0.0513617 -0.141804 0.00413108 0.178297 0.0735158 -0.0453055 0.0476858 -0.0503802 -0.103979 -0.0904651 -0.000705322 -0.0651357 -0.0887117 -0.0741957 -0.0867766 -0.115865 -0.136203 -0.0862417 -0.110817 -0.147454 -0.120068 -0.144337 0.0346191 -0.149672 -0.0861907 0.0211821 -0.0859805 -0.0870742 -0.00222877 -0.106068 -0.0133467 -0.0793522 0.111784 0.491592 -0.0222132 0.283179 -0.0305791 -0.474954 -0.00356959 0.118887 0.703072 -0.392536 0.156753 -0.0869636 -0.215128 -0.517604 -0.0101586 -0.400905 -0.098479 -0.264395 -0.222786 0.125875 -0.330557 0.0283152 -0.278871 -0.124 0.0738635 -0.0519664 0.00291998 -0.0719708 0.197785 -0.101643 -0.15239 -0.0943867 0.0388387 -0.0986113 0.00596692 0.0302382 -0.0524603 -0.0477885 -0.142157 -0.131954 -0.135113 -0.151613 -0.122652 -0.122937 -0.105672 -0.0323621 -0.0720601 -0.13551 -0.110137
weight: 0.120199 0.00600133 0.12521 0.000430017 0.0322679 0.132606 0.109305 0.16812 0.102029 0.159862 0.120198 0.169297 0.14448 0.167708 0.142601 0.120806 0.126544 0.158626 0.13691 0.127274 0.13326 0.128081 0.115487 0.105301 0.128301 0.117783 0.0983352 0.113519 0.100431 0.165929 0.0967402 0.128322 0.163633 0.12841 0.127956 0.158225 0.119891 0.155107 0.131149 -0.291473 -0.207566 0.14184 -0.0968974 0.118105 -0.285086 0.050194 0.39963 0.027699 0.169312 0.292882 -0.0888921 -0.00815433 0.126902 -0.167805 -0.189554 0.213277 0.04403 0.122282 0.289505 0.00651482 -0.332874 -0.041582 0.111627 0.169292 0.142007 0.159559 0.134166 0.0656008 0.121813 0.0946429 0.124897 0.166551 0.123112 0.160313 0.165238 0.141818 0.143565 0.10181 0.107604 0.105905 0.0952592 0.112282 0.112144 0.120065 0.14906 0.134132 0.105687 0.11809
weight: -0.0443186 0.00871463 -0.0490849 0.00264453 -0.00715305 -0.0567906 -0.0337076 -0.0800409 -0.0267886 -0.0766367 -0.0513746 -0.0789594 -0.065489 -0.080043 -0.0640135 -0.0449015 -0.0503235 -0.0758596 -0.0593959 -0.0509968 -0.0563116 -0.051732 -0.0397422 -0.029857 -0.0519316 -0.0419803 -0.0234311 -0.0378198 -0.0253222 -0.0796858 -0.0220162 -0.0519521 -0.0787253 -0.0520314 -0.0516187 -0.0755971 -0.0440212 -0.0734598 -0.0544766 -0.133096 0.334321 -0.0664719 0.123412 -0.154133 0.0633597 0.192878 -0.155057 -0.0354754 0.0427764 -0.325683 0.0205005 0.125005 -0.257964 0.268298 -0.0311048 -0.29198 -0.0266452 -0.360158 -0.194797 0.113531 0.224025 0.0364892 -0.0359707 -0.0789268 -0.0635407 -0.0764499 -0.0570853 -0.0257886 -0.0458698 -0.0201873 -0.048793 -0.0798639 -0.0471067 -0.0769111 -0.0794387 -0.0633914 -0.0647736 -0.026587 -0.032062 -0.0304322 -0.0207218 -0.0366106 -0.0364764 -0.0441887 -0.0690006 -0.0570564 -0.030225 -0.042277
weight: -0.0604366 0.0153481 -0.0608503 0.00299515 0.0176618 -0.00809886 -0.0590825 -0.0448644 -0.0580338 -0.0545018 -0.00330137 -0.0388525 -0.0600607 -0.0457811 -0.0603605 -0.0604962 -0.0609278 -0.055244 -0.0609291 -0.060963 -0.0610624 -0.0609971 -0.0599066 -0.0585095 -0.0610055 -0.0601793 -0.0575011 -0.0596568 -0.0578026 -0.0488118 -0.0572741 -0.0610058 -0.0515427 -0.0610094 -0.0609922 -0.055469 -0.0604058 -0.0569823 -0.061069 -0.132216 -0.0943369 0.00133475 0.0925621 0.0379198 0.0620472 -0.154485 -0.0659074 -0.0722581 -0.0225145 0.0494173 -0.335523 -0.0477271 0.055437 -0.132321 -0.228326 0.0634255 -0.053025 1.36357 -0.108869 -0.0311119 -0.164262 -0.0722287 -0.0594044 -0.0387531 -0.0604428 -0.0546919 -0.0610439 0.0119723 -0.0605894 -0.0569804 -0.06083 -0.0478736 -0.0606998 -0.0542095 -0.0497451 -0.0604675 -0.0602138 -0.0580021 -0.0588413 -0.0585962 -0.0570665 -0.0594932 -0.0594749 -0.0604235 -0.0590535 -0.061045 -0.0585648 -0.0602131
weight: -0.113671 0.00260758 -0.11205 -0.000502323 0.008336 -0.029739 -0.115982 -0.0742838 -0.116565 -0.0898087 -0.0227779 -0.067066 -0.103034 -0.0754953 -0.104186 -0.113491 -0.11157 -0.0912704 -0.107249 -0.111301 -0.108911 -0.110997 -0.114883 -0.116394 -0.110912 -0.114331 -0.116609 -0.115294 -0.116601 -0.0798627 -0.116586 -0.110906 -0.0843542 -0.110872 -0.111044 -0.0917235 -0.11376 -0.0948975 -0.109792 -0.210743 -0.044094 -0.0271398 0.0756449 0.124122 -0.143834 -0.307906 0.190783 0.164602 0.0503777 0.0629944 -0.140458 0.315787 -0.0708722 0.0552648 -0.235766 0.013804 0.105604 -0.253987 -0.111692 -0.235423 -0.127209 -0.00503761 -0.115635 -0.0669534 -0.104538 -0.0901785 -0.108517 0.000715546 -0.113181 -0.11653 -0.112159 -0.0784451 -0.112765 -0.0892429 -0.0813341 -0.104644 -0.103604 -0.116571 -0.116185 -0.116345 -0.11655 -0.115523 -0.115547 -0.113709 -0.0999041 -0.108532 -0.116363 -0.114253
weight: 0.0430769 -0.0303953 0.0405694 -0.00588008 -0.0419563 -0.0315585 0.0475167 -0.00018907 0.0497235 0.0147907 -0.0343367 -0.00698063 0.0286298 0.000970337 0.0299574 0.0427891 0.0398562 0.0162452 0.0337417 0.0394568 0.0360035 0.0390111 0.0451695 0.0488012 0.0388877 0.0441817 0.0506409 0.0459651 0.0501352 0.00514822 0.0510037 0.0388756 0.00946388 0.038827 0.0390808 0.0166988 0.0432217 0.0199271 0.0372578 -0.14 -0.193917 -0.140051 0.0437574 -0.0312749 -0.0586123 0.34118 -0.262056 0.0977682 0.0623492 0.100617 0.205002 0.26926 0.0261951 -0.0979515 -0.00657081 -0.0292752 -0.00409544 -0.150621 -0.0370326 0.0482462 0.0555449 -0.0766951 0.046687 -0.0070852 0.0303687 0.0151572 0.0354535 -0.0415005 0.0423 0.051449 0.040733 0.00379245 0.0416529 0.0142308 0.00655886 0.0304975 0.0292819 0.049781 0.0480845 0.0486185 0.0513208 0.0464416 0.0464936 0.0431395 0.0251867 0.0354762 0.0486854 0.0440458
weight: 0.145895 -0.0597582 0.141889 -0.0104431 -0.089069 -0.0535494 0.151892 0.0446235 0.15416 0.0852583 -0.0626125 0.0245477 0.118631 0.0479469 0.12155 0.145455 0.140684 0.0889735 0.129431 0.14 0.133794 0.139229 0.148919 0.153285 0.139014 0.147532 0.154915 0.149982 0.154514 0.0596658 0.15518 0.138994 0.0713299 0.138908 0.139349 0.0901217 0.146115 0.0981588 0.136109 0.483264 0.192733 -0.400005 -0.274058 -0.0536863 0.243172 -0.154873 -0.215614 -0.304795 -0.168733 -0.306674 0.385493 -0.526475 -0.068258 0.162466 0.299395 0.245316 -0.137668 0.198006 0.0595947 0.184659 0.317928 0.392506 0.150899 0.0242338 0.122442 0.086199 0.132757 -0.0864159 0.144694 0.155484 0.142161 0.0559097 0.143666 0.0838191 0.0635237 0.122717 0.120072 0.15421 0.15253 0.1531 0.155399 0.150593 0.150658 0.145992 0.110758 0.132798 0.153166 0.147335
weight: -0.0660883 0.0483137 -0.0630547 0.00889645 0.0718227 0.0606403 -0.0713725 -0.000696981 -0.0739767 -0.0264003 0.0654561 0.0120783 -0.0473291 -0.00280957 -0.0492086 -0.0657422 -0.0621805 -0.0287161 -0.0543982 -0.0616907 -0.0573547 -0.0611402 -0.0685847 -0.0728929 -0.0609876 -0.0674084 -0.0750452 -0.0695308 -0.0744587 -0.0102659 -0.0754645 -0.0609719 -0.0176714 -0.0609111 -0.0612252 -0.0294316 -0.0662601 -0.0344477 -0.0589509 0.00596174 0.0342405 0.462831 0.259317 0.00893798 -0.0108322 -0.0858118 0.170594 0.201399 0.0470959 -0.0590369 -0.167932 0.071305 -0.0761825 0.0263436 -0.139155 -0.0328268 0.0798562 -0.278697 0.0141946 -0.211735 -0.328448 -0.215709 -0.070388 0.0122789 -0.0497872 -0.0269858 -0.0566452 0.0740398 -0.0651535 -0.0759795 -0.0632533 -0.00787506 -0.0643724 -0.0255015 -0.0127215 -0.0499658 -0.0482547 -0.0740437 -0.0720457 -0.0726782 -0.0758315 -0.0700972 -0.0701573 -0.0661642 -0.0423383 -0.0566735 -0.0727555 -0.067247
weight: 0.049518 -0.0127953 0.0512844 -0.00381427 -0.0021065 0.0397176 0.0456178 0.0618494 0.0430362 0.06062 0.0343567 0.0609254 0.0571275 0.0618804 0.0566397 0.0497338 0.0517443 0.0603539 0.0550549 0.0519941 0.0539504 0.0522657 0.0478287 0.0441952 0.0523408 0.0486531 0.0417277 0.047123 0.0424711 0.0617826 0.0411621 0.052347 0.0614099 0.0523762 0.0522239 0.0602666 0.0494073 0.0595971 0.0532794 0.0450947 -0.0676861 0.0856552 -0.032987 0.0452653 -0.0116222 -0.080385 0.174226 0.279483 -0.0797086 -0.0398402 0.0104837 -0.350121 0.117515 -0.320867 0.0393173 0.00783392 -0.00545859 0.0724021 0.402901 -0.0308271 -0.0156922 0.105399 0.0464459 0.0608999 0.0564816 0.0605545 0.05423 0.0119433 0.0500924 0.0404189 0.051176 0.0618457 0.0505514 0.0607172 0.0616892 0.0564308 0.0568923 0.0429588 0.0450128 0.0444093 0.040638 0.0466808 0.046631 0.0494692 0.0582463 0.0542195 0.0443318 0.0487631
weight: -0.008303 -0.0121312 -0.00876794 -0.0021499 -0.0201042 -0.0311793 -0.00738417 -0.0187229 -0.00679843 -0.0130887 -0.0306914 -0.0220719 -0.0105486 -0.0181892 -0.0103674 -0.00835833 -0.00889336 -0.0127103 -0.00984496 -0.00896251 -0.00951654 -0.00903751 -0.00788828 -0.00706653 -0.00905889 -0.0080872 -0.00647245 -0.0077237 -0.00666084 -0.0163878 -0.0063228 -0.00906037 -0.0147553 -0.00906846 -0.0090264 -0.0125987 -0.00827527 -0.0119021 -0.00932321 0.689955 -0.226568 -0.301349 0.0515353 -0.091608 0.1711 -0.0555558 -0.123473 -0.520803 0.00680709 -0.0184763 -0.0599086 -0.914657 0.0396828 0.205074 -0.0391693 -0.034527 -0.0242616 -0.0527794 1.30032 0.036083 -0.0672706 -0.0731944 -0.00756881 -0.0221253 -0.0103109 -0.01299 -0.0095981 -0.0250011 -0.00845103 -0.00611762 -0.00873845 -0.0169496 -0.00857156 -0.013244 -0.0158273 -0.0102936 -0.0104598 -0.00677962 -0.00725024 -0.00711454 -0.00617937 -0.0076228 -0.00761145 -0.00829063 -0.0110327 -0.0095945 -0.00709745 -0.00811404
weight: -0.064892 0.0501703 -0.0628883 0.0104681 0.0632312 0.0382751 -0.0679236 -0.0162547 -0.0690469 -0.0357939 0.0437603 -0.00605299 -0.0516597 -0.01791 -0.0530588 -0.0646705 -0.0622923 -0.0375478 -0.056837 -0.0619552 -0.0589346 -0.0615762 -0.0664192 -0.0686211 -0.0614701 -0.0657171 -0.0693905 -0.0669565 -0.0692127 -0.023643 -0.0694999 -0.0614605 -0.0292142 -0.0614186 -0.0616353 -0.03809 -0.0650028 -0.0418932 -0.0600549 -0.248025 0.219254 0.134398 0.0590528 0.00188559 0.0829364 0.00794544 0.345826 -0.0291747 -0.0861328 -0.0247103 0.0220632 -0.0184647 0.0205473 0.0792627 -0.0689307 0.0344994 -0.0473756 -0.182221 -0.313522 -0.061782 -0.0663534 -0.0740142 -0.0674196 -0.00589119 -0.0534862 -0.0362378 -0.0584353 0.0589416 -0.0642888 -0.0696138 -0.0630232 -0.0218231 -0.0637739 -0.0351142 -0.0254978 -0.0536184 -0.0523505 -0.0690711 -0.0682447 -0.0685287 -0.0695831 -0.0672653 -0.0672986 -0.0649408 -0.0478912 -0.0584552 -0.068563 -0.0656181
weight: -0.0639713 0.0433891 -0.0623233 0.00842283 0.0615158 0.0489369 -0.0661245 -0.0106944 -0.0666761 -0.0349802 0.05367 0.00197968 -0.0518921 -0.0127784 -0.0532324 -0.0637949 -0.0618121 -0.0370233 -0.0568087 -0.0615176 -0.0587746 -0.0611838 -0.0651324 -0.0664955 -0.0610894 -0.0646123 -0.0667795 -0.0655093 -0.0667319 -0.0200171 -0.0667987 -0.0610806 -0.0270114 -0.061044 -0.061236 -0.0376475 -0.0640591 -0.0419099 -0.0598096 0.213803 0.0591881 0.327148 0.0063198 0.0757429 0.0706941 -0.0937392 -0.199949 0.0398858 -0.0387521 0.159615 -0.197109 -0.0401392 0.201713 -0.524267 -0.052447 0.0270654 -0.0251221 -0.296629 -0.252247 -0.104903 0.0266991 -0.0451943 -0.065818 0.00217797 -0.0536382 -0.0355017 -0.0583092 0.0632745 -0.0634875 -0.0668037 -0.0624384 -0.0177175 -0.0630664 -0.0341785 -0.0223576 -0.0537639 -0.0525552 -0.0666845 -0.066306 -0.0664515 -0.0668045 -0.0657167 -0.0657378 -0.0640091 -0.0481948 -0.0583276 -0.0664677 -0.0645365
weight: -0.0222179 -0.00120061 -0.0227668 0.000380684 -0.00828008 -0.0185015 -0.021087 -0.0256692 -0.0204659 -0.0257827 -0.0174043 -0.0247002 -0.0248273 -0.0257709 -0.0246401 -0.0222861 -0.0229101 -0.0257392 -0.0240266 -0.0229867 -0.023629 -0.0230739 -0.0217071 -0.0207306 -0.0230962 -0.0219539 -0.020197 -0.0215027 -0.0203455 -0.0259522 -0.02009 -0.0230988 -0.0259156 -0.0231078 -0.0230601 -0.0257237 -0.0221841 -0.0255959 -0.0234013 -0.14058 -0.241961 -0.161438 0.02536 0.00452002 0.121752 0.169355 -0.0220322 0.418672 -0.0551076 -0.231155 -0.108945 0.0160995 -0.144134 -0.123367 0.350173 0.134797 -0.118856 0.0599316 -0.264034 -0.0324301 0.116934 -0.0295214 -0.0213118 -0.0246824 -0.0245782 -0.0257725 -0.0237265 -0.0123051 -0.0223963 -0.0199565 -0.0227317 -0.025924 -0.0225381 -0.0257974 -0.025959 -0.0245582 -0.0247379 -0.0204489 -0.0209312 -0.0207811 -0.0199953 -0.0213769 -0.0213631 -0.0222041 -0.0252294 -0.0237232 -0.0207628 -0.0219872
weight: -0.00800682 -0.000843367 -0.00794225 -0.000265207 8.26331e-05 -0.00196021 -0.00809852 -0.00441453 -0.00813424 -0.00598069 -0.00138272 -0.00391251 -0.00752712 -0.00452394 -0.00762622 -0.00799881 -0.00792664 -0.0061553 -0.00780329 -0.00791795 -0.00785494 -0.00790875 -0.00805709 -0.00811738 -0.00790724 -0.00803436 -0.00816139 -0.00807263 -0.00814512 -0.00493481 -0.00817679 -0.0079063 -0.00537424 -0.00790531 -0.00791025 -0.00621038 -0.00801093 -0.00659872 -0.00787655 0.356524 0.225509 0.431814 -0.223346 0.06137 0.0551168 -0.119083 0.205989 0.0194925 0.0289112 0.0342887 0.0684788 0.0208345 0.0832239 0.0254436 -0.083485 -0.138845 0.0387871 -0.29698 0.0217079 -0.299994 -0.325307 0.250918 -0.0080854 -0.00390832 -0.00765255 -0.00602386 -0.00784417 0.000187111 -0.00798578 -0.00819933 -0.00794761 -0.00479915 -0.00796969 -0.00591361 -0.0050753 -0.0076595 -0.00757835 -0.00813588 -0.00810623 -0.00811445 -0.00819293 -0.00808124 -0.00808236 -0.00800886 -0.0072026 -0.00784472 -0.00811527 -0.00803085
weight: 0.00810911 -0.0273995 0.00479343 -0.00488739 -0.0470392 -0.0637147 0.0147357 -0.03847 0.0185792 -0.023526 -0.0637421 -0.0453255 -0.00895749 -0.0373006 -0.00750286 0.00771621 0.00389278 -0.0220409 -0.00329689 0.00339553 -0.000721784 0.00284698 0.0110875 0.0169154 0.00269577 0.00965438 0.0203308 0.0122819 0.0193524 -0.0331288 0.0210488 0.00268137 -0.0288669 0.00262137 0.00293169 -0.0215759 0.00830851 -0.0182399 0.000740875 -0.210773 -0.0103401 -0.105035 0.0568949 -0.0421911 -0.151796 -0.0295943 -0.127112 0.598559 0.0728842 0.0579051 0.0602239 0.064504 -0.232229 0.101482 0.0978048 0.070429 0.00977125 0.103819 -0.0675011 0.0251406 0.0278191 -0.0809732 0.0134022 -0.045429 -0.00705019 -0.023152 -0.00135432 -0.056737 0.0070549 0.021959 0.00500239 -0.034475 0.00619726 -0.0240948 -0.0317342 -0.006908 -0.00824447 0.0186861 0.0156806 0.0165968 0.021695 0.0130175 0.0130984 0.00819611 -0.012687 -0.00132891 0.0167123 0.00946171
weight: 0.0548635 -0.0148302 0.056019 -0.00339259 -0.0115214 0.0216963 0.0519838 0.0519295 0.0499332 0.0579988 0.01684 0.0476606 0.0590134 0.0525681 0.0588618 0.05501 0.0563052 0.0583243 0.0581779 0.0564576 0.0575954 0.0566232 0.0536691 0.0508564 0.0566674 0.0542629 0.048903 0.0531443 0.0494858 0.0546408 0.0484633 0.0566711 0.0563945 0.0566897 0.0565975 0.0584149 0.0547884 0.05892 0.0572183 -0.0626864 0.208767 -0.183651 -0.0294483 0.0027065 -0.117729 0.113995 -0.0254087 -0.208835 -0.0652205 -0.0341477 -0.0701561 -0.0318675 -0.674494 -0.000501224 -0.196133 -0.0087065 -0.0317809 0.0449385 -0.0543943 1.95282 0.0441173 -0.0248521 0.0526289 0.0475883 0.0588057 0.0580849 0.057749 -0.0016335 0.0552495 0.0478913 0.0559513 0.0540082 0.0555504 0.0578598 0.0552595 0.0587857 0.0589444 0.0498723 0.0515055 0.0510266 0.0480592 0.0528084 0.0527706 0.0548309 0.0592007 0.0577432 0.0509651 0.0543407
weight: 0.0323748 -0.0237736 0.0298529 -0.00448421 -0.039358 -0.0368654 0.0374547 -0.00533237 0.0404844 0.00730909 -0.0399523 -0.0117084 0.0192257 -0.00428064 0.0203769 0.0320749 0.0291667 0.00852249 0.0236615 0.0287887 0.0256443 0.0283694 0.0346413 0.0391656 0.0282549 0.0335491 0.0418821 0.0355572 0.0411002 -0.000636651 0.0424577 0.0282438 0.00294033 0.0281985 0.0284352 0.00890461 0.032526 0.0116488 0.0267635 -0.0150161 0.354168 -0.179373 -0.150387 -0.144561 0.0867981 0.177096 -0.214326 0.16687 0.0785921 -0.130749 0.110834 0.052597 -0.315406 0.493463 0.209562 -0.0837892 -0.0282507 0.148243 0.0335241 -0.350129 -0.210446 0.125453 0.0364197 -0.011806 0.0207352 0.0076132 0.025159 -0.044215 0.0315729 0.0431901 0.0300121 -0.00179413 0.0309214 0.00684529 0.000547488 0.0208462 0.0197909 0.0405696 0.0381938 0.0389141 0.0429773 0.0361232 0.0361848 0.0324404 0.01622 0.0251774 0.0390051 0.0334018
weight: -0.00979514 0.00462627 -0.0099328 0.000820055 0.00674676 0.00257381 -0.00925471 -0.00559855 -0.00875609 -0.00844365 0.00336123 -0.00387901 -0.00962685 -0.00587231 -0.00970518 -0.00981553 -0.00995617 -0.00862076 -0.00990145 -0.00996671 -0.00997033 -0.0099751 -0.00960032 -0.0089876 -0.00997737 -0.00970288 -0.00849103 -0.00950085 -0.00864154 -0.00680428 -0.00837691 -0.00997718 -0.0076448 -0.00997832 -0.00997394 -0.00867384 -0.00978463 -0.00900078 -0.00998527 0.120132 0.112958 0.188875 0.0106487 0.0139602 0.174543 -0.0575621 0.172936 -0.616938 0.00616293 -0.0729003 0.146733 -0.0936863 0.1792 -0.299658 -0.233721 0.0667132 -0.126734 0.0508783 -0.335625 -0.213373 0.189165 0.0136993 -0.00939546 -0.0038514 -0.0097298 -0.00849044 -0.00995876 0.0063345 -0.00984736 -0.00822861 -0.00992668 -0.00651178 -0.00988465 -0.00837178 -0.0070961 -0.00973695 -0.00966597 -0.00874047 -0.00914527 -0.00903029 -0.00827347 -0.00943293 -0.00942595 -0.00979024 -0.00940842 -0.00995854 -0.00901581 -0.00971531
